nep4 2 Li H 
cutoff 5 5 80 80
n_max 8 8
basis_size 8 8
l_max 4 2 0
ANN 30 0
 -1.6119289e-05
  2.4513032e-05
  1.4610165e-05
  4.8505033e-05
  2.0317626e-05
  1.0342666e-05
 -1.6867754e-05
  5.0646177e-06
 -2.0374760e-05
  9.5254467e-07
 -2.5735859e-05
 -1.2428767e-05
  3.1626747e-05
  1.3383321e-05
 -1.3337589e-05
 -2.0779489e-05
 -1.3909917e-06
  2.4045839e-05
  7.2174439e-06
  4.1688795e-06
 -1.7894414e-05
  4.4070548e-06
  1.2489389e-05
  2.2042399e-05
 -2.2564375e-07
  1.8805189e-07
 -2.1316357e-05
  3.5221361e-05
  2.9992074e-05
 -1.0523785e-05
 -5.7369060e-05
 -1.4395198e-05
 -3.4071283e-05
 -5.6435365e-05
 -1.5758415e-05
  8.2299935e-05
  8.8025336e-05
 -7.8395358e-05
 -1.9892634e-05
 -1.9023180e-05
  4.0343082e-05
  1.1551090e-04
  2.3684042e-05
  7.0148085e-06
 -3.1552601e-05
  2.2575312e-05
  5.9137557e-05
 -8.3794048e-06
  2.8125805e-06
  9.5096202e-06
  4.7227724e-05
  4.1019346e-05
  3.8903522e-07
  2.2767825e-05
 -1.1365231e-05
 -5.0559880e-05
  9.3426766e-05
  7.6017801e-05
  4.3392447e-05
 -2.5895656e-06
  3.5449819e-05
 -7.7957711e-06
 -1.6413231e-05
  3.2098742e-05
  8.4124462e-05
 -1.5499401e-05
 -3.3957898e-05
  5.7795645e-05
 -7.1988256e-06
  2.9287085e-05
 -8.6807522e-06
  2.2032726e-05
  3.8244605e-05
 -1.5442830e-06
  6.8745278e-05
 -5.2872663e-05
  9.0355337e-05
  1.8823273e-06
  4.0261410e-05
 -1.6937765e-05
 -7.1007424e-05
 -3.3696357e-05
  1.7654191e-05
  7.1264731e-06
  9.5723453e-06
  3.1135227e-05
  3.9125745e-05
  5.9626968e-06
  5.0330116e-05
  5.6545519e-05
 -2.5934587e-05
  6.3821308e-06
  2.7042366e-05
  8.7199887e-06
  4.9101825e-05
  6.0271726e-05
  2.6233733e-05
 -1.7869790e-05
 -3.3091688e-05
  6.1803825e-05
  9.5145342e-06
  5.0833933e-06
  5.8098307e-05
  3.3336662e-05
 -2.9332959e-05
  3.5006904e-06
 -8.3697832e-06
 -2.8727175e-06
 -8.3158193e-05
 -1.9035935e-05
  6.5518998e-06
  3.9218030e-05
  1.0616859e-01
 -1.4764429e-05
 -1.5661938e-01
  2.0711582e-02
 -8.1618509e-06
 -8.1612565e-02
 -3.3101544e-02
 -3.3613086e-02
  3.4863781e-02
 -4.9304236e-02
  3.0792294e-02
  7.5143583e-02
  2.9064810e-02
 -9.5560290e-02
 -1.5638395e-01
  5.4294363e-02
 -8.7145865e-02
 -9.9991612e-02
 -1.0480824e-01
 -1.4407584e-02
  6.7452542e-02
  9.6106023e-02
 -2.3527844e-02
  5.8590133e-02
 -1.5771301e-01
 -1.3823001e-01
  6.9323607e-02
  6.1771466e-06
 -1.1411539e-02
 -1.5818738e-05
  3.1306410e-01
 -5.4757932e-04
  1.1214442e-05
 -3.6806643e-06
  7.5731805e-05
  1.0814777e-04
  1.3774956e-04
  5.9100423e-02
 -7.1023270e-02
 -1.5372020e-01
  4.4117089e-05
  1.8511784e-05
 -3.7082439e-06
  7.2114031e-05
  5.1480065e-06
  1.0080145e-04
  6.5497849e-03
  7.5351305e-02
  7.6678721e-04
  1.9261211e-05
 -1.2144505e-05
  1.8832365e-05
 -4.5394722e-07
  8.6487216e-06
  2.0157380e-05
 -1.2710757e-04
 -1.0043213e-05
 -3.3683744e-05
  1.1973751e-05
  7.7605155e-06
 -2.4189533e-06
  1.1481045e-05
 -1.3491834e-08
  4.3647677e-05
  8.6836544e-06
  2.8451956e-05
 -1.7012531e-05
  8.9000299e-05
 -1.8545138e-06
  3.2614327e-05
 -2.7764505e-05
 -3.4696138e-06
  3.1887768e-05
 -7.9927145e-07
  1.3869821e-05
 -2.3247747e-05
  9.1413576e-06
 -1.1215578e-05
  6.1232269e-05
  2.8936645e-05
  2.9432960e-05
  8.4495177e-06
 -2.0625768e-05
 -2.0325711e-05
  4.7889636e-05
  2.4542318e-05
 -2.5177131e-05
 -2.7232645e-06
  3.1074142e-05
  2.0970847e-05
 -1.5793265e-05
 -3.1163825e-05
 -2.0533567e-05
  1.8852799e-05
 -4.0531064e-05
  2.0871188e-05
  3.1236967e-05
  4.1248582e-06
 -9.3137467e-05
 -4.8644368e-05
 -1.1597699e-05
  1.2668148e-05
 -3.0063654e-06
 -6.2804764e-05
 -9.6841439e-05
 -1.8055807e-05
  1.4418460e-04
 -3.9321108e-05
  1.9833811e-05
 -2.8793416e-05
  7.6565397e-07
  3.6495734e-05
 -3.7047299e-05
  3.6717673e-05
  1.5831760e-07
  1.3386032e-04
 -3.1893196e-05
  1.7599972e-05
  2.1198981e-05
  4.1538522e-05
  2.0374757e-05
  3.3393558e-06
  3.2672022e-05
  2.1005382e-05
  1.2962322e-04
 -5.8779966e-05
 -1.0971109e-05
 -3.1318559e-05
  3.9092916e-05
 -4.3203876e-05
 -1.2697958e-05
 -2.5618026e-05
  4.5862198e-06
 -5.2050095e-06
  5.7900515e-06
 -8.9982168e-05
  1.7444653e-04
 -7.1561185e-06
  2.0519683e-06
  1.5904951e-06
 -1.9292702e-05
  3.9686256e-06
 -3.8296512e-05
 -3.7361033e-06
 -3.6813519e-05
  9.1078837e-05
  5.9833860e-06
  7.1673654e-05
 -1.7402959e-05
 -2.9519853e-05
  4.3521119e-05
 -2.6825412e-05
 -1.6401553e-05
  2.1210719e-06
 -3.3392302e-05
  1.3841357e-05
 -6.1198234e-06
 -3.9122824e-06
 -5.3492953e-05
 -1.0387041e-05
  3.2613287e-05
  7.6166298e-06
 -3.0614799e-05
  2.1205373e-05
  8.2135439e-06
 -2.0005584e-06
  4.8438906e-05
 -4.8328013e-05
  1.9499130e-05
 -4.2003929e-05
 -1.5506139e-05
 -5.8629453e-06
 -4.6425841e-05
 -2.2243483e-05
  6.0091596e-05
  6.5313681e-05
 -7.7297263e-05
 -4.1891517e-06
  2.0307927e-05
  7.0731483e-05
 -1.3565338e-04
  1.9139652e-05
  1.5115278e-05
  3.3191945e-06
  2.8341034e-05
  1.0364036e-05
  1.6135826e-05
 -1.0909926e-04
  2.9670089e-05
  2.7892953e-05
 -9.8998371e-06
 -8.9590139e-06
  2.5193811e-05
 -2.0640555e-05
  2.4373547e-05
  3.1886579e-05
 -7.5423894e-05
 -5.4903680e-06
  3.3584786e-06
 -1.2812338e-05
  6.6011726e-06
  7.3084440e-05
 -2.1247906e-05
  2.7250731e-05
 -9.0661051e-05
  3.0536088e-05
  2.8096389e-05
 -3.7406182e-05
  1.3813184e-06
  7.3502240e-05
 -2.7532309e-05
 -1.1589649e-05
 -3.8628317e-05
  2.0221714e-05
 -2.9570851e-05
  1.1683584e-05
 -4.3297954e-05
  2.0943173e-06
 -8.4602316e-06
  1.0113885e-05
 -3.7656420e-05
  1.9970699e-05
 -4.6023786e-05
  1.1603820e-05
 -2.9776194e-05
 -1.1350528e-06
  6.1559978e-05
  4.4392814e-06
 -3.7189373e-05
  5.3447320e-07
  7.4615287e-05
  4.5368826e-05
  3.0559771e-05
  2.3179708e-05
 -6.8722315e-05
 -1.9835436e-05
 -3.4872395e-05
  2.6317854e-05
 -4.8187308e-06
 -1.1641164e-05
  4.2600572e-05
 -4.2498628e-05
 -1.7458115e-05
  3.1834015e-06
 -2.4423960e-05
 -5.8214064e-06
  3.2071406e-05
 -2.0498685e-06
  8.1377097e-05
 -1.4573444e-05
  2.8272691e-05
  2.4805218e-05
  2.7640273e-05
  2.4520274e-05
  7.2553053e-06
 -3.2268345e-05
 -3.6805945e-05
 -2.1714666e-05
  3.3719973e-06
 -3.9092254e-05
 -1.0653900e-04
 -5.2143252e-05
 -1.9309313e-05
 -3.5016332e-05
 -8.2365121e-05
  4.0019284e-05
 -2.6476293e-05
 -1.0442133e-06
 -6.7937441e-07
  3.0932755e-05
 -4.8483787e-05
 -3.7096297e-06
  4.1971722e-05
 -1.0530088e-04
 -7.7847450e-05
  2.0431787e-06
 -2.5080762e-05
  8.9600908e-05
  4.7161343e-06
  6.9648604e-06
  7.9335427e-07
 -1.1939694e-04
  4.8206966e-05
  2.8672752e-05
 -8.9356681e-06
 -1.3219521e-06
  6.3114358e-06
  1.5102224e-05
  5.0511822e-05
 -1.9420579e-05
 -1.8292716e-06
  1.0936821e-04
 -1.5023221e-06
 -3.8182083e-05
 -2.0252948e-05
  9.7702825e-05
  6.7341753e-05
  5.0888400e-07
 -3.5798443e-05
 -4.4495278e-05
 -2.6268035e-06
  7.3158713e-05
 -9.6009921e-05
  2.0509397e-05
 -1.3671845e-06
 -5.1894749e-05
  1.9980027e-05
 -3.1717755e-05
 -1.7734204e-05
 -1.8036542e-05
 -2.6270258e-05
 -3.7119655e-08
 -3.0655185e-05
 -5.9220634e-05
 -5.6457125e-06
 -2.8343118e-05
 -7.9736637e-06
 -9.3281710e-07
  3.8592243e-06
 -7.4690812e-05
  3.2450233e-05
 -4.4216340e-05
  2.2030466e-05
  1.5862398e-06
 -8.3945376e-01
  7.7622179e-05
  4.7872546e-01
 -8.9616102e-01
 -2.0132211e-05
  1.5495810e-01
  1.7605929e-02
  2.5171089e-01
 -1.9141150e-01
  8.0340043e-02
  4.2629239e-01
 -4.5923114e-01
 -4.9816690e-02
  2.3648229e-01
  2.5608993e-01
 -2.1117014e-01
  9.9845454e-02
  2.0659083e-01
  2.0935307e-01
  5.9979942e-02
 -1.0860748e-01
 -1.4892781e-01
  6.6503964e-02
 -9.3312152e-02
  4.1138542e-01
  2.6711509e-01
 -1.0606896e-01
  3.5219716e-03
  2.8975502e-02
  7.6396288e-03
 -4.1935480e-01
  8.6748442e-03
  1.9409876e-05
  1.6828949e-04
 -2.0653375e-05
 -2.5297905e-04
  1.7611566e-05
 -3.7749618e-02
  1.2746575e-01
  1.1993742e-01
  2.1551318e-06
  1.3451609e-06
 -1.8485178e-05
 -6.5835156e-05
  6.2652522e-05
  1.4666268e-02
 -5.2415516e-02
 -1.1771460e-01
 -3.5381570e-02
  6.0009894e-05
 -8.6426953e-05
  5.9757899e-06
 -3.0755578e-05
  5.1458566e-05
  1.1805820e-04
  4.3513497e-05
  5.5411845e-05
 -2.6058493e-05
 -1.8976170e-05
 -3.3999193e-05
 -1.2342061e-06
  2.3700019e-05
 -1.9953442e-05
  2.2367783e-05
  2.4273319e-05
 -7.3076459e-05
 -3.0144802e-05
  3.4166894e-06
  1.7945848e-05
  9.1028533e-06
 -1.0423044e-04
  1.2874766e-05
  3.9373062e-06
  6.0160030e-05
  1.7866263e-06
 -2.9396870e-05
  3.8870548e-05
  2.3676877e-05
  2.1959061e-06
 -4.4028889e-06
  8.2407478e-06
 -1.6003671e-05
 -2.5436628e-05
  2.5322513e-05
  1.4615567e-05
 -1.1026094e-05
  8.3898347e-05
 -3.5657188e-06
  1.0367302e-07
  1.4694888e-06
  7.7948302e-05
  1.5192826e-05
  2.5936813e-05
  4.0711240e-07
 -9.9245635e-06
  7.9401816e-06
  6.3627886e-06
  4.4008622e-05
  7.3140268e-06
  4.0646952e-05
 -1.3805034e-05
 -3.6424284e-05
  8.8631771e-07
 -4.3938733e-05
  7.6744247e-05
  1.7250525e-06
 -2.8885941e-05
  5.4355278e-06
 -1.2522195e-04
 -3.6356414e-05
  7.7079319e-05
  1.1215337e-05
 -7.6582684e-05
 -2.5109137e-05
 -8.5036327e-06
 -2.2519529e-05
  1.3064843e-05
  1.8365306e-05
  8.2716933e-06
 -8.1897570e-06
 -1.4399954e-04
 -3.3106429e-05
 -3.7282705e-05
 -1.5445256e-06
 -2.3101229e-06
 -1.1896342e-05
 -1.1312955e-05
 -1.5833442e-05
  2.6670275e-05
 -1.3082085e-05
  4.8458137e-06
 -6.6914013e-06
  1.7175293e-05
 -1.2498509e-05
 -1.4600207e-04
 -8.7270222e-05
  2.0639312e-05
 -8.8261790e-05
 -1.6060180e-04
 -1.5116392e-05
 -1.5819813e-05
 -2.7949129e-06
  6.1706564e-06
  1.9234523e-05
 -1.2803738e-04
  3.6667985e-05
 -4.2712850e-06
  4.2843535e-06
 -1.3833303e-05
 -3.3032948e-06
 -5.3681324e-06
 -7.3263102e-05
 -3.1005631e-05
 -3.0851465e-05
  4.3689798e-07
 -6.3139916e-05
 -9.6515896e-07
  2.4492005e-05
  2.3684739e-05
 -5.1561805e-05
  5.3122370e-05
  1.4479553e-05
 -1.2062013e-04
  7.8757785e-06
  1.3697766e-05
  1.0704403e-05
 -1.3000070e-05
  3.6020909e-05
 -1.4722446e-05
  9.4130351e-05
  2.1231053e-05
  6.4448395e-05
 -7.4965874e-06
 -1.0435040e-05
 -6.7297588e-05
 -4.6619421e-05
  2.8073757e-05
 -1.8499760e-07
 -3.1755924e-05
 -3.4345146e-06
 -1.5463544e-05
 -7.4117335e-05
  3.3441269e-05
 -1.2739361e-05
  2.1416661e-05
  2.6008385e-05
  1.0195948e-06
  2.9717845e-05
 -8.8473127e-05
  3.8457754e-05
  1.3996525e-05
  2.6675316e-05
 -5.3347710e-05
 -1.6622933e-05
  3.8452258e-06
 -2.5480336e-05
  5.1234456e-06
 -5.2732681e-05
  1.4766771e-05
 -1.0496795e-05
 -4.6218367e-05
 -2.7358058e-06
  7.8007218e-07
  3.1235133e-05
 -7.0051843e-05
  1.5500622e-06
  1.0880412e-05
  2.7216223e-05
 -1.4099312e-05
 -4.3419008e-05
  1.4932149e-05
  1.5287751e-05
 -1.3755033e-05
 -8.9258228e-06
  4.7066228e-06
 -8.9052764e-06
 -1.0784272e-05
 -3.5767767e-05
  2.6741260e-05
  1.4472081e-04
 -1.7754017e-05
 -3.4083034e-05
 -3.3210825e-05
 -5.9551821e-06
  2.4484918e-05
  7.4496893e-06
  2.2440598e-05
 -3.4485679e-06
 -4.4377764e-05
  3.2935623e-05
  3.6171088e-05
  2.1129941e-05
  8.9789128e-06
 -1.5975170e-04
 -1.0855374e-04
 -4.1848725e-05
 -2.6208816e-06
  2.3221089e-06
  2.3738723e-05
 -1.1137508e-05
  1.7237713e-05
 -7.9458614e-06
  1.1164551e-05
  6.1405633e-05
 -8.2558781e-06
  3.2463980e-05
 -7.9855508e-06
  7.6699973e-05
  2.9497551e-05
 -3.0727144e-05
 -1.2188326e-04
 -1.3165191e-05
  2.3499691e-05
  3.3561413e-05
  1.5636868e-04
 -5.2794217e-05
  2.2976582e-08
  6.5700897e-06
 -3.4302240e-05
  4.4085823e-06
  2.1485440e-04
  1.2802988e-05
 -2.1393726e-05
  4.8245372e-05
 -2.3521103e-05
 -1.1367736e-04
 -9.6357671e-06
 -3.2380845e-05
  1.1862626e-05
 -7.8794299e-05
  4.0503590e-05
 -2.7458023e-05
  4.2988318e-06
 -9.3598137e-06
  3.0413261e-05
 -8.0808095e-06
  1.1666399e-05
 -5.5596724e-05
 -8.7211178e-05
  2.0794983e-05
 -7.7862687e-06
 -6.4409360e-05
 -6.4140768e-05
  2.2173554e-05
  2.8783874e-05
 -1.1504363e-05
 -3.8396141e-05
  5.2283569e-05
 -6.2877239e-06
 -1.1661282e-05
  1.0752390e-04
  2.4846400e-05
  4.7379590e-06
 -1.8212268e-05
 -3.5856658e-06
 -6.4029791e-08
  4.9285380e-05
  2.0012862e-05
 -6.0906791e-06
  8.7766894e-05
 -1.1670490e-05
  9.1503480e-06
  6.7792433e-05
 -3.3633039e-06
  1.8242246e-06
 -4.8922098e-05
 -1.4711145e-06
  1.6070562e-05
 -5.1180345e-05
  7.5583871e-06
  2.5093692e-05
  2.9814566e-05
 -2.3495113e-06
 -9.5986161e-06
  3.4909408e-05
  4.8571197e-05
 -1.4987291e-04
  7.2596216e-05
 -5.9484828e-05
  6.9826114e-05
 -2.4260257e-06
 -6.8068344e-05
 -7.4515997e-06
 -6.5259978e-06
 -3.5384757e-05
  1.4184976e-05
  5.9352100e-05
 -3.8368096e-05
 -1.4791628e-05
 -3.3851364e-05
  1.2334925e-04
 -6.2480314e-05
  4.4877710e-05
 -6.6056433e-05
 -1.8356195e-05
 -3.8775328e-05
  2.1053353e-07
 -3.2819127e-05
 -4.2052190e-05
  1.0370548e-04
 -6.6950452e-06
 -7.7968543e-05
  2.9678349e-05
  1.1654347e-04
  5.5407600e-05
  2.5599165e-05
  8.5780492e-05
  8.1528837e-05
 -2.5282949e-05
 -4.1127228e-06
 -5.5619425e-05
 -3.6673464e-05
 -3.7680242e-05
 -3.5981720e-05
  1.2064305e-06
 -5.8815600e-05
 -4.0392140e-05
 -2.9544355e-05
  3.1629093e-05
 -1.7253354e-06
  1.9733454e-05
 -2.6346832e-05
 -1.7566897e-05
 -4.9991363e-06
 -8.1145225e-07
 -1.4392886e-05
 -6.9697366e-05
  1.3901056e-04
  4.5194472e-05
  6.1754174e-05
  1.3576957e-05
  4.2447875e-05
  1.2939780e-05
 -1.1717585e-05
  5.3092437e-05
  9.9454010e-06
 -5.2259391e-05
 -5.0596842e-05
 -1.8128350e-05
  5.5913832e-05
 -2.9871966e-05
 -1.5709782e-04
  7.8351346e-05
  1.3202120e-05
  2.9769812e-06
 -3.4613004e-05
 -7.3821648e-05
  2.2590526e-05
  7.5148273e-05
 -2.3968076e-05
  1.8595974e-05
  1.8004126e-05
  6.2265251e-05
 -3.1922062e-07
  3.5073506e-05
  7.4893233e-06
 -2.8932457e-06
  3.8058453e-05
 -9.1637721e-06
  8.1332519e-06
  6.4729145e-05
 -1.9276025e-05
 -1.6088399e-06
  4.8256265e-05
  4.7540230e-05
  1.3860671e-05
 -1.8995276e-04
  2.2046418e-06
 -2.5205517e-07
  2.6617536e-05
 -3.4801644e-05
 -1.0021230e-05
  1.4136696e-05
 -4.5527751e-05
  2.5430163e-05
 -2.4664416e-06
  1.7268762e-04
 -6.7912188e-05
 -5.6548026e-05
 -1.2071806e-05
  2.9564777e-05
  4.3570646e-05
 -2.0238931e-05
 -7.6015599e-06
  6.4546221e-05
  6.8153417e-07
  5.6347450e-05
 -1.0331462e-06
  6.6028886e-05
 -1.2364504e-05
  1.6348903e-06
 -2.9501616e-05
  2.9578989e-05
 -1.9845129e-05
 -1.8487409e-04
 -1.3689839e-04
  3.3993019e-05
 -2.8895793e-06
  1.2698048e-04
  4.5981869e-05
  4.4530843e-05
 -3.7991580e-05
  3.2134089e-05
 -9.2903383e-06
 -1.5629743e-05
 -4.4906124e-06
 -4.5842989e-05
 -2.3038365e-05
 -3.4231820e-05
 -1.9059689e-05
  1.3968836e-05
 -5.2292817e-05
  1.5233803e-05
 -1.4368162e-05
 -2.4559613e-05
 -2.2111397e-05
 -8.5948523e-06
 -3.6675706e-06
 -2.1075086e-05
  6.3421444e-06
 -4.1234925e-05
 -6.0381872e-06
 -6.3074998e-07
  2.5940011e-05
  2.9244688e-05
 -4.2726169e-06
  1.5432324e-05
  9.8087767e-06
 -2.4204677e-05
 -3.9806826e-05
 -4.4548255e-05
 -2.5457743e-05
  3.6728878e-05
  4.5541315e-06
 -1.5612688e-05
  2.4261810e-05
 -7.4685449e-05
  2.7810536e-05
 -1.1916598e-04
  1.0105344e-05
 -4.0747902e-05
  7.4361378e-05
  8.4911308e-06
  8.3866536e-05
 -4.1893882e-06
  1.4615660e-05
  3.2984976e-06
 -8.6837736e-06
 -5.0163952e-05
 -3.9954979e-05
 -2.6967120e-06
  5.2556015e-06
  3.7362770e-05
 -4.7629754e-05
 -2.0688049e-05
 -5.5661916e-05
  5.5372957e-06
 -6.5673179e-05
  3.8881637e-05
 -8.7305689e-06
  6.8802378e-06
 -1.2258158e-05
 -4.6979036e-05
  5.0696445e-07
  3.1584343e-05
  3.4742676e-05
 -5.0128110e-05
  1.8312026e-05
 -4.2962180e-05
 -2.5441164e-05
 -1.7629671e-05
  3.4862504e-05
 -3.0831980e-05
 -4.0745672e-06
  4.4717151e-05
  4.6283043e-05
 -3.3856108e-05
 -1.4407355e-04
  1.0648752e-05
  2.0173684e-05
  2.6737498e-05
 -1.4410238e-05
 -1.0253364e-05
  1.6351918e-05
  2.0480338e-05
  7.8509420e-06
 -2.9911491e-05
  1.9257459e-05
  6.5632116e-06
  1.6201418e-06
  4.9823011e-05
  3.1127296e-08
 -1.7346898e-05
  6.6714150e-05
  4.1326213e-05
 -2.8632027e-07
 -9.1613965e-06
  2.6108508e-05
  2.1701978e-06
 -1.5311456e-05
  1.0185409e-04
 -1.2497871e-05
 -1.3150186e-04
 -2.6672102e-05
 -9.8178425e-06
  3.5644360e-05
  9.7873644e-06
  4.4368619e-05
  2.3578086e-05
  2.2716409e-05
  1.1554771e-05
 -5.5706864e-06
  9.0420372e-06
 -1.3201095e-05
 -9.8587925e-06
  3.7950471e-05
  2.2505184e-05
 -1.3161911e-05
 -2.1595020e-05
  1.2898769e-05
 -4.0331847e-06
  5.0737576e-06
  1.5053563e-04
  1.0675016e-06
 -6.2616295e-05
  1.1187477e-06
  6.3469183e-06
  1.0856209e-05
 -3.9350443e-06
  3.2858381e-06
  1.8616147e-05
  1.5508540e-05
  1.6725520e-05
 -1.5034303e-05
 -1.7588229e-05
 -8.0976293e-05
  1.0022569e-04
  1.2757727e-04
  3.4051900e-05
  6.8571076e-06
  6.3073367e-06
 -4.7364520e-05
  4.4217220e-05
 -4.2157073e-05
 -5.1595176e-05
 -1.2815119e-07
  1.4261444e-05
  2.4458857e-05
  3.5194771e-05
 -3.1931439e-05
 -1.5327632e-05
  2.7389702e-05
 -3.5889871e-06
  2.8173161e-05
  1.7867453e-05
 -1.5044448e-05
  1.7906104e-05
 -1.0415725e-05
 -1.5024046e-05
  8.7239832e-06
  2.1351918e-05
 -9.0723115e-06
  1.5708261e-05
 -2.2052271e-05
  1.0741895e-04
  5.4595163e-05
  1.5853313e-05
 -1.8622118e-04
 -4.4160352e-06
 -4.6281868e-05
  3.0427118e-05
  9.0154725e-07
  7.0536713e-05
 -2.8077568e-05
  7.2597839e-05
 -2.6691201e-05
  3.2322569e-06
  3.0921765e-05
 -1.7282639e-05
 -8.5713846e-06
 -3.6194531e-05
  4.7406465e-05
 -1.2525623e-05
  1.8553685e-05
  7.0696765e-06
  1.0382112e-04
  2.3845902e-05
 -4.3305918e-05
 -4.8946062e-05
 -3.5430636e-05
 -1.2586536e-05
 -2.8514187e-05
 -1.6588067e-05
 -9.2480805e-05
  1.3346863e-05
  1.6955721e-04
 -3.5210633e-06
 -2.8826791e-05
  4.3323056e-05
 -3.1725125e-05
 -7.9004276e-05
 -6.4900960e-05
 -3.5135734e-05
  6.3269767e-06
  4.7032194e-05
 -1.2009595e-04
  6.2142572e-06
 -2.9089744e-05
 -5.7502351e-05
 -1.2232060e-05
 -9.3067592e-06
 -1.7735942e-05
  2.1310840e-05
 -1.0922280e-05
 -8.5160333e-05
 -1.0698143e-05
 -1.2863268e-05
 -2.7292182e-05
  1.1794139e-05
  1.9473629e-05
  6.7191463e-06
  4.3924872e-05
 -6.1270832e-05
  4.5886831e-05
 -5.6609661e-05
 -7.8683206e-06
  5.7433872e-06
  1.0311443e-05
  5.9163896e-05
 -3.7859598e-05
 -1.3457865e-06
 -4.5586610e-05
 -1.1544910e-05
  5.9052585e-05
  6.3362104e-06
  2.5537315e-06
 -9.5386085e-06
  4.6878540e-05
 -1.3376226e-05
 -2.5092160e-05
  3.2363452e-05
  1.3841523e-05
  1.2797199e-06
  5.7255825e-06
 -2.8364688e-05
  1.4397821e-05
 -5.9860642e-05
 -8.3186715e-06
 -6.4495439e-06
  1.9291139e-05
  2.0385505e-06
 -1.7213039e-05
 -2.8751358e-05
 -8.8418856e-06
  4.8226440e-07
  2.4401439e-07
 -1.6613283e-05
  3.0142584e-05
 -8.0098260e-05
  1.0288448e-05
 -4.5632064e-06
 -4.0311228e-05
 -5.9858794e-06
  2.1182077e-05
 -1.8711228e-06
  1.5306202e-04
 -4.6462344e-05
  4.5170495e-05
 -7.4340396e-06
  6.8190835e-05
 -2.4144734e-05
 -1.9667055e-05
 -5.4398195e-05
  8.3206323e-06
  8.6781383e-06
 -9.3198969e-06
 -8.8655812e-05
  8.8929621e-05
 -1.1506620e-05
  3.2976255e-05
  1.7775570e-05
 -1.9055922e-05
 -3.6163601e-05
 -6.0909631e-05
 -9.9051122e-06
 -8.3517276e-05
 -5.5217377e-05
  3.3886976e-05
  3.3193135e-07
 -1.8064344e-05
  2.3984885e-05
  8.9657516e-07
  7.9764592e-05
 -4.5121815e-05
  1.0316257e-05
  2.4823125e-06
 -4.0460041e-06
  3.5556317e-05
  6.1382598e-05
 -4.2598753e-05
  6.8475238e-06
  1.3944687e-05
  1.8474104e-05
  8.0719501e-06
 -1.0718060e-05
  1.1445471e-05
  3.1790998e-05
 -4.9798797e-05
  3.6151955e-06
  3.9898470e-05
  1.5574806e-05
 -1.5599346e-05
 -1.2684077e-05
 -1.7921737e-05
  6.0672493e-05
 -3.7935781e-05
 -4.0427327e-05
  3.8450885e-06
 -3.0360072e-05
  9.8839948e-05
  1.5554768e-05
  1.2821198e-05
  6.7601550e-06
 -7.0835784e-05
 -4.2854692e-05
  9.2445014e-05
  4.8151927e-05
 -1.5794050e-05
 -1.4032563e-05
  5.8435107e-06
 -2.7715474e-05
  8.4014675e-07
 -1.1379267e-05
 -4.0845334e-05
 -1.3106185e-05
  2.5972384e-05
  1.6562679e-05
 -4.0661434e-05
  5.5661192e-05
 -4.0017709e-05
  2.3273918e-05
  2.6963242e-05
 -6.8475842e-05
  4.0438072e-06
 -3.0270317e-05
  8.2273054e-06
  6.6301909e-06
 -2.4638808e-05
  6.7153014e-06
  2.1113468e-05
 -4.1703363e-05
 -9.3952704e-06
 -7.7145771e-05
  6.8320172e-05
 -5.6739350e-06
  8.2803497e-05
  6.9963920e-05
 -1.2641198e-06
 -5.1915787e-05
  8.6304572e-05
  9.8325233e-07
 -5.2756612e-05
  1.7656603e-05
 -2.5953699e-05
  2.1863296e-05
 -2.4401616e-05
  1.0137990e-05
  3.9049148e-05
 -2.8753419e-05
 -2.9906641e-05
 -6.4354713e-06
  1.9221849e-04
 -8.8545330e-06
 -2.8917942e-05
 -6.4894419e-05
  4.2869720e-05
 -2.1092101e-05
 -1.3970656e-06
 -1.8652276e-05
 -2.4791025e-05
  1.2039179e-04
  1.9880060e-06
 -7.3751980e-06
 -4.9328733e-05
  2.4590097e-05
 -1.8980760e-05
 -2.9770734e-05
  1.3487223e-05
  1.2569686e-07
  6.4338096e-06
 -3.3808847e-06
  5.1411087e-05
  1.1162193e-05
  9.3992596e-05
 -6.6736511e-06
  4.5783068e-05
 -9.6045464e-05
  4.4215708e-06
 -3.1648218e-05
  4.5815945e-05
  3.8651124e-05
  2.2891720e-07
 -3.6457561e-05
  8.1701119e-06
  4.8055215e-05
 -2.9334628e-06
 -2.0533455e-06
 -1.3486061e-05
  6.6710629e-05
  1.7462189e-05
  2.6665619e-05
 -5.1149154e-06
 -4.7544263e-06
 -5.8170161e-05
 -1.0470963e-05
 -1.3314091e-04
  7.1954564e-05
 -1.9697896e-05
 -2.8714830e-05
 -9.9140652e-06
  4.6347013e-05
  1.6254437e-05
  5.0525367e-05
  3.0324714e-05
  4.0362465e-05
  3.3139120e-05
  1.3293330e-05
  1.3263649e-05
  3.5468780e-05
  4.7308473e-05
 -2.3571112e-05
 -1.4540425e-05
 -5.2092118e-06
  1.4433247e-05
  1.4866511e-05
 -7.9777194e-05
  3.3865781e-05
  6.3335960e-06
 -5.9860731e-06
  1.6493190e-05
  2.9322042e-05
  4.9974718e-05
 -1.4306309e-05
 -1.0090799e-05
 -3.3867939e-06
 -5.2703737e-05
 -6.8190184e-06
 -1.2345346e-05
  2.7643566e-06
 -1.9171339e-06
  1.3817304e-06
 -4.1148205e-06
  8.1134240e-05
  1.6163962e-05
  3.3618406e-05
 -3.9969156e-05
 -9.7439668e-05
  1.8937399e-05
  2.4171994e-05
 -1.1072961e-05
 -6.6979828e-06
  2.8291322e-05
 -8.3931714e-05
  5.5162120e-05
  6.7197936e-05
  5.5216005e-06
 -1.4119272e-05
 -1.9740441e-05
  3.8319351e-05
  7.4176728e-06
  1.9905965e-05
  1.3802550e-06
  7.2186003e-06
  7.7596989e-05
  2.4009247e-05
 -7.4755826e-06
  1.1004681e-04
  1.7329103e-05
  3.1138967e-05
 -2.7305716e-06
 -1.9238571e-06
 -2.7467378e-05
 -9.5399904e-05
  4.0394207e-05
  1.9683941e-05
 -1.5180640e-05
 -5.3955857e-05
 -7.5783810e-06
  8.5049229e-05
  2.5004538e-05
 -5.6916438e-06
 -4.6927202e-05
  2.3022676e-06
 -3.9056340e-06
 -7.0509028e-05
  3.8814164e-06
  1.5839847e-05
 -2.9705083e-05
 -4.2738520e-05
 -1.7550484e-06
  3.0639560e-05
 -8.7751132e-06
  1.0740549e-05
 -1.2019476e-05
  1.9665940e-05
  1.9438354e-05
 -1.2767231e-06
  1.0475048e-04
 -1.9744895e-05
  5.4435062e-05
  1.3841887e-05
 -5.4868137e-06
 -7.9523394e-05
  1.2774574e-05
  4.1621181e-05
 -2.4483755e-04
  3.4896264e-06
 -1.2909554e-05
 -5.9361050e-06
 -9.7587827e-07
  3.6910718e-05
 -8.1072394e-06
  6.8527843e-05
 -3.3900230e-06
  8.5065636e-05
  4.6008670e-05
  2.7767803e-05
  5.0412568e-06
  3.8651811e-07
 -6.1911414e-05
  5.3920980e-05
 -8.6813307e-05
  2.0001436e-04
  1.2894993e-04
 -2.8864176e-06
 -4.2334821e-05
  1.6868147e-05
  7.7201898e-05
  2.4016515e-06
 -6.1572086e-05
  7.0419001e-06
 -1.4418096e-06
 -3.7173239e-05
 -4.1654377e-05
  4.5464030e-06
 -7.4708594e-05
  9.1778452e-07
 -1.0078596e-04
  5.4874257e-05
 -2.4136991e-06
  2.4955207e-05
  2.7537268e-05
  7.5361066e-05
  6.8389920e-05
  9.1720221e-06
  1.2465854e-05
 -1.3745727e-05
 -1.3216440e-05
  1.4827663e-05
  2.1912881e-05
 -6.0502439e-06
  1.9380921e-05
 -6.6318075e-06
 -9.0549202e-06
  5.7783236e-05
  5.4803291e-05
 -5.1231124e-05
 -3.8443748e-05
  5.1811203e-06
 -5.3150632e-07
  4.1049527e-05
 -7.4197005e-06
 -5.2366313e-06
 -8.6845321e-06
 -2.3421591e-05
 -1.8502489e-05
  6.1195853e-05
 -7.5510216e-05
  6.1524799e-05
  3.3344553e-05
  5.4452892e-05
 -1.6443006e-05
 -1.2691986e-05
  7.7778827e-07
  2.3767179e-05
 -3.8520757e-06
  2.8573777e-05
  4.3674856e-05
  3.9077395e-06
 -5.5955796e-05
 -6.0458211e-07
  1.5228026e-05
 -2.1233103e-05
  1.8751092e-05
 -3.9585942e-05
 -5.4280954e-06
  9.5272247e-07
  2.6020223e-06
  1.6274877e-05
  2.0624188e-06
  8.7662529e-06
  6.5937966e-05
 -1.0604305e-04
  8.4643270e-06
  5.3600994e-05
 -2.0443413e-06
  2.9852365e-05
  2.6473634e-05
 -1.7012624e-05
  1.0025907e-05
  1.1362651e-05
 -2.0459376e-05
  1.0758648e-04
 -2.9899937e-05
  1.1499285e-05
 -4.7513291e-05
 -7.9660123e-07
 -1.7862283e-05
  4.9997056e-05
 -3.1039115e-05
  1.2927730e-05
  3.0847200e-06
  8.4017258e-05
  3.4467073e-05
  1.4450751e-05
 -2.2906506e-04
 -9.7187069e-05
  3.2243474e-06
  3.9758006e-06
  3.0734438e-06
 -2.1213571e-05
  1.6248507e-05
  3.6609650e-05
 -3.1040854e-05
  1.0811177e-05
 -1.5933860e-05
 -1.9723413e-05
  2.2100302e-04
  2.9492461e-05
  2.4370449e-05
  2.9232362e-05
 -5.1805382e-05
  9.3284198e-06
 -9.3801202e-05
  1.7980510e-05
  3.6953614e-05
 -1.2937631e-05
  6.5422930e-05
 -9.2067012e-06
 -1.6110183e-05
 -2.1677535e-05
 -1.1263885e-04
  2.5628025e-05
  6.1087458e-06
 -4.7220692e-05
  7.6557175e-05
  8.8910283e-06
 -1.3712038e-05
 -9.6596227e-07
 -4.2757360e-06
 -5.9251986e-05
 -2.0189224e-05
 -4.2944961e-05
  7.5521311e-05
 -3.7965096e-05
 -3.8438528e-05
  2.0037087e-04
 -5.2988820e-05
  2.1127746e-05
 -2.2962462e-05
  2.3461000e-05
 -7.6542556e-06
 -6.5584863e-05
  6.6725534e-06
 -1.2556008e-04
 -3.3876843e-06
  3.8910844e-06
  7.0579918e-05
 -3.9287170e-05
 -2.9027788e-06
 -4.1033732e-06
  1.1425233e-04
 -3.5172154e-05
  1.1085935e-05
 -5.8605901e-06
 -2.3208544e-05
  1.2116481e-04
  1.1081732e-05
  2.9280036e-06
  2.4043389e-05
 -8.3768464e-06
  7.6814220e-05
  1.8017481e-04
 -8.8057623e-06
  2.6001248e-05
  4.1246843e-05
  5.7492518e-05
 -8.4493413e-06
 -8.0128200e-05
  1.4516242e-05
  2.8137198e-05
  1.4298391e-05
  2.1642016e-05
 -3.0884297e-05
 -1.9060599e-05
 -1.1190838e-05
  1.6512085e-05
  2.7561793e-04
 -9.4166389e-06
  1.3896462e-05
 -1.1383534e-06
 -2.9947876e-05
  9.5532660e-06
  4.4678109e-06
  5.5577912e-05
  3.9126053e-06
 -1.1340601e-05
 -2.7200272e-06
 -1.4066300e-06
  3.9413637e-05
  2.0828244e-05
  3.1228999e-05
 -3.3512082e-05
  1.1903887e-05
 -1.3206363e-05
  3.5167411e-06
  3.2614567e-05
  4.8309426e-05
  9.5844543e-06
  3.1847056e-05
 -1.4612578e-05
 -2.7188054e-05
 -1.5530331e-05
 -4.0405467e-07
  9.0494068e-06
 -2.0049188e-06
 -7.3659554e-05
 -6.4134706e-06
 -3.4764787e-05
 -6.3377003e-05
 -5.5306420e-05
 -2.2459943e-05
  6.3304396e-05
 -3.9581519e-05
 -9.4120078e-05
  1.9773102e-05
  2.3500514e-04
  3.4884240e-05
 -5.0245621e-06
 -2.4637873e-05
 -2.1478621e-05
  2.8167839e-05
  3.9837580e-02
 -1.0025375e-05
  4.4484703e-05
  1.0810935e-05
  1.0959478e-04
 -7.3629963e-05
 -1.7417657e-06
 -3.5843026e-05
 -8.6723936e-05
  6.2517893e-06
 -6.8118411e-06
  1.2637427e-06
  6.3688065e-05
  6.0625563e-05
  6.1522951e-05
 -3.2438638e-05
  1.5337231e-05
  6.1364735e-05
  7.6405840e-06
  7.1890208e-06
 -7.0013033e-05
 -1.9553774e-05
 -1.3489679e-06
 -8.3348328e-05
 -6.9337714e-01
  3.5356221e-05
 -1.2340828e-05
  1.7071099e-05
 -3.1923064e-05
 -6.9608535e-07
  1.1576391e+00
  1.6542024e-04
 -1.0787140e-04
 -1.5621528e-04
 -8.1768863e-05
 -1.2085204e-05
 -3.4746616e-05
  1.7250325e-04
  8.3987346e-05
 -1.2239071e-05
  2.6925486e-06
 -5.6828476e-06
  9.2317350e-06
 -1.2742753e-04
 -1.3280673e-04
  9.2615237e-06
 -6.0947044e-05
 -7.8516659e-06
  1.0177066e-04
  1.5690513e-05
 -2.1849450e-05
  1.0963012e-05
 -3.6028898e-05
  3.1811400e-05
  1.1216272e-05
  3.1341755e-05
  2.8012728e-05
  1.8430264e-06
 -8.8879069e-06
 -2.6981499e-05
 -1.7892702e-06
  4.9579565e-05
 -8.9748582e-06
  1.0757230e-05
 -5.6526096e-05
  3.7276663e-05
 -4.2825421e-05
 -2.2453839e-04
 -1.1874558e-05
  6.4031819e-06
 -3.6090358e-05
 -5.5946634e-06
  5.3236499e-06
 -1.7983057e-06
 -1.4404201e-05
 -8.6146911e-06
 -1.3847722e-05
 -1.1677970e-06
 -1.8516414e-05
 -3.5362539e-06
  1.4193792e-05
  2.5989923e-05
  1.8661083e-05
 -2.4729105e-05
  1.2747915e-06
 -3.2297427e-07
 -8.5697080e-05
 -2.2792454e-05
  2.1511481e-05
 -4.4041430e-05
 -8.3050622e-07
  3.4390364e-06
  7.2495945e-06
  1.0285616e-05
 -4.4915654e-05
  9.4592051e-06
  3.6250236e-05
  2.4318668e-05
  7.0921387e-06
 -3.0916955e-05
 -7.1454765e-06
  5.2268777e-05
 -1.6262094e-06
 -1.9885108e-05
  1.9210242e-05
 -6.4652381e-06
 -5.4673212e-05
 -9.2902228e-06
 -4.9750693e-06
  3.3007331e-05
 -2.3408089e-05
 -5.8846133e-05
 -6.2510517e-05
 -9.1642028e-07
 -1.2726275e-05
 -3.0200559e-05
 -3.1848696e-05
 -3.3788849e-05
  2.0341262e-04
  1.5859496e-05
  2.5541107e-05
 -4.8853171e-06
  4.6237375e-05
  5.0435243e-05
  2.1638289e-05
  2.2545835e-06
 -2.8737741e-06
 -5.1629722e-05
 -5.1134153e-05
 -5.4759480e-06
 -2.5798345e-05
  7.4714239e-07
 -1.3256232e-05
  1.2095383e-05
  1.3939368e-05
 -2.0570531e-05
  6.2987278e-06
  8.9255991e-06
 -8.3361621e-05
  3.0555516e-06
 -3.7193055e-05
  9.4800117e-07
 -2.5308040e-05
  2.3005881e-05
  9.6901822e-06
 -2.8558377e-05
  1.0238011e-04
 -2.3912429e-05
 -5.5994424e-06
  2.9002058e-05
  1.2370989e-05
  8.3142359e-06
  4.1981806e-05
 -4.5616393e-06
 -7.9409503e-05
  5.0820367e-05
  9.4147272e-06
  3.9812083e-05
 -2.7042066e-05
  1.3962175e-05
 -4.9783899e-05
 -1.2666820e-05
  9.3308142e-07
  2.0086758e-05
  1.1019325e-05
 -3.3466038e-06
  1.4754300e-05
  2.3410270e-05
  6.6118646e-06
 -3.6854934e-05
  5.4006628e-05
  8.2921972e-05
 -2.6669932e-06
  7.2855428e-06
 -3.1586045e-05
  7.5476713e-08
 -2.8243445e-05
  6.4548767e-05
 -3.7719681e-06
 -1.3339528e-05
 -4.1797985e-06
  3.4257832e-06
 -1.1403196e-05
 -1.3193900e-05
 -3.0405794e-05
 -3.1377685e-06
  9.3481539e-08
  1.6328667e-06
 -6.7953843e-05
  3.2992193e-05
  2.5250421e-05
 -2.2248989e-05
 -2.8322225e-05
 -8.6712907e-06
  2.0370755e-05
  1.5891905e-05
  4.7118232e-05
 -9.5477590e-06
  2.5160434e-05
 -4.8961461e-05
 -2.8910901e-05
 -2.3753784e-05
  1.0980495e-05
  4.1234547e-05
 -1.2111606e-04
 -8.1070921e-06
 -3.9592901e-06
 -1.3360464e-05
  1.2298009e-05
 -1.8528033e-05
 -2.7561968e-05
 -4.1870319e-07
 -4.8253032e-06
 -3.7693371e-05
  1.0923772e-05
  1.8724173e-05
 -1.5776594e-05
  1.5777421e-05
  4.4993867e-06
  8.0748541e-06
 -2.8124110e-05
 -1.2215775e-04
  1.4325509e-05
  2.8527818e-05
  2.8102759e-03
  1.4488223e-05
 -2.0930178e-05
  1.2489635e-04
 -1.2674564e-04
 -2.2436467e-05
 -3.3750472e-05
 -1.0361621e-06
  1.2496871e-05
 -1.1497840e-05
 -1.1483206e-05
  6.8170637e-05
  1.3247273e-04
  5.4965334e-05
 -3.3699587e-05
 -8.6168962e-05
  4.0497049e-05
 -2.2090209e-04
 -5.7385209e-06
 -2.0029720e-05
  9.1378470e-06
 -1.2157575e-05
  1.9494448e-05
 -2.8273964e-05
  3.9545863e-05
 -3.1347503e-05
 -3.6735422e-05
 -2.6043988e-06
 -2.4366558e-05
 -1.2966805e-05
 -5.9020191e-02
 -5.4570496e-06
  1.6583448e-06
  3.5494311e-05
  7.1155036e-06
  3.3218657e-05
  6.0323084e-05
  6.9186834e-05
  1.4886333e-05
  5.5666384e-05
  2.2757363e-06
  9.8384189e-06
 -3.0982868e-05
 -3.6415124e-05
  9.9211884e-06
 -7.6743027e-06
  2.0052157e-05
  6.0076140e-06
  4.0516152e-05
 -2.2738684e-05
  1.7167969e-05
  6.3613566e-05
  9.8847515e-05
  5.2344039e-05
  2.3163639e-05
 -2.9080815e-07
  1.1541225e-05
 -2.7151921e-06
  4.1987128e-06
  6.0218867e-05
 -8.6500290e-07
  2.8563863e-05
  3.0565679e-05
 -1.9812251e-05
 -2.9345490e-05
 -1.9491024e-05
 -7.6521195e-05
 -1.3903095e-05
  1.0563891e-05
  2.9789155e-05
 -6.2131621e-05
  2.6112848e-05
 -3.5499848e-05
  8.7077533e-05
  5.3112228e-05
 -3.4048051e-05
 -1.6111557e-05
  5.4067723e-06
 -8.7076311e-05
  4.1304549e-05
  2.2537363e-06
  2.3939245e-05
 -2.0474221e-05
  4.6215300e-06
  7.2283503e-05
 -1.9036497e-06
 -8.5627380e-06
  2.5942394e-05
 -6.5135750e-06
  1.6923643e-05
  1.0368727e-05
  6.7925801e-05
 -9.5106465e-05
 -4.7097154e-05
 -1.2557934e-05
 -7.1482955e-06
 -1.1619067e-05
 -2.5084410e-06
  6.4628846e-05
  2.0142552e-06
 -3.7777871e-05
  3.3584827e-05
 -5.9452308e-05
 -5.6976660e-06
  7.5920892e-05
 -1.0777234e-05
 -3.9451290e-05
  2.1219264e-06
  4.1030504e-05
 -2.8603867e-05
  1.3397966e-04
 -2.0048456e-05
 -4.5358509e-05
  7.1078939e-05
  3.1398492e-06
 -5.1153307e-05
  4.9821698e-05
 -1.4163577e-06
 -9.3566769e-06
  8.5738691e-05
  1.2587890e-05
  2.6005659e-05
  3.3007615e-05
  4.4896356e-06
 -3.2253585e-05
 -6.2695231e-05
  9.8961409e-06
 -1.4999945e-05
 -1.7119133e-05
 -9.6578930e-05
  5.9049835e-05
  3.1346597e-05
 -2.5934367e-05
 -8.5262377e-07
  2.0851450e-05
 -3.4744204e-05
 -4.1779182e-05
 -4.6812452e-06
  2.7590729e-06
 -5.5348708e-05
  3.7568196e-05
 -3.1593801e-05
 -3.4473805e-06
 -1.1252010e-05
  2.1739621e-05
  4.6671653e-06
 -1.4878702e-05
  2.1932832e-05
 -1.0382278e-05
 -2.6580019e-05
 -7.2277595e-05
 -3.3851971e-05
 -3.4206758e-05
  6.0954126e-06
  1.5213198e-05
 -2.2026697e-06
  2.2274740e-05
 -6.9048187e-06
 -1.1439520e-06
 -1.0284589e-05
  5.2191059e-05
  6.6817706e-06
 -1.3816763e-05
  2.1678796e-05
  4.4022705e-05
  3.3776050e-05
  1.0607717e-04
 -7.5694676e-05
 -5.6605186e-06
  1.9172445e-05
 -1.6071337e-05
 -3.2969729e-05
 -9.4768599e-05
 -1.1790736e-05
 -2.7628508e-05
 -5.2460626e-05
 -7.6263779e-05
 -1.3736579e-05
  8.4818254e-05
 -5.1585444e-05
 -7.1339557e-05
 -6.5848188e-05
 -2.7098446e-05
 -2.4284072e-05
  5.9755507e-06
  9.2807466e-05
 -2.7740685e-05
  3.8238337e-05
 -1.9574889e-05
 -8.3620507e-06
  3.0656709e-05
  2.3664128e-05
  1.3690683e-05
 -2.2360795e-05
  8.3631647e-05
 -3.4632394e-05
 -2.8998766e-06
  3.1668133e-05
 -1.3595824e-04
 -1.1064370e-05
 -2.2828292e-05
  3.1100823e-05
  1.0575202e-05
  1.0301147e-05
  1.6713184e-05
  4.3195800e-05
  1.0722402e-05
  1.0695801e-05
 -4.1966126e-05
  3.3185621e-05
  2.4473673e-05
  6.9042958e-06
  9.0314779e-06
  7.8125020e-05
 -1.7720096e-05
  1.6301183e-04
 -2.0922207e-05
  2.6533595e-05
  5.2797830e-05
 -2.0046709e-05
  2.6694686e-05
 -6.7475536e-05
  2.9688028e-06
 -1.0525630e-05
 -1.6556076e-05
  5.5667515e-06
 -1.5669761e-05
 -1.2586103e-04
 -4.5109726e-05
  1.8800491e-05
 -2.5077701e-05
  3.8201968e-05
 -2.9749556e-06
 -3.3368033e-06
  2.5494751e-06
 -4.8635506e-05
  2.6187281e-05
 -1.5915615e-06
  2.2810425e-05
  3.8088165e-05
  2.3969226e-06
  2.6749140e-05
  5.0515497e-05
  3.4081193e-05
  1.0786293e-06
  5.2109585e-06
  1.2356653e-05
  1.5533595e-06
 -4.7644920e-05
  4.7895130e-05
  6.7167730e-07
 -1.5350839e-04
  4.4688357e-05
  1.8276194e-05
 -3.2769649e-06
 -9.7020420e-06
  2.2132649e-06
  3.7323694e-05
  1.8705490e-05
 -1.4723203e-05
 -2.6459188e-06
  3.6769861e-01
 -3.5456298e-05
  6.8635076e-05
  7.0535243e-05
 -4.6504440e-05
  4.7860198e-05
  4.7235102e-05
  2.5018015e-05
  9.9383815e-06
  1.0887517e-01
  3.2931131e-01
  3.5368726e-01
 -5.4131147e-02
 -2.1090510e-01
 -1.4645700e-01
 -5.4158072e-06
 -1.0036739e-01
 -4.0675910e-05
 -9.1131832e-03
 -9.5356673e-02
  2.5467163e-01
  3.9893217e-02
 -3.6074352e-04
 -2.5397632e-01
  5.6381035e-05
  1.1869782e-01
 -1.0039444e-04
  1.9102864e-03
  9.2561156e-02
  5.6898780e-02
  7.8963637e-03
  5.0649904e-02
 -1.8041750e-05
  4.1231051e-05
 -4.3407199e-01
 -9.6091280e-05
  3.3411404e-01
 -3.0939540e-05
  3.8149748e-02
 -7.5860418e-02
  1.5597580e-01
  8.8588186e-02
 -1.5520296e-05
  3.6808825e-01
  2.1371152e-05
  1.4020715e-05
  6.4934444e-05
 -5.5757344e-02
  6.1733387e-03
  1.6253803e-02
 -6.7040084e-05
  1.3846274e-05
  6.3832053e-03
  2.3643212e-05
 -2.2491169e-05
 -5.3473724e-07
 -3.0680210e-05
  4.8644756e-06
 -3.4913935e-06
 -1.9033012e-05
  1.1745482e-04
  1.7897636e-06
 -2.7562497e-05
  6.2981657e-05
  2.3105989e-05
  3.9929182e-05
 -8.7317712e-06
  7.7912928e-06
  1.7228027e-07
  2.1367794e-05
 -2.0337930e-05
 -4.1286268e-05
 -5.9279029e-07
  3.2527851e-06
  2.8028730e-05
 -6.5972322e-06
  1.3714833e-05
 -7.3982243e-05
  3.5286099e-05
 -5.0303886e-05
 -3.3199885e-05
  3.5359251e-05
  3.7882710e-05
  5.7779966e-05
  6.4385026e-06
 -4.5859470e-06
 -6.0232542e-06
  1.5759933e-05
 -3.3535711e-05
  1.3763730e-04
 -5.9375056e-05
 -5.3250275e-05
 -1.9081373e-05
 -8.4953921e-05
  6.7169123e-05
 -1.6012658e-04
 -1.9568644e-05
  5.4718857e-06
  5.7560419e-06
 -1.0262263e-04
  2.4940153e-05
  3.3062119e-05
 -5.6742327e-05
  1.3670701e-05
  1.6690617e-05
  3.7443613e-05
  8.1810882e-05
 -3.5535060e-05
 -5.0052072e-06
 -2.3978504e-05
  2.2858208e-05
  3.5161767e-05
 -8.1926024e-05
  1.3445137e-05
  8.6867076e-05
  3.6694448e-05
 -3.1758937e-05
  4.7568192e-05
  2.9636518e-05
 -2.2114293e-06
  4.6610648e-06
 -2.6315873e-05
  7.0333708e-06
  5.3700614e-06
 -7.1606855e-06
  5.2018797e-05
 -2.5024463e-05
  1.3026853e-06
 -8.6829250e-06
  2.5573172e-07
  1.7775512e-05
  2.4949866e-06
  1.2952820e-05
  9.5605010e-06
 -1.2392023e-05
  3.4932549e-05
 -2.3531836e-06
  6.5227750e-06
  1.0085717e-05
 -1.0688949e-04
  1.7204520e-04
 -7.2442723e-05
 -5.3890026e-06
 -1.2582669e-05
 -5.4414417e-05
 -1.7455006e-05
 -5.4333697e-04
  2.7149976e-05
 -2.1078795e-05
 -4.1133415e-05
 -2.5247320e-05
  3.6185596e-05
  1.1544456e-04
  1.7994837e-06
  2.4786586e-05
 -6.0643983e-05
 -3.3356577e-05
  2.2915418e-05
 -4.8042763e-05
 -9.7365437e-06
  2.2955657e-05
 -2.8710876e-05
  1.3443206e-01
 -1.1226698e-05
  8.4249892e-05
 -2.2149541e-06
  2.8386547e-05
  9.4591160e-06
  1.5126309e-05
  9.9250436e-05
 -9.0571557e-06
  5.0921019e-02
 -4.5076642e-05
  6.9530472e-02
  5.7783522e-02
 -2.9116258e-02
 -1.2537558e-04
 -1.1848040e-05
 -5.8183188e-05
 -1.1458944e-05
  1.1966923e-02
 -1.3409491e-04
  6.3141420e-02
 -4.7589247e-03
  1.6521093e-02
 -4.3759253e-02
 -1.0979317e-04
 -1.4754175e-06
  1.2172006e-05
  1.8959789e-02
 -7.6184064e-05
  2.2937568e-02
  1.3678324e-02
  6.4951375e-02
 -1.1978563e-05
 -9.7510720e-06
 -6.9553755e-02
  3.1585125e-06
  7.9459667e-02
  4.3786267e-06
  8.6566870e-05
 -1.1583926e-01
  3.7374226e-05
  2.7308104e-05
 -3.3000921e-05
  1.5444362e-02
 -4.2703876e-05
  4.0545765e-06
  5.6830950e-06
 -2.0632926e-05
  6.3690197e-05
 -4.3972541e-06
 -8.7469271e-05
 -1.3709281e-05
  1.0919897e-05
  3.7406608e-05
 -1.0204144e-06
  3.5292167e-05
  1.2100502e-04
 -4.2804266e-05
  6.5519134e-06
  1.3385064e-05
  1.0379770e-05
  7.7466275e-06
 -7.0815382e-05
 -2.7744381e-05
 -3.9755273e-06
  6.6066197e-05
 -4.9318449e-05
  1.5025814e-05
 -4.5532684e-05
  6.5122288e-07
 -2.2042084e-06
  3.1152744e-05
 -1.4269879e-05
  2.5360268e-05
 -3.4165635e-06
  2.4962893e-07
  5.2156371e-05
 -1.1075822e-04
 -1.1987603e-05
 -8.1211510e-06
  6.9633694e-07
 -1.1590003e-04
  1.9127563e-06
  1.0568247e-05
  1.4546100e-05
 -2.4608731e-05
  7.2913026e-05
  7.0387755e-06
  1.5762515e-05
  8.6068585e-06
  3.3302425e-05
 -1.1114718e-05
  2.1733956e-06
 -6.4091146e-05
  1.3987421e-05
 -6.8790364e-06
 -4.7164003e-06
 -8.6606582e-05
  1.8224957e-05
  3.1384625e-05
  6.2279083e-05
  2.2353097e-05
 -5.7476350e-06
  3.6449481e-05
  6.5050167e-06
  2.4587746e-06
 -1.6348331e-05
  7.9081428e-06
  2.9299546e-05
 -1.4534741e-05
 -7.1519921e-06
  7.5638150e-07
  1.5435688e-05
 -4.6448113e-05
 -5.6651461e-06
 -7.0277465e-06
 -1.4170914e-04
  4.7289239e-05
  3.2668664e-05
 -3.7407626e-05
  5.2692456e-05
 -3.8664207e-06
  2.6541160e-05
 -5.3499938e-05
 -2.7769031e-06
  4.0654893e-05
 -1.4477103e-05
  5.0560920e-05
  6.0233133e-06
 -4.1722691e-05
  2.4135832e-05
  4.7722297e-06
 -3.9103492e-05
  2.0796986e-06
 -5.5403202e-06
  6.9579721e-05
 -1.6318307e-06
  3.5139328e-05
  5.3772083e-06
  3.1520267e-06
 -3.1598982e-05
  1.3143187e-04
 -6.9177518e-06
 -2.8965735e-06
 -2.1066193e-05
  2.3268982e-05
 -2.8477423e-05
 -1.0212060e-05
  1.2858703e-05
 -8.2667793e-06
 -3.7968406e-05
  1.5167031e-05
  2.9304949e-06
  1.5284533e-05
 -2.1120513e-06
  2.6425727e-05
  8.6065102e-06
 -2.0415808e-05
  5.5296769e-05
 -3.7676189e-05
  3.6122878e-05
 -2.9159955e-05
 -1.1926098e-05
 -6.0380680e-05
 -1.5194225e-05
  6.7931513e-05
 -7.3032866e-06
 -1.5465583e-06
  2.0869653e-05
  3.5901824e-06
 -5.2486688e-05
  1.3407325e-05
  1.2635653e-05
  4.7106601e-05
 -1.8799385e-05
 -8.3910483e-05
 -3.4977504e-05
  5.4857978e-06
  2.2313170e-05
  1.7418063e-06
  1.3435868e-04
 -6.2973842e-05
 -1.8870609e-05
 -5.6424658e-05
  3.1314557e-05
 -9.9924346e-06
  3.0196890e-05
 -1.8444129e-05
  1.4993036e-04
  3.6238878e-05
  1.7359471e-05
 -3.3913068e-06
  5.8289101e-05
  6.2340115e-07
  5.5729623e-05
 -3.4743898e-05
 -1.9728746e-05
  2.0435036e-05
 -2.6108668e-07
 -1.7637045e-05
  2.0242715e-05
 -3.8296070e-02
  8.4702870e-06
  7.3286287e-06
 -4.5391243e-05
 -3.0716568e-05
  2.6778982e-05
  3.1157408e-05
  1.9578865e-05
  3.4138277e-05
 -3.8922076e-06
  4.9968279e-05
 -4.5734710e-06
  2.8032737e-05
  3.7136284e-05
  1.5834101e-05
  2.2122117e-06
  1.6902919e-05
 -1.6707978e-05
 -1.0653192e-04
 -1.9581563e-05
  4.6740661e-05
 -3.3708402e-05
  2.8160382e-06
 -3.5631841e-05
 -1.4621359e-06
  1.7268951e-04
 -4.7261150e-05
 -1.1167056e-05
  3.5870150e-06
 -3.2474207e-05
  2.5426203e-05
  1.7474269e-05
 -1.7304759e-05
 -2.6069181e-05
  3.5383455e-05
 -1.5255504e-05
  5.1534539e-06
 -4.5304255e-06
  6.0560691e-05
 -7.0405746e-05
  4.1724525e-05
 -2.7364074e-05
  1.8319521e-05
 -2.9548311e-05
  2.0777388e-05
 -1.0531135e-05
 -1.6700580e-05
 -1.1357898e-05
  8.4561980e-05
  1.1285249e-05
  1.0776037e-04
  1.9424990e-05
  2.3962853e-05
  2.4444271e-05
  9.3656505e-05
 -2.7168486e-05
  3.5254179e-05
 -2.0921323e-05
 -7.2571886e-05
  2.0078928e-06
 -3.0725747e-05
  1.6714348e-05
 -1.8769349e-05
 -7.3886017e-06
  3.2172502e-05
  9.5066116e-06
 -3.5608227e-05
  1.5547613e-06
 -2.5234287e-05
 -1.3053937e-04
 -7.6724755e-06
  2.4860237e-05
 -4.5416844e-05
  2.1515869e-05
  3.2780157e-05
 -3.5392612e-05
 -1.0052200e-05
 -4.1457064e-05
 -2.6646692e-02
 -7.4101685e-05
 -8.7906192e-05
 -3.2359399e-02
  9.0126996e-05
  4.5481600e-05
  4.0131676e-05
  8.9976733e-05
  7.1744639e-06
 -2.5741695e-04
  2.0009638e-05
 -4.5604076e-05
 -1.6827719e-02
 -1.2322806e-04
  1.6895028e-04
  2.2490512e-06
 -2.9652090e-05
  1.6146873e-06
  7.5652652e-06
  1.2834821e-04
 -1.2104693e-04
 -7.7793768e-05
 -6.2271286e-02
 -5.6884302e-05
 -3.6421170e-06
  4.5455734e-05
 -2.1025407e-06
 -4.4543594e-05
 -1.2316491e-05
  1.4441949e-05
  1.0582129e-01
 -6.5052853e-05
 -6.4466774e-05
  6.2653970e-05
 -3.4431428e-06
 -2.3961755e-05
 -1.4533542e-05
  1.0512035e-05
  2.6455800e-06
  6.0909828e-05
 -1.0243731e-05
  3.3306427e-05
  1.4721713e-05
 -1.1987518e-05
 -2.4732402e-05
  2.5145360e-05
  7.7558502e-07
  4.6158391e-07
  8.6500688e-07
  6.4081419e-06
 -8.6420032e-06
 -3.3853335e-05
  5.6805915e-05
  7.4517804e-05
 -1.8982479e-05
  3.2991329e-07
 -8.6205895e-05
  1.4226931e-05
 -3.6008274e-05
  4.3551390e-05
  4.1072984e-05
  1.6702359e-05
  2.8418801e-05
  5.1618363e-06
 -9.3372710e-06
  1.5761113e-06
  1.7220789e-05
  2.0820866e-05
 -2.6360050e-05
  1.3367287e-04
  3.9818577e-05
 -1.1224970e-05
 -7.9668080e-06
 -2.3451919e-05
 -6.6290190e-06
  1.5436826e-04
  2.9939190e-05
  1.1725500e-05
  1.2340264e-05
  3.3760080e-05
  4.5842597e-05
  3.1110760e-06
  3.5428602e-05
  2.9632289e-05
  1.8640700e-05
 -1.1471352e-06
  9.8200462e-06
  4.0146017e-05
  6.4564829e-06
 -1.9792678e-05
  2.3963357e-05
 -5.3961224e-07
  5.6807071e-06
  2.1623595e-05
 -1.5077838e-05
 -5.0773669e-05
  2.8149196e-05
  3.3934487e-06
 -3.4068456e-05
 -7.6037354e-06
  4.7726699e-06
 -5.0099319e-05
  1.6139853e-05
  5.5845401e-05
  1.1914633e-06
  2.7027413e-06
 -2.7764223e-05
  3.1677428e-05
 -1.1452807e-05
  8.2101840e-05
 -7.5293683e-05
  1.8441637e-05
 -1.4315503e-05
 -6.8266752e-05
 -4.8919205e-06
  6.8152822e-06
  1.7333472e-05
 -9.2646420e-05
  9.1165048e-06
 -1.7284014e-05
  1.6505213e-05
 -3.1114876e-05
  8.8553228e-05
 -9.6152216e-05
 -4.8583893e-06
 -9.0931110e-07
  1.6275590e-05
  7.4170280e-06
  1.8789658e-05
 -3.1741609e-05
  7.4346229e-07
 -2.5543020e-06
 -6.4007698e-05
  4.9884388e-06
 -6.5321306e-06
  3.3140244e-05
  5.2510237e-05
  3.2117405e-05
 -2.4321165e-05
 -3.5684421e-05
 -1.1786046e-05
  4.1980334e-06
 -4.7743047e-06
 -4.6244015e-05
  1.5846694e-05
 -1.0220167e-04
  9.7999794e-07
 -2.0349414e-06
 -2.8347142e-05
  9.5512827e-05
 -2.7156457e-05
 -1.4656576e-05
 -3.7128826e-05
 -8.5462998e-06
  9.2540919e-05
 -3.2327487e-05
  1.2483770e-05
  1.6175894e-05
  3.6819581e-06
  3.9071210e-06
  1.2481242e-04
 -1.1573791e-05
  3.1434520e-05
 -2.1573517e-06
 -1.1971799e-06
  3.7025180e-05
 -7.0224619e-06
  3.5849323e-05
  2.4553781e-05
 -8.6875398e-06
 -1.8700042e-04
 -6.6440451e-05
  9.6505501e-06
 -5.3201016e-05
  1.2097427e-05
 -8.8582266e-05
 -7.2279676e-05
 -2.7336846e-05
  4.8512418e-05
 -2.0611571e-04
 -7.7215727e-06
  2.5996065e-05
  3.1662785e-05
  1.6396219e-06
 -7.2451614e-05
  2.3997020e-06
 -5.8937021e-06
  5.1925042e-05
  8.4756957e-06
 -9.9140561e-05
  6.3366115e-06
 -3.1356005e-05
 -2.0561551e-05
  7.0645387e-05
  2.2805687e-05
  3.0702828e-05
 -1.0655102e-05
 -1.0066173e-04
 -2.0431618e-05
  2.7589933e-05
  1.0246968e-04
 -1.8215535e-05
 -7.2591509e-05
 -1.1624066e-06
 -1.8321165e-05
 -4.1151772e-05
  3.7273301e-05
  1.2821323e-05
 -3.3923420e-06
  1.0385969e-06
  7.7940560e-05
  7.4619766e-06
  1.2928160e-04
  5.8672695e-06
  3.7667600e-05
  1.6279033e-04
 -3.5009450e-01
 -4.7532747e-05
 -2.5063651e-04
 -1.7634962e-01
  9.6049113e-03
  1.6614549e-04
 -9.0432295e-05
  8.6313057e-06
  1.3391969e-04
 -4.9361046e-02
 -4.9229129e-05
 -2.9210554e-04
 -2.4417914e-01
 -5.3202034e-06
  1.7233568e-05
 -1.2256239e-05
 -3.0902149e-05
 -1.4532075e-05
 -1.3036100e-05
  2.1686164e-06
 -5.7086274e-02
 -1.9834656e-01
 -1.7819430e-01
 -7.9419697e-06
 -2.4672596e-05
  2.6397922e-04
 -2.3527386e-05
 -3.0438547e-04
 -2.5227233e-05
  5.7632042e-06
  4.4894052e-01
 -7.8909346e-05
  1.6280985e-05
 -2.8793333e-05
 -8.3505314e-05
 -2.8757979e-05
 -3.4658049e-05
 -3.8927265e-06
  5.8329915e-06
  7.7536424e-07
  1.0402901e-05
  1.4550144e-06
  7.2255010e-05
  3.0300584e-05
 -2.5963664e-05
  1.1410242e-01
  2.8158162e-05
 -5.5690703e-06
 -1.4535050e-05
 -1.1915732e-06
 -1.1617655e-09
 -2.7101290e-05
  4.6571276e-05
  1.4001541e-05
  5.0037097e-02
  7.3843226e-03
  5.5877708e-02
  4.8226785e-02
 -6.8236835e-02
 -3.8692288e-04
  1.5034457e-05
 -1.3332005e-04
 -4.2490392e-05
  2.2629617e-02
 -3.1492335e-04
  1.1721755e-01
  2.1159615e-02
  2.1456335e-02
 -5.4078985e-02
 -1.6863778e-05
  1.2765266e-04
  4.5112854e-05
  2.8887693e-02
  1.0840689e-05
  5.2557852e-02
 -5.7103126e-03
  3.0065103e-02
 -6.4750602e-05
 -9.1185546e-05
 -1.3634183e-01
 -3.3499316e-05
  5.4436244e-02
  1.8626257e-05
  9.7747383e-05
 -1.1736228e-01
  4.1690415e-05
  7.8404801e-06
  3.1298550e-05
  3.6083590e-02
  5.4997039e-05
  6.8509202e-05
  1.5669199e-05
 -4.0107348e-05
  8.8812492e-05
 -7.5049152e-06
 -3.1440970e-05
 -8.4738356e-05
  5.5891793e-05
  1.9191779e-05
  5.8956981e-02
 -1.8247323e-06
  1.3892492e-05
  3.6187765e-07
 -3.1404456e-05
 -2.2698287e-05
  4.7400945e-06
  4.1201696e-05
 -1.6704897e-05
  5.5057064e-02
 -2.8366620e-05
  7.5623669e-02
  3.0212216e-02
 -2.9363334e-02
 -2.3227687e-05
 -1.0565273e-05
  4.2903066e-06
  1.8343879e-05
  1.2865562e-02
 -3.2777923e-05
  6.5734081e-02
  4.0915815e-04
  1.2558443e-02
 -2.6882002e-02
  1.7942450e-05
  1.8026623e-05
 -3.7129634e-05
  2.2473229e-02
 -1.8071153e-06
  4.2728901e-02
  2.1507034e-02
  3.9284725e-02
  4.1049476e-05
  1.6247240e-04
 -6.3959628e-02
  2.5464848e-05
  6.4578511e-02
 -1.6728722e-05
  2.6361949e-05
 -1.1652074e-01
  2.8213626e-03
  1.9410445e-04
 -1.8524197e-06
  3.2609332e-04
 -3.9223836e-05
  1.4322627e-05
  4.1598865e-05
  1.6671343e-05
 -5.4445509e-06
  7.3119620e-05
  1.5071898e-06
  1.2044439e-04
 -4.1730254e-05
 -2.6571855e-04
 -9.1791851e-05
  4.9038499e-05
 -5.4640236e-07
  6.2793632e-05
 -8.1221762e-05
 -4.8531827e-05
  7.9910220e-05
  3.5904879e-05
  4.4387166e-06
 -8.9789501e-05
 -1.4018736e-05
  1.1355218e-05
  1.0857686e-04
 -5.5513265e-06
  3.0024012e-05
  1.8772487e-05
 -6.0970833e-05
  1.0649562e-04
  1.1471010e-05
 -9.5185924e-06
 -1.8301321e-04
 -9.5643838e-07
 -4.5843903e-05
  6.5809356e-05
  5.2967305e-05
 -4.3978689e-05
 -7.9005877e-05
 -8.5108377e-06
  2.7708849e-05
  1.1757596e-05
  7.7093871e-05
  7.9098209e-07
 -2.3004919e-05
 -3.4710354e-07
 -7.1493552e-05
 -5.4185180e-06
  6.0240422e-06
 -1.9493254e-04
  2.9946592e-05
  1.2930936e-05
  3.0853545e-05
 -5.2047317e-06
  5.8552658e-05
 -9.0180511e-06
 -2.1309908e-05
  9.1232047e-05
 -1.8971748e-05
 -1.3315450e-05
 -1.6453427e-05
 -8.8102915e-06
  3.9956303e-05
 -1.1058754e-05
  1.3091627e-05
 -6.6891735e-05
  1.1021848e-06
 -1.6186252e-05
  3.8177657e-08
  4.5026277e-06
 -6.1453204e-05
  2.7520458e-05
 -2.3906037e-05
 -3.0535994e-05
  2.3806337e-05
 -1.0960504e-05
  1.7667813e-05
  3.8949594e-05
  3.8523653e-05
 -3.1535696e-05
 -3.4696843e-06
 -2.3867828e-05
 -1.7914599e-05
  5.4763914e-05
  7.2927454e-05
 -2.5168441e-05
 -6.8977683e-06
  5.1909301e-06
  1.5096251e-05
  8.0444252e-06
 -1.0530512e-04
 -6.3327366e-06
 -9.0568639e-05
 -1.4426138e-05
 -2.4392155e-05
 -2.0716547e-04
  3.0399167e-05
  6.0866889e-05
 -4.0704541e-05
  1.4378184e-05
  7.8556142e-05
  1.6873489e-06
  2.1198133e-05
  3.5832021e-05
  1.5184179e-06
  3.5498888e-06
  7.2298540e-06
  5.2269888e-06
 -1.3118614e-05
 -3.5240028e-05
 -4.3409495e-05
  4.2181196e-05
  1.5810710e-05
  2.5681278e-05
  1.6179698e-05
 -7.8616598e-05
 -3.2146578e-05
  9.2413182e-05
 -2.3261167e-05
 -1.3797116e-05
  1.7759207e-06
  3.6209506e-06
 -1.2263394e-05
 -3.9024220e-05
 -4.9923379e-05
 -6.9664347e-06
 -5.6765857e-06
 -2.7678918e-05
 -1.4177090e-06
  1.1809338e-04
  5.8424750e-05
  9.5171399e-06
 -1.6488862e-05
  2.5800697e-05
  8.1596800e-06
 -5.1373154e-06
  2.6510264e-05
  7.7141071e-05
 -8.6772133e-07
 -1.1024853e-05
  3.1718321e-06
 -2.4103334e-05
  2.2445370e-06
 -5.0822014e-06
 -1.8810477e-05
  2.2232744e-05
  4.2433618e-05
  6.0911523e-05
  1.0914229e-05
  9.0183676e-06
  1.9147659e-05
  1.6767834e-05
  7.1933387e-06
 -4.6729358e-05
  1.6411746e-05
  6.0071679e-06
 -2.5818379e-05
  7.8310659e-05
 -1.5134155e-05
 -2.9683692e-05
 -1.6391414e-05
 -2.3273844e-06
 -7.1648617e-05
 -2.2547521e-05
 -3.7869497e-06
 -5.3218555e-06
 -1.2258462e-05
 -7.4946060e-05
  2.6252023e-05
  3.6469316e-06
  3.4164121e-05
 -3.0095891e-05
  7.1649470e-06
  4.5458460e-06
 -4.8013910e-05
  4.4908102e-06
  2.1349841e-05
 -4.2843600e-05
  7.3245545e-05
  1.6293893e-04
  9.3209637e-06
  2.7855138e-05
 -2.7512027e-05
  3.5333317e-02
 -1.3865906e-05
 -4.5704201e-06
  4.6067614e-02
 -3.4283951e-02
 -1.4001312e-04
 -2.4731231e-05
 -2.2371714e-06
 -4.2179195e-07
  5.3337979e-04
  1.8427780e-05
  3.8151516e-04
  1.3254571e-04
 -3.5321234e-05
 -1.3335248e-05
  7.1883456e-05
 -2.3682443e-05
  3.9384620e-05
  7.2821720e-05
  1.0852746e-04
  1.7812417e-04
  8.7565096e-04
  1.7473055e-02
  1.7976897e-06
 -7.2206924e-05
  1.0946636e-05
  1.1048232e-05
 -5.3957363e-05
  3.7308678e-06
  1.3261109e-05
 -2.8658817e-02
 -1.5673389e-06
  1.2428954e-05
  7.4262593e-05
  1.5605990e-05
  9.8504906e-06
 -1.0236966e-05
  1.7850509e-05
  1.0595141e-05
  1.1609052e-05
  2.0645077e-05
 -9.6994736e-06
 -5.7921567e-05
 -2.1245398e-05
  3.5929439e-05
  2.9150218e-05
  3.5473087e-05
  2.4342826e-05
 -8.9569539e-06
  4.5260554e-06
 -2.4670277e-05
 -6.1457808e-06
 -4.4658491e-06
 -1.9762112e-05
  1.5405898e-05
  1.6349219e-05
 -8.0019863e-06
 -7.1129680e-06
  4.0974104e-05
  1.4474656e-05
 -1.4697579e-05
 -1.6107993e-05
  1.4779076e-05
  9.9427627e-05
 -3.8543476e-05
 -5.4489976e-07
  2.2039534e-05
  1.2285236e-05
 -3.1892749e-05
  1.2406346e-04
  8.5162119e-06
  5.0319300e-05
  1.0047220e-04
 -1.2526735e-04
 -1.0005712e-05
 -2.2248756e-05
 -8.1894314e-06
  2.4488842e-05
  3.2752170e-05
  2.2776867e-05
  3.5829027e-05
 -4.6920792e-05
 -2.0059191e-07
 -1.9235365e-05
  1.6450473e-05
  1.1179273e-05
 -1.6957965e-05
  2.9135070e-05
  2.4892749e-06
  5.8616017e-05
 -1.8223307e-05
  4.9044564e-07
  8.0101068e-05
 -2.3990211e-05
  3.7482576e-05
  2.0842595e-05
  5.6302179e-06
 -5.0752598e-05
  3.5242672e-05
 -1.1947029e-03
  2.7323005e-05
 -3.6016322e-06
  8.4608319e-06
 -4.7482295e-06
  6.2356499e-05
 -2.2079305e-06
  5.3943251e-05
  1.0144126e-05
 -9.6975066e-02
 -1.6188776e-05
 -2.0045029e-05
 -3.3701435e-02
  2.5765091e-04
 -7.5276097e-05
 -1.5723679e-05
 -3.3226523e-05
  6.5343756e-06
 -1.7173219e-03
  1.3284822e-06
 -2.2626619e-03
 -1.5754594e-02
 -8.6857348e-05
  2.9000448e-06
 -4.5088615e-05
 -3.0884032e-05
 -1.1021985e-05
 -8.2954648e-05
  7.4837735e-05
 -1.2038652e-03
 -1.1475660e-02
 -4.1771092e-02
 -1.1738752e-05
  2.2486525e-05
  3.1449596e-04
 -5.6328794e-05
 -1.0793264e-05
 -4.1684411e-06
 -5.0926534e-05
  1.7718083e-01
 -5.1730145e-05
  2.6376930e-04
 -9.2147429e-06
 -6.3239066e-05
  3.1325268e-05
 -8.9981277e-06
 -1.3762236e-05
  2.5139614e-06
 -2.6611211e-05
  6.0321428e-05
  5.0855000e-05
 -6.2154586e-06
 -1.3690337e-05
 -2.0010009e-05
  1.6343457e-04
  2.7926950e-05
  1.9413977e-05
 -9.1990059e-06
  2.6684587e-05
  8.8697579e-06
 -3.2885957e-05
  7.5338969e-05
  3.2550913e-06
 -7.9193005e-06
 -4.0041748e-05
 -1.2343561e-06
 -1.6910803e-05
  8.6063101e-06
  3.0985699e-05
 -1.7099494e-06
  2.5705420e-05
 -2.5198391e-05
  2.0694139e-05
  5.5319429e-06
  1.3405366e-05
  4.7939884e-06
  3.4737783e-05
 -5.0192061e-06
 -1.0718615e-05
 -4.8612856e-05
  1.0779749e-05
 -1.1071071e-04
 -3.5439851e-05
  3.4484794e-05
 -4.9941127e-06
 -4.3350818e-05
  3.8811977e-05
 -5.4088821e-05
  1.5506213e-05
  2.3768927e-05
 -6.3883899e-06
  9.0663620e-05
  2.2903063e-05
  8.6890454e-05
 -2.1905746e-05
 -3.5723850e-05
 -5.9939950e-05
  1.2504667e-05
 -2.0216792e-05
 -1.1244701e-05
 -1.3193153e-05
 -3.0337753e-05
 -2.6204163e-05
  3.6585936e-06
  1.5037404e-05
  1.4136426e-04
 -1.2391100e-05
 -2.4200252e-05
 -7.0011716e-05
 -7.5667913e-06
  6.8825240e-05
 -2.9388706e-05
 -1.0962032e-04
 -8.7665023e-05
 -3.9899464e-06
 -2.5623457e-03
 -7.7828598e-05
 -4.1376745e-05
 -6.3925640e-05
 -2.9661915e-05
 -4.9562208e-05
 -1.3410267e-06
  4.7612888e-05
 -2.7220258e-05
 -7.6349635e-05
 -2.6545834e-07
 -4.6591176e-05
  3.6312103e-02
  1.4175233e-05
  9.1083812e-06
 -2.4456107e-05
 -5.1674167e-05
 -3.5380662e-04
 -1.2283088e-04
 -8.3417057e-05
  4.3634347e-05
 -5.8391161e-05
  9.1896754e-06
 -5.7877758e-05
 -4.0759664e-05
  5.7196256e-02
  4.8931604e-05
  1.2262643e-05
 -4.0779569e-06
  1.0083750e-05
  1.3301618e+00
  3.5973051e-06
 -3.5381319e-05
  2.8529587e-01
  6.1149571e-05
 -1.7666456e-04
  3.5151619e-02
  6.5451495e-05
 -1.2559669e-01
 -1.2074718e-05
 -1.4143963e-05
  1.2441125e-06
 -1.3643461e-01
  3.3259857e-01
  2.4772865e-01
  3.4821456e-05
 -1.0939051e-05
 -5.1042509e-05
  8.9552775e-02
  1.0079748e-04
 -1.6948858e-01
  1.3757666e-04
 -3.1098637e-01
  3.7451911e-05
  8.5270382e-05
 -8.8308931e-05
  8.5785890e-05
  7.8795465e-06
 -7.7705641e-05
 -1.1512951e-05
  7.5401078e-07
  6.3301668e-06
  1.3344840e-05
  4.5133933e-05
  4.7365497e-06
 -4.1625335e-05
 -1.5200089e-05
  5.2128107e-05
  6.0909199e-05
 -2.0955968e-05
  6.7428264e-06
  1.1545871e-05
  3.5972353e-06
 -4.7863694e-05
  4.8195693e-07
  9.5403870e-05
  3.1405183e-05
  1.1913931e-05
 -4.1797630e-06
 -2.8562185e-05
 -1.7199269e-05
  5.1305255e-05
 -6.2893705e-05
  3.4424440e-05
 -8.4800260e-05
 -3.9171278e-05
  2.7394278e-06
  7.1624407e-07
  4.9704555e-05
  5.7679813e-07
  7.2172088e-06
 -6.8055697e-02
  3.5613820e-02
 -5.6347933e-05
 -6.9855005e-06
 -1.7819367e-04
 -1.1747191e-05
  1.8837050e-05
 -8.2375685e-05
  7.0934460e-02
 -1.3135671e-02
 -2.0980946e-05
  1.4179045e-05
 -7.7031837e-05
 -7.6308521e-03
 -1.3963572e-05
 -7.7169952e-06
 -3.3592954e-02
  2.4150703e-02
 -1.7149888e-06
 -2.3442964e-05
  2.0642197e-01
 -2.0432374e-01
  7.0527676e-05
  1.6969923e-05
 -7.6148230e-05
 -2.1008442e-01
 -1.9993074e-04
 -1.8504770e-05
 -1.0061237e-01
  4.2927331e-01
  4.4708730e-05
  5.2667933e-06
 -4.0176228e-01
 -3.9518636e-01
 -5.0495019e-05
 -5.4324742e-06
  5.4351625e-05
 -1.5439913e-06
  3.2596803e-05
 -1.0503762e-05
 -4.6646797e-05
  1.0645801e-05
 -1.1984821e-05
 -3.8423437e-05
 -2.8731974e-05
  1.2708395e-05
  1.2595068e-05
 -2.9855505e-06
 -1.4862560e-05
 -1.8319815e-05
  4.6670011e-05
 -5.8629561e-05
  3.3124245e-05
  1.6002912e-05
  2.1123864e-05
  1.1568370e-05
  5.0426706e-06
  3.3798337e-05
 -6.5140921e-05
  8.5262707e-07
  1.4979503e-05
  1.3021528e-05
 -2.0302556e-05
  7.3979063e-05
  1.4467078e-05
 -9.2189811e-07
 -1.0685624e-05
 -1.3623261e-05
  1.0252449e-04
  1.3800664e-05
 -3.8343074e-05
  2.3652894e-05
 -8.0610525e-06
 -5.8860883e-07
 -9.7421136e-05
  2.9706178e-05
  5.9239086e-05
  1.2154174e-04
  1.0990138e-06
 -2.3284296e-05
  3.8703569e-05
  2.0670097e-05
  1.5993737e-05
  1.0283570e-04
 -9.3873477e-06
  5.3908032e-05
  2.6025875e-05
 -4.8855967e-05
 -3.7463931e-05
  3.0689782e-05
  1.5053080e-05
 -1.2147805e-05
  3.9371655e-05
  8.0852682e-05
  3.5936617e-05
 -3.0193047e-05
 -8.4261934e-05
  4.9665588e-05
 -2.5920774e-06
 -6.9536400e-05
 -2.5092439e-05
  2.7250584e-05
  6.2724583e-05
 -5.9244871e-06
 -1.1208229e-05
 -3.3560543e-06
 -3.4502748e-02
  4.2215073e-01
 -1.4752617e-05
 -5.6036060e-05
 -2.1414612e-04
  2.3236653e-02
 -1.0742329e-05
  8.0179576e-05
  5.9644699e-02
  5.4027691e-07
 -3.8783769e-06
 -1.6870641e-05
  8.0737658e-02
  2.5628030e-01
  2.0727388e-05
  4.0220348e-06
 -8.7397615e-04
  5.7392740e-01
 -3.6898131e-05
 -2.7413416e-05
  6.9518450e-05
 -1.1171701e-01
 -4.2006686e-05
 -1.6613933e-05
 -1.1534284e-01
  3.9085608e-02
 -6.3405809e-05
  1.5361500e-05
 -1.9032744e-01
  6.2080151e-01
 -1.1539173e-04
 -1.6744865e-05
  3.5310912e-01
  3.0568132e-01
  2.0192492e-05
 -2.7064158e-05
 -3.8176880e-05
 -1.7996877e-05
 -6.1028793e-05
 -2.9693272e-05
 -3.8179483e-06
  5.4994021e-06
  1.3813986e-05
 -4.4111471e-06
 -5.5391371e-05
  1.4729730e-05
  1.5152135e-05
 -1.1983810e-04
  1.5296517e-05
 -3.3332421e-05
 -3.3973134e-05
 -5.1503856e-05
 -1.0881000e-04
  1.8613682e-05
  1.4383073e-05
 -6.0035483e-05
 -1.2962356e-06
  3.4843230e-05
  2.6347350e-06
 -5.4060783e-05
 -1.5006844e-05
 -4.1160129e-06
 -2.2900173e-05
 -3.6748996e-05
 -4.9201612e-05
 -1.1278787e-05
  3.8658902e-05
  2.7536624e-05
 -3.8792732e-05
  4.2148549e-05
 -3.9882420e-05
  4.9276208e-05
 -7.1604118e-02
 -1.0949845e-02
 -8.4343028e-06
  1.4970444e-05
  5.9680191e-05
 -1.2308142e-04
  1.2732339e-05
  5.4218140e-07
 -7.8774217e-05
  3.7999328e-06
  8.0701146e-05
  4.4758461e-05
  6.0590658e-02
 -7.5606734e-02
 -5.2404948e-06
  3.8002443e-06
  1.7210037e-02
 -8.7068804e-02
  5.5513501e-05
 -1.7673294e-05
 -6.7290184e-06
  1.8338555e-02
  4.0040624e-05
 -2.4335039e-05
  7.2785415e-02
 -5.0718863e-05
  1.1585131e-05
 -6.1020787e-06
  1.7206514e-01
 -2.7148622e-01
  8.9709050e-05
 -1.0788465e-06
 -1.9178247e-01
  1.9396619e-01
 -3.0239393e-05
  1.6517139e-05
 -6.8069774e-01
  2.1066107e-02
  1.0951449e-04
  5.8703517e-05
 -6.4042043e-03
  1.5053632e-04
  7.1762179e-06
  1.6149685e-05
  7.2578266e-02
  1.0879197e-01
  1.5290142e-06
 -3.7960999e-06
 -5.2929831e-01
  2.5467956e-03
 -1.7226776e-05
  7.8158570e-05
 -6.1671771e-02
  1.3302284e-01
 -8.7497056e-06
 -4.0292189e-06
  2.2962824e-05
 -9.6012568e-03
 -1.5558667e-06
 -1.7168608e-05
 -5.6562555e-01
  2.1504184e-02
 -6.1758488e-05
  1.5490070e-05
 -3.2804379e-01
  1.3473755e-01
  4.0577816e-05
 -7.6863711e-05
  2.1942915e-01
 -1.7144363e-01
 -5.6344066e-05
  3.9207538e-05
  2.2530821e-06
 -4.0562692e-05
  5.5183282e-06
 -1.8704734e-05
 -1.4192186e-05
  2.7425913e-05
 -9.9326489e-06
 -5.7198686e-06
  2.6269458e-05
 -2.1993961e-05
 -5.5499491e-05
 -1.3429318e-04
 -7.4411892e-06
 -1.2723961e-05
  2.5592892e-05
 -3.8689494e-05
 -2.9799698e-05
 -4.6533656e-05
 -3.1889307e-05
  1.0042040e-06
 -6.9377798e-05
  1.3365281e-04
 -7.9404535e-06
 -4.4885610e-06
 -4.3672403e-06
 -6.0416573e-05
 -5.3818230e-06
  1.6142672e-05
 -6.2254927e-05
  3.7723199e-05
 -6.1033620e-06
 -9.3493603e-05
  1.7863218e-05
 -3.1071471e-05
 -9.9353365e-06
 -2.4773994e-05
  1.2693141e-02
 -3.1778242e-02
 -1.6392556e-06
  1.1905357e-05
  3.6928366e-05
 -1.5571670e-05
 -2.4646833e-05
  3.3279870e-05
  9.4128713e-02
 -5.1161005e-06
 -3.6953563e-05
 -4.3819073e-05
 -4.6150988e-05
 -2.5732207e-01
 -1.1369143e-04
  1.1754438e-05
  7.6520460e-05
  1.7736609e-01
  2.6127451e-05
 -4.4041004e-05
  7.1148194e-02
 -2.5868025e-01
  1.0656219e-04
  1.4023519e-05
 -1.0209132e-02
 -9.6736565e-02
  5.3063641e-06
 -8.4003832e-06
  1.6611381e-01
  1.7406248e-01
  1.5817124e-05
 -1.1898890e-04
 -5.0054550e-02
 -1.0586923e-01
  9.8496275e-06
 -3.4445034e-06
 -1.5850735e-01
  1.7304792e-01
 -3.6372888e-01
  1.3160212e-01
 -3.3993174e-03
 -1.8962728e-02
  5.5824336e-02
  1.6396529e-05
  4.5252520e-05
  3.6484253e-01
 -3.4253412e-01
 -4.0986331e-05
 -2.8355426e-01
 -5.1194686e-02
 -2.5667959e-01
 -6.2215049e-04
 -4.1940290e-05
 -4.3678202e-02
  1.5194052e-01
  3.0248225e-01
  2.7193661e-05
  1.2315254e-01
 -4.3828899e-01
 -1.9230694e-01
 -1.4746670e-01
  5.5627674e-02
 -7.5630891e-01
 -2.7523158e-02
  7.8115921e-04
  2.4319935e-01
 -3.7750181e-02
  2.6838410e-01
 -2.9881719e-01
 -6.2729150e-02
  2.4799706e-01
  3.8378331e-01
 -2.9688398e-03
 -3.8812307e-01
 -1.9340664e-01
  4.8390307e-02
  1.8370411e-04
 -8.5037656e-02
 -2.3053187e-06
  7.1433577e-05
 -1.7505918e-01
  1.4791937e-01
 -1.7156708e-01
  3.0730899e-07
 -3.3737645e-02
 -8.6183630e-02
 -4.0850133e-05
  2.6998397e-02
  3.6236063e-02
 -6.6297509e-02
 -4.5064129e-02
 -2.7736636e-05
 -2.0735739e-01
  3.2742720e-02
 -3.1995513e-02
 -5.2771684e-05
 -4.4704787e-02
 -2.7257517e-01
 -2.0177801e-01
  2.4842221e-01
  3.5602432e-01
 -1.6443377e-02
  3.0112419e-01
 -6.2529005e-02
 -3.0213615e-01
  6.3081305e-03
 -4.8015742e-03
  1.1799319e-01
 -1.0985012e-01
  1.3991022e-03
  3.2093251e-01
 -2.0895830e-01
  5.4988992e-05
  9.5855445e-03
  4.2346674e-01
  2.0018844e-05
 -4.6843696e-05
 -1.7762589e-01
 -6.9883987e-02
  7.8725452e-03
 -1.4420880e-01
  1.9640869e-01
  3.8536558e-01
 -9.5930040e-02
  3.7621783e-05
 -3.6077626e-02
  9.6565247e-01
 -2.0096181e-01
  1.3263766e-05
  3.7680141e-04
  4.6668732e-01
  1.4351493e-01
 -3.5852894e-01
 -1.1749870e-05
 -3.2960495e-01
 -4.4949591e-02
  1.2591964e-01
  2.1666475e-02
 -7.1709073e-01
  1.1069165e-01
  7.1891807e-03
  3.5339131e-03
 -1.9011323e-01
 -4.8323542e-02
 -3.8553752e-02
  1.0829504e-01
  7.6957589e-01
  1.6483825e-03
  9.2080660e-07
  5.9640087e-02
  6.3952059e-02
 -3.1837135e-05
 -1.6985314e-05
 -5.9583694e-05
 -1.2386920e-01
  6.9022886e-02
 -8.5668579e-02
  2.3840097e-05
  3.0378157e-01
 -2.0071020e-02
  1.5262509e-03
  2.4873435e-01
  1.3979734e-01
  1.2691701e-02
 -3.6753587e-02
  1.0537200e-01
 -5.2229857e-01
  1.5500688e-02
 -6.6730730e-02
 -8.0941215e-02
  6.8006855e-01
 -2.5524861e-01
  7.5593710e-02
  1.0100642e-04
  1.4244148e-01
  2.2422752e-01
 -1.4507146e-01
  3.2124165e-01
 -8.5064426e-02
 -1.8889201e-01
  7.2743379e-02
 -3.3940607e-01
  2.3509809e-01
 -4.1194317e-01
  5.4431741e-05
 -6.0279574e-05
  9.1505604e-04
 -2.8205159e-04
 -1.4587284e-02
 -9.5655940e-02
  2.3727016e-01
 -4.1871064e-04
 -2.1757098e-01
  1.7774718e-04
  2.5517043e-01
 -4.5570838e-01
  1.0284682e-01
 -2.2248353e-01
  3.2744956e-01
  1.0796616e-01
 -9.7547881e-03
 -2.1525195e-01
  6.9226320e-03
 -7.8657568e-02
  4.8898134e-01
 -8.1494671e-01
 -3.1871539e-01
 -4.5975082e-02
  2.7837861e-01
 -1.9236760e-03
  6.6573918e-02
  7.3419787e-02
  3.2473993e-01
  5.6883361e-02
  4.0225250e-01
  2.7111685e-01
  3.2610720e-01
 -3.0757225e-04
 -9.2300035e-02
  1.0813136e-01
  1.4979266e-04
  9.1800369e-02
  6.2394218e-05
  4.5990641e-05
  1.1421201e-03
 -2.2004324e-01
 -1.4552942e-01
  9.4070412e-02
  2.2866517e-01
  1.0602780e-01
 -5.5619809e-03
  4.4764154e-02
 -1.8228759e-01
  3.7732655e-01
 -1.9055347e-05
 -4.3635827e-02
  7.8243154e-01
 -4.9459953e-02
 -9.9990606e-02
  3.6602142e-01
  7.3983938e-02
 -2.4881477e-03
 -5.2358773e-02
 -7.5691089e-02
  6.2702626e-02
 -5.5676037e-01
 -3.9251208e-01
  1.1662491e-01
 -3.3784965e-01
 -5.6573027e-01
  1.3694254e-02
  1.2780999e-02
  1.9177920e-01
  4.6823360e-02
 -5.1729621e-05
  6.0078357e-05
 -5.4388867e-05
  1.2170957e-05
  2.7472553e-05
 -4.7260495e-05
  3.3723706e-01
 -4.6870354e-01
 -6.2904408e-05
  6.2128238e-05
  4.6475297e-03
  4.3361221e-02
  4.0043873e-05
 -2.3483452e-05
  4.7281272e-05
 -3.2517719e-01
 -1.8932242e-05
  1.0666363e-05
  4.2571530e-01
 -2.0895092e-01
  5.7245477e-05
  1.1788414e-05
 -1.1533999e-01
 -2.3646681e-01
  9.9889337e-05
  8.3378509e-06
  3.6225933e-01
 -2.7481547e-01
 -1.1086088e-06
 -5.0208669e-06
 -7.2020426e-02
  3.6137876e-01
 -3.4587727e-05
  1.5188888e-05
 -8.5979827e-06
 -3.7583063e-04
  5.7198234e-02
 -8.5451454e-02
  1.9110408e-05
 -1.6126825e-04
 -8.9201614e-02
  2.0921465e-02
  5.5958633e-03
 -3.0160435e-03
  2.1125695e-01
 -4.4755134e-01
 -5.6131400e-02
  2.9419667e-05
 -5.7261538e-02
  1.6088322e-01
  1.0054463e-04
 -6.9081455e-02
  5.6024891e-01
 -9.5875366e-05
 -1.3548810e-05
 -1.7089599e-01
  1.8171272e-01
 -4.9903002e-01
  4.3474315e-03
  1.5765297e-01
 -4.4856522e-02
  1.7976047e-01
 -2.3909128e-01
 -2.5852241e-03
  7.2311826e-02
 -3.4327063e-01
  1.9051379e-02
 -2.0889148e-01
 -3.6746362e-01
  3.4170660e-01
  6.3077450e-02
  6.3077450e-02
  6.3077450e-02
  6.3077450e-02
  6.3077450e-02
  6.3077450e-02
  6.3077450e-02
  6.3077450e-02
  6.3077450e-02
  9.4115770e-01
  9.4115770e-01
  9.4115770e-01
  9.4115770e-01
  9.4115770e-01
  9.4115770e-01
  9.4115770e-01
  9.4115770e-01
  9.4115770e-01
  6.6016197e-01
  6.6016197e-01
  6.6016197e-01
  6.6016197e-01
  6.6016197e-01
  6.6016197e-01
  6.6016197e-01
  6.6016197e-01
  6.6016197e-01
  2.2858520e-01
  2.2858520e-01
  2.2858520e-01
  2.2858520e-01
  2.2858520e-01
  2.2858520e-01
  2.2858520e-01
  2.2858520e-01
  2.2858520e-01
  2.8554235e-02
  2.8554235e-02
  2.8554235e-02
  2.8554235e-02
  2.8554235e-02
  2.8554235e-02
  2.8554235e-02
  2.8554235e-02
  2.8554235e-02
  1.5063461e+00
  1.5063461e+00
  1.5063461e+00
  1.5063461e+00
  1.5063461e+00
  1.5063461e+00
  1.5063461e+00
  1.5063461e+00
  1.5063461e+00
