nep4 2 Mg O 
cutoff 5 5 66 66
n_max 8 8
basis_size 8 8
l_max 4 2 0
ANN 30 0
  1.1638737e-05
 -7.3634210e-06
  2.2755587e-05
  1.1808190e-05
  9.2445598e-06
 -3.2114149e-05
 -3.5528674e-06
 -6.0642069e-06
 -3.0121513e-05
  1.6969357e-04
  9.3555682e-06
  8.6445389e-06
  8.3851482e-06
 -8.6078194e-07
  3.6456760e-05
 -4.1834781e-05
 -3.8241731e-05
  1.2825363e-04
  6.7177457e-06
 -4.1923769e-05
 -1.1015238e-07
 -6.7009150e-06
  1.3495061e-05
 -1.6904194e-05
 -3.0518899e-05
  2.5112162e-05
  1.9801610e-06
  1.1525732e-05
  1.8195058e-05
  5.6296594e-06
 -6.2047999e-05
 -9.9460758e-06
  1.9972349e-05
 -4.2316074e-06
  2.7460734e-07
  9.1010879e-05
  6.8156387e-06
 -4.2659303e-05
 -4.9459370e-05
  8.4668522e-05
  1.4717397e-06
  1.7897682e-06
 -1.3062986e-05
  2.9267476e-05
 -3.7167163e-05
  8.9045243e-06
 -4.5488716e-05
 -5.0171875e-05
  6.9377675e-05
 -4.2830970e-06
 -2.9327397e-05
  8.6181572e-06
 -5.8186006e-06
  2.5646101e-05
 -5.8563396e-02
  6.6998116e-05
  9.4275847e-03
  1.6773210e-01
 -4.3932472e-05
  4.4427343e-06
 -1.2176255e+00
 -2.3085470e-01
 -1.7066461e-05
  4.0506566e-05
 -7.0586771e-02
  1.2630007e-04
  3.2198642e-04
 -1.5385804e-06
 -7.8590019e-05
  4.0153377e-06
 -1.8880302e-04
 -3.5440877e-05
 -2.6507364e-06
 -1.5382942e-04
  1.4358324e-05
  1.6658806e-04
  9.9098379e-06
  2.2811233e-05
 -1.9094206e-05
  1.3533900e-04
 -1.4014800e-05
 -3.4192879e-05
 -1.3594269e-05
  1.2415666e-06
 -7.3218898e-06
 -4.3209147e-05
  1.9484964e-05
 -1.9661922e-05
 -2.6748716e-03
 -6.3393505e-05
 -2.1039195e-05
 -3.4901917e-01
  3.2123713e-05
  5.9564238e-05
 -7.7310477e-05
  6.5485242e-06
 -8.9845322e-05
  6.5214452e-05
  2.9857945e-05
  1.9891619e-05
  2.3283867e-06
 -7.0328019e-06
 -1.8594375e-05
 -1.7660710e-05
  9.4653413e-05
  7.6855649e-06
 -1.7809798e-05
  1.9165953e-05
  7.5411634e-05
 -2.6668331e-06
  3.4098721e-05
  1.8355717e-05
  3.2223474e-05
  5.8800042e-06
 -3.3910441e-05
 -2.0784575e-05
  2.3772274e-05
  1.0019356e-05
 -6.1833307e-05
  3.1555799e-05
  2.1364836e-05
  4.3171080e-05
 -1.2189504e-05
 -3.4055505e-05
  1.9724861e-05
 -5.2670846e-05
  1.2741261e-05
  4.2600226e-05
 -3.9830393e-05
  9.1744500e-05
  1.2565698e-05
  8.6357022e-06
 -5.4903325e-05
 -3.6783913e-05
 -1.8211903e-06
 -7.1185903e-05
  1.0930562e-05
 -8.1731007e-05
  8.1843200e-07
 -1.1636466e-06
  1.3620060e-05
  2.1208925e-05
  3.1208063e-05
 -2.4430641e-05
  3.9447237e-05
 -9.6640018e-05
  2.8102577e-05
 -2.6588956e-05
  2.3163520e-05
 -1.0561945e-05
  1.1590145e-04
  1.8505900e-06
 -3.2957731e-05
  4.2973803e-05
  4.2132810e-06
  2.9750167e-06
  2.9377459e-05
 -3.0640971e-05
  1.3581613e-05
  2.9392513e-05
  4.9165574e-05
 -3.0057159e-05
 -2.3288317e-01
  7.9620019e-02
  1.1369978e+00
  3.0541536e-01
 -5.7154828e-01
  1.0479144e-01
  9.0802950e-01
 -3.0099610e-02
 -6.1827415e-01
  3.2561831e-04
 -1.8116763e-01
  1.0447633e-01
  7.3278368e-02
 -1.9625691e-03
 -7.4639879e-03
 -6.2860824e-02
 -2.7272837e-02
 -1.3874906e-01
 -5.2287322e-03
 -1.0835099e-02
  1.7299043e-02
  1.6976889e-02
  3.0063342e-03
  7.5832764e-03
  1.3802236e-06
  2.3085265e-03
 -8.7456098e-03
 -1.1587183e-02
 -2.7217029e-02
  2.3983376e-02
  9.8870352e-02
 -5.4320764e-02
 -1.6739324e-02
 -7.7705674e-02
  2.9747698e-02
 -4.3267626e-02
  2.9331648e-03
  3.5857625e-02
 -1.8589020e-01
  2.6025176e-01
 -9.6187092e-02
 -1.1301012e-05
 -5.7073944e-06
  3.6686834e-02
  1.7918235e-06
  3.1698026e-05
 -2.7346421e-05
  3.3288047e-02
 -9.6508925e-04
  4.7281908e-04
  6.2681014e-05
  4.1453630e-02
  8.0584809e-03
  2.3205094e-02
  2.4435759e-01
  1.1021663e-05
 -1.7019225e-02
 -2.5726935e-01
  6.4093995e-01
  1.7520043e-01
 -1.2200447e-01
  4.2079201e-01
 -3.2419295e-05
 -1.6065689e-05
  1.4356880e-05
  9.7816528e-06
  1.1864550e-05
 -1.0960203e-05
  3.2161737e-05
 -1.5852454e-05
  2.6926676e-02
 -4.2145592e-03
 -5.2223812e-05
  5.5017704e-06
 -6.6842447e-05
  5.7978887e-05
  1.1217584e-03
  3.6872916e-05
 -2.9982562e-04
  8.8940636e-05
 -6.6681382e-06
 -1.3566866e-05
 -3.5047543e-07
  9.6331052e-05
  2.0735110e-01
 -2.7442575e-05
 -2.5795554e-05
  6.3767297e-06
  2.1391457e-01
 -1.0199495e-04
 -1.2667963e-05
  6.7848086e-01
 -1.7757991e-02
  4.6021174e-04
 -9.9176361e-07
 -1.3954042e-05
  8.0958853e-06
 -4.6019012e-04
 -1.2877229e-05
  1.2891883e-05
 -1.9232234e-06
  2.1241345e-05
  5.9565054e-06
  2.9133595e-05
 -3.4022567e-05
 -8.7494169e-07
  7.1152922e-06
  6.3697246e-07
  5.7185555e-01
 -6.0751563e-01
  6.5873301e-01
 -8.7150687e-01
  1.9640812e-01
  6.3958421e-02
  5.1161253e-01
  3.0844638e-01
  1.6079125e-01
  1.9846275e-01
  1.3866504e-01
  6.7913629e-02
 -3.9379131e-02
 -3.0202606e-01
  9.5464379e-02
  1.0795319e-02
  8.3602428e-02
 -1.1176429e-01
  6.5097228e-02
  3.2775167e-01
 -1.2165576e-01
 -8.8326249e-04
  3.0494606e-01
 -2.2507429e-02
 -6.3656400e-05
 -5.2565180e-02
  7.5966910e-02
  1.7842303e-01
  2.3072605e-01
 -1.1560880e-01
 -1.2933388e-01
  4.1535529e-01
  9.1670230e-03
  1.7479227e-01
  2.0056378e-02
  1.0783485e-03
  2.5770913e-05
  1.6339768e-01
 -2.1408229e-01
  3.7095651e-02
  8.6416811e-02
  5.3228170e-05
  5.3784654e-02
 -4.1360192e-05
  2.9985709e-05
  1.8402399e-05
 -1.0386619e-05
  5.9712005e-07
  1.0580554e-04
  1.5047488e-05
 -1.6666982e-05
 -1.1707140e-05
 -1.3896307e-05
 -4.0785645e-04
  1.7708478e-06
  3.5501594e-06
  3.9283412e-05
 -8.5229349e-06
 -9.0113499e-05
 -5.6888941e-05
 -1.3313671e-05
 -1.3682416e-04
  1.1284246e-05
 -6.2962274e-05
 -6.1728160e-06
  2.3356906e-05
  3.1281647e-07
 -2.3020232e-06
  1.6619721e-06
  3.5517478e-06
  2.5076517e-05
 -9.3630064e-05
  4.3593118e-05
  7.2921221e-06
 -1.1974609e-05
  2.2567915e-06
  6.2397172e-05
 -1.4204614e-05
 -7.8113415e-05
  3.4203884e-05
  4.4617364e-06
  1.1785301e-06
 -5.6784371e-05
  1.9218787e-05
 -1.1220000e-05
 -3.3618777e-05
  1.0794824e-05
  6.5899976e-06
  5.6544763e-05
 -5.2428913e-05
 -1.8127137e-05
  9.7741886e-06
  6.5305353e-06
 -2.5455165e-05
  1.0384679e-04
  5.7338915e-05
 -2.9845591e-05
 -8.5403271e-06
  1.2265749e-05
  1.5810198e-05
 -1.4135708e-07
 -8.0553895e-05
 -4.2370443e-06
 -1.0605065e-06
 -1.1365835e-04
  1.3214461e-05
 -8.0902144e-05
 -3.9938532e-05
 -4.2221155e-02
  2.9217100e-01
 -1.1360170e-01
  2.4637339e+00
 -1.5948321e+00
 -3.2952674e-02
  6.2571645e-01
  1.0054877e+00
 -2.1381056e-01
 -4.7708970e-01
 -2.0403835e-01
 -2.3621291e-02
  9.7311622e-01
  5.3948648e-02
  3.1086937e-01
  2.6555476e-01
 -1.7818506e-01
  6.5049715e-02
 -2.0147870e-01
  1.2755142e-01
  4.8556853e-02
  2.6934224e-01
  6.9070891e-02
 -3.3728633e-02
  2.1335573e-01
 -2.3278563e-01
  2.5541195e-01
  1.5099099e-01
  2.6392940e-01
  6.3759781e-02
 -1.2922490e-01
  2.3902156e-05
 -6.1807055e-03
  3.4905973e-01
  1.2074788e-02
  2.4180862e-01
 -1.2181135e-01
 -1.3903786e-01
  1.5730658e+00
 -2.3163094e-01
  2.7844286e-02
 -2.3581750e-05
  3.6741138e-01
 -4.1522151e-03
  1.5900632e-05
 -5.9424408e-05
 -9.7917939e-05
 -4.9336202e-05
  1.8026697e-07
 -3.8332560e-06
  3.2708580e-05
 -8.3781639e-03
 -5.5674202e-04
 -7.7149918e-04
 -3.5321232e-04
  2.8214201e-06
 -1.4817076e-04
  1.1626067e-06
 -9.5506712e-06
 -7.1442329e-05
  2.1110842e-04
 -1.2928605e-04
 -6.3679377e-05
 -1.6686896e-05
  1.7130341e-06
 -1.0016339e-05
 -3.3039938e-05
  5.7085788e-05
  1.0719817e-06
  3.7589989e-06
  1.5590409e-05
 -2.1421316e-05
  9.2067539e-06
 -4.9990031e-05
 -4.9231494e-07
  4.9552782e-06
  8.5025258e-06
 -4.5674111e-05
  1.9155988e-05
  5.0809358e-06
  9.0119147e-07
  7.4249906e-06
 -5.4738393e-05
 -2.6748921e-06
  1.4092569e-05
  2.1385881e-06
 -2.5930587e-04
 -1.5314272e-05
  9.0799438e-07
  6.4163082e-06
 -4.2016283e-05
 -7.7500211e-08
  1.9395329e-05
  1.1628440e-05
  1.3177992e-06
 -3.3151130e-06
  3.0996831e-05
 -1.8581074e-04
  1.2984707e-06
 -1.7642109e-05
  2.1577214e-05
 -4.1722246e-06
  7.0968099e-06
 -5.0474659e-06
 -8.1737226e-06
 -3.9796691e-06
 -7.8962432e-05
 -9.0699160e-08
 -2.1766733e-01
 -2.4293622e-02
  1.7886306e-01
  2.1228358e-01
 -2.1508791e+00
 -1.1699724e-01
 -1.9480579e+00
  1.9197907e-01
 -4.5553479e-06
 -3.4245583e-01
 -3.2205388e-02
  5.2350092e-01
  2.3244500e-01
 -1.2435734e-01
 -1.1003793e-02
 -2.9022958e-05
 -3.7235940e-01
 -1.3102393e-01
  7.3006904e-01
  6.4905129e-02
  2.7113115e-02
 -1.1491396e-01
  1.0952199e-01
  4.4459284e-05
  1.2512969e-02
 -1.1256775e-01
  1.4798519e-01
 -5.5899358e-01
  8.3368190e-02
  1.8502496e-01
 -5.3714305e-01
  1.8547692e-04
 -2.1363186e-02
  1.9465102e-05
 -9.0510726e-02
 -3.0103560e-05
  8.2025545e-06
 -4.6566859e-01
  1.7008883e-01
  3.6917631e-02
 -3.6162019e-01
 -4.5525622e-02
  8.8023453e-06
 -3.4330003e-02
 -1.9113543e-06
 -2.6391001e-07
  2.2403629e-02
 -4.8906340e-06
 -2.6459849e-04
 -1.2196308e-05
  6.9511145e-07
  1.2327395e-04
  2.4059429e-05
  2.0304229e-04
  3.2906377e-05
  5.0749211e-05
 -1.0517909e-05
 -7.2847281e-05
  4.0981745e-06
  1.0423469e-04
 -4.5004507e-04
  7.7895013e-05
  3.5284880e-05
 -3.4385296e-06
  2.3039182e-05
  6.5046421e-05
  6.6093256e-05
 -2.4333422e-05
 -6.9359470e-05
  6.1905645e-05
  2.7697830e-05
 -2.9134446e-05
  1.8853304e-06
 -5.9585054e-06
  1.9475159e-05
  2.1162970e-05
  7.7693556e-05
  3.7968705e-06
  1.6515229e-05
  1.5160887e-04
 -4.6597848e-05
  4.4260469e-05
  1.3995376e-05
  1.4145608e-05
 -1.4350819e-05
 -3.2820684e-05
 -2.5315945e-05
 -1.1663412e-05
 -1.3756342e-05
 -7.2042048e-06
  5.0972826e-06
 -6.9323569e-06
  6.0777107e-05
 -1.1838463e-04
 -4.6322904e-05
 -1.0444617e-06
  1.9922836e-05
  6.4274253e-05
  5.0491549e-06
 -9.6831118e-06
  5.7478079e-05
  2.3305439e-04
  3.4565681e-05
  1.6089105e-05
  9.6450940e-06
 -2.7574431e-05
 -4.0072639e-05
 -3.4638626e-05
  3.4682878e-05
 -2.1504500e-05
  1.3627206e-05
  3.2952794e-05
  2.9046709e-05
 -7.0121125e-05
 -6.5418215e-05
 -1.4526549e-05
 -3.8688711e-05
  1.2644555e-04
 -1.3972279e-02
  9.6989432e-05
 -4.4117983e-06
 -3.6784113e-05
  4.1603239e-06
 -1.9688355e-06
  3.0371843e-06
 -2.0713149e-05
  1.3089436e-04
  1.9603649e-06
 -7.8003706e-07
 -6.6284210e-06
  7.2545358e-06
  1.3566573e-05
  5.1449846e-05
 -1.3300509e-05
 -1.5409790e-06
 -6.8505346e-05
 -4.5983625e-06
 -2.3567853e-05
 -2.6995940e-05
  1.6963540e-04
  2.7731769e-06
 -1.5329926e-05
  4.8331174e-05
  2.0327510e-05
  7.2355789e-07
  1.0947484e-04
 -1.2250391e-05
 -1.1909090e-05
 -3.3417580e-06
  1.8059087e-05
 -3.8942926e-05
  2.9862505e-05
  7.1280392e-06
 -2.3890279e-05
  4.1966091e-06
  1.0465037e-05
  3.5042456e-05
  1.0987815e-05
 -1.9553878e-05
 -6.5229178e-06
  4.8535829e-05
  4.3266871e-05
  7.5684124e-01
 -2.4044591e-01
 -1.1348716e+00
 -5.7838714e-01
  1.5778878e+00
  8.3884430e-01
  5.4099166e-01
  1.7127848e+00
  8.2126353e-06
  3.8370180e-01
 -8.0944115e-01
 -9.5729820e-02
  5.2363339e-05
  1.2766485e-01
  1.5492311e-05
 -3.3712424e-02
  9.3854434e-04
 -5.3362995e-01
  5.0613648e-01
  1.2270168e-01
 -5.7457120e-05
 -6.3132741e-02
  9.3740549e-05
  1.3071759e-05
  6.9324396e-06
 -1.7354216e-05
  3.9879989e-02
 -2.4481063e-01
 -1.0021619e-05
  2.9115328e-05
 -6.5848589e-02
  1.3712749e-01
  5.6296144e-06
 -9.4829984e-06
  9.1051601e-02
  1.8261287e-06
  1.1981565e-05
 -4.0948838e-02
 -6.2840271e-01
  4.3917242e-03
  4.7493966e-05
 -1.0894682e-05
 -2.7344191e-05
  2.4321857e-04
 -4.5079978e-05
  2.5179368e-05
  2.3223241e-05
  4.5290151e-05
 -3.4621902e-04
 -4.4476928e-05
  8.4862651e-05
  5.4930519e-05
 -1.7426992e-05
  4.4944005e-05
 -7.9433194e-05
  2.0696858e-07
  6.9386454e-07
  1.6717211e-05
  2.3973711e-01
  3.7848855e-05
  1.7832467e-01
 -1.4158605e-01
 -9.7776101e-06
  1.3708310e-05
 -9.4455077e-05
 -2.8732296e-05
 -2.4948565e-06
 -5.6507390e-05
  6.9244982e-07
 -2.1262633e-06
 -1.8748091e-04
  7.1777586e-06
  2.2127817e-05
 -1.2755045e-04
  3.3400579e-06
  2.4856961e-05
  9.2268216e-05
  3.4065142e-05
 -9.0730522e-05
  5.0899569e-05
  3.0273137e-05
 -1.9487247e-04
 -1.3952507e-04
  2.5203017e-05
 -7.7009056e-05
 -8.3073928e-06
 -3.8467697e-05
  4.6083719e-06
 -4.0190639e-03
 -5.1835967e-05
  2.5120155e-05
 -3.7860764e-06
 -3.6876267e-05
 -3.2499236e-05
 -1.3133819e-05
 -1.4334595e-05
 -2.1445916e-05
  1.3513460e-05
  1.9134797e-05
  3.5751505e-05
  6.7567385e-06
  4.2548829e-05
 -1.0181640e-05
  9.7387774e-06
  2.5841869e-06
 -1.1642526e-05
  1.7051629e-05
 -2.6534870e-05
 -7.3500234e-01
  2.8578618e-01
  3.6339745e-01
  1.0723577e+00
 -1.1547530e-01
  6.4089429e-01
 -1.7694587e-01
 -1.2206777e+00
 -4.3716129e-02
 -3.5472810e-06
  2.6777330e-01
  3.3843645e-01
  6.8353212e-01
 -1.0602607e-01
 -1.6442949e-07
 -1.4331476e-05
 -3.0756710e-06
 -2.0762144e-01
 -1.6299909e-04
 -3.4496298e-01
  4.2600222e-02
  2.2094313e-02
  2.1608078e-03
  3.4855741e-05
 -2.8821887e-06
  3.2563072e-01
  6.8069871e-06
 -5.5435054e-02
 -9.8102443e-02
  4.2660445e-01
 -1.0058196e-02
 -6.8166167e-03
 -9.1211958e-05
 -4.5967389e-02
 -2.5358027e-01
 -5.7384179e-05
  5.5988137e-05
  7.3985569e-02
  6.4920530e-02
  2.4391196e-05
 -4.4084840e-02
 -2.3259729e-05
  6.1914915e-07
  3.4866127e-04
 -3.3454104e-05
  3.7794067e-05
 -7.9922238e-06
  2.2260338e-01
 -3.2938315e-05
  6.1874605e-05
 -1.9234112e-05
  1.7259707e-05
  1.2259054e-05
  4.6851539e-05
  8.4211433e-06
 -9.4346258e-05
 -2.6530679e-06
 -1.6573986e-05
  1.2536184e-05
 -5.3973403e-05
  1.9550846e-05
  8.7303024e-06
 -4.3984628e-06
 -1.1687525e-04
 -2.0022528e-05
  9.8067276e-06
 -1.2130396e-04
 -1.9981364e-05
  1.3724361e-05
  5.1424824e-05
  3.5562232e-05
 -1.1538601e-05
 -7.6154047e-06
  5.4511922e-05
  1.1680828e-07
 -3.8021033e-05
  1.2331899e-05
  1.5336973e-05
 -3.2954849e-05
 -1.1241117e-05
 -7.4449582e-07
  3.3101725e-05
 -2.2174390e-06
 -2.2819758e-04
 -2.2330854e-05
 -5.4738255e-05
 -1.3803536e-05
 -2.1528098e-05
  4.6308692e-06
  6.5482509e-06
  7.6851618e-05
 -3.7902282e-05
  9.2881428e-06
  6.1514420e-06
 -1.0214975e-05
  6.4971100e-05
  1.4146869e-06
  1.7421389e-05
 -3.3486838e-05
  4.4241187e-05
  3.2811760e-05
 -1.1622819e-05
  2.6556059e-05
  9.5718053e-07
  4.3116751e-07
 -1.4425370e-05
 -2.4931092e-05
 -9.3105709e-06
  4.4237073e-05
  2.4123672e-04
  1.9663257e-06
  2.0012814e-05
  7.7377670e-05
  1.0788553e-04
 -2.6431861e-05
  2.5405661e-05
 -5.0577157e-05
 -5.1079176e-05
  2.1055294e-04
  9.8515766e-06
 -6.8372297e-05
  1.4583137e-05
 -1.5278915e-06
  8.7343142e-06
  2.3623579e-06
 -8.8732068e-06
  4.2940297e-05
 -2.9513521e-05
 -1.0796708e-05
 -9.5272568e-05
 -6.8214671e-05
 -2.8703731e-05
  2.8948937e-06
 -4.9641181e-05
  2.3660790e-05
  6.7602283e-05
  7.6534870e-06
 -7.4557497e-06
  4.6944406e-05
 -1.3311910e-05
 -3.2094386e-04
  1.9675552e-05
 -2.0804177e-06
  1.3423228e-05
  1.7033357e-05
  5.8383936e-05
  3.9233378e-06
  1.5368582e-04
 -9.2085029e-06
 -9.4071274e-06
 -4.0806358e-06
  6.6036206e-05
 -5.1982079e-05
  1.8826437e-06
 -5.2360963e-05
  2.1338469e-04
  1.3937140e-05
 -2.1925170e-04
  3.8602830e-05
 -8.1810748e-07
 -1.8618313e-06
  7.7975899e-05
  1.0063838e-04
  5.3924952e-05
 -2.1354584e-01
  1.5701737e-01
 -2.3182689e-01
 -2.7411574e-02
  9.5183796e-06
  3.7278585e-02
  4.5497745e-06
  1.7907210e-05
  1.1462665e-01
 -9.4155297e-02
 -6.4442132e-04
  3.9268110e-04
 -2.2403698e-05
  5.3633235e-02
  3.3529550e-01
  2.1221038e-02
 -1.1578423e-01
  1.9641363e-03
 -3.7602146e-04
 -2.8456456e-03
 -8.2677805e-05
 -2.1573588e-04
 -1.4858603e-05
 -4.4292674e-04
  5.4717810e-05
  2.9776303e-02
  5.9132730e-03
 -3.1257227e-02
  2.8230596e-04
  6.9728383e-04
 -8.7585940e-06
  4.5508336e-02
 -1.2694994e-01
 -6.2630138e-06
 -2.8231460e-05
  1.0976043e-02
 -4.2057341e-05
 -4.0256582e-02
 -9.4592078e-06
 -7.3586639e-06
  1.4382878e-05
 -7.6733896e-04
  5.2024145e-05
 -7.5794237e-06
 -1.0167394e-05
 -1.7194056e-05
  2.7524295e-05
  6.8205622e-06
 -2.6701424e-05
  3.5133235e-05
 -2.4360270e-05
  2.6383854e-05
 -3.2114419e-01
  1.6903657e-01
 -5.6945652e-01
 -3.8647506e-01
  2.1425824e-01
  4.7541794e-01
 -3.8798813e-02
  2.0864119e-01
  5.5501089e-02
 -2.2577921e-02
  1.7688686e-01
 -2.6409274e-01
 -1.8122421e-01
  7.0771612e-02
  1.6294137e-01
  2.1418324e-01
  2.2598560e-01
 -1.4218000e-01
  1.5985247e-01
 -1.1406188e-01
  6.8380445e-02
 -8.2201824e-02
  1.9372387e-01
 -9.1299646e-02
  4.0650108e-01
  3.4360850e-01
  6.3485978e-03
 -5.8102001e-02
  3.7860073e-02
 -7.7611499e-02
 -6.2253322e-02
  2.1281387e-01
  8.8698842e-02
  1.1421505e-01
  1.8634636e-02
  2.9253183e-02
 -1.6917265e-05
  1.6128629e-02
 -2.2326519e-01
  6.5889232e-02
  4.9512982e-01
  1.9234285e-05
  1.7191373e-01
  4.0472019e-03
  2.0745755e-04
 -4.6929673e-04
 -8.2070306e-05
 -9.7409360e-02
  5.9386615e-02
 -2.0338893e-02
 -5.2915863e-04
 -1.0886192e-01
 -3.8225662e-03
 -9.6353926e-02
 -3.5748118e-07
 -5.8990747e-05
  2.2611400e-01
  6.6975213e-06
  1.0101414e-01
 -4.3123051e-05
  2.2358716e-05
 -1.6336779e-01
  9.1653274e-05
  4.6113139e-05
 -2.8411758e-01
  3.6127101e-06
  3.6696376e-05
  6.8186182e-06
 -3.2632531e-06
 -2.6358355e-06
  5.0297003e-05
  6.1847304e-06
  3.4990073e-05
 -5.9750687e-06
 -4.2269794e-06
  8.5147338e-05
 -3.4588837e-05
  1.1331672e-04
  3.6215715e-06
  3.9006205e-04
 -5.2173209e-06
  2.3911446e-06
 -2.5427446e-01
 -3.8307430e-06
 -2.0157220e-05
 -2.7521186e-05
 -5.4496300e-05
 -9.2948059e-05
 -5.4504713e-03
  7.8774327e-05
 -1.4516850e-06
 -3.7557763e-01
 -1.8612632e-04
  4.6865083e-05
 -3.8854530e-05
 -8.6216151e-06
 -3.8619539e-05
  1.6676177e-05
  1.2261349e-05
  3.8877274e-06
  2.7009210e-05
  8.2574425e-06
  3.5925484e-06
 -4.9638365e-05
  3.0234842e-05
 -5.1281918e-06
  1.6072960e-06
 -2.1104717e-05
  7.9744941e-06
 -3.0246030e-05
 -1.9465075e-05
  1.1098571e-04
 -1.0581210e-04
 -1.7200879e-05
  3.4259417e-04
 -1.3980953e-04
 -3.8452876e-05
 -3.9082181e-05
 -2.1947162e-05
 -1.6364580e-05
  1.0212721e-05
  1.9751627e-05
  1.0739924e-06
 -6.0098326e-05
  3.3993761e-05
 -6.1897677e-05
  3.6120127e-05
  1.1179714e-07
 -1.0010850e-04
 -2.8048571e-05
 -8.7943794e-05
 -2.0934202e-05
  3.5277326e-06
 -4.4640151e-07
 -2.0388003e-05
  5.8766673e-06
  4.7850408e-05
 -4.7634145e-05
 -8.6875016e-06
  5.9211534e-06
  2.2875025e-05
  4.0629289e-05
 -2.3920061e-06
  2.2076021e-05
 -2.6381310e-06
  5.1341678e-05
 -7.8721687e-06
 -3.3008400e-05
 -4.8832862e-05
 -2.9585073e-05
  1.7498203e-05
  3.1728556e-05
 -1.9777492e-05
  9.3836825e-06
  1.0844362e-05
  3.3327709e-05
  6.6067376e-05
  1.0128424e-05
  2.3330338e-05
 -1.9222500e-06
  5.2058702e-05
  1.5756270e-04
  6.8195891e-01
  8.0223006e-01
  1.8749191e-01
  1.4332488e+00
 -4.6433252e-01
 -7.6195556e-01
 -3.9060134e-01
 -1.5741034e-01
  1.8822766e-05
 -5.0352860e-06
 -8.4176101e-02
  1.8805223e-02
  1.9614171e-04
 -1.0967922e-04
 -4.7288657e-05
 -6.0714949e-05
 -1.1173709e-01
  2.3783052e-02
 -2.0776313e-05
 -1.1477125e-02
 -6.0095001e-05
  7.9239055e-04
  1.4222995e-02
  1.2051605e-05
  3.8442263e-04
  1.1840669e-02
 -3.2616954e-05
  2.3513754e-05
  3.3347797e-02
  4.7896981e-02
  4.4542280e-04
 -1.0788737e-04
 -2.3248965e-02
 -7.9260625e-02
 -1.1902811e-02
 -5.1657036e-05
 -6.2960462e-06
 -5.5142558e-01
  6.0487348e-01
  1.9642203e-01
 -3.9186273e-02
 -3.4564418e-06
  8.9243867e-06
  4.7123765e-05
  1.5162052e-05
  9.8471523e-05
  3.4362802e-05
  2.5516420e-05
 -2.9342915e-05
 -2.1337266e-05
  3.8979728e-05
  2.7515553e-05
  1.2229128e-04
 -1.8158600e-05
 -1.4354807e-01
  6.4307682e-02
  1.2655277e+00
  2.2053868e-02
 -9.8226708e-01
  4.4360641e-01
 -1.6233535e+00
 -1.3019061e+00
  1.0014025e-05
 -4.5116656e-02
 -8.5356712e-02
  2.7004333e-04
  1.1384210e-01
 -3.8279824e-05
  2.0041194e-05
  9.8799283e-05
 -9.6102867e-06
  4.5699446e-04
  7.1954719e-06
  4.6867323e-01
  4.1226681e-06
  1.7316856e-05
 -1.6117747e-05
  4.8676466e-05
  8.1867756e-07
 -1.6804266e-03
  1.1327950e-05
 -4.8021371e-05
  8.4279047e-05
  3.1045874e-05
  2.4782569e-04
 -3.9106242e-05
  2.6241109e-06
 -9.0320120e-03
  1.4852434e-05
  1.3433255e-05
 -5.8407491e-05
 -6.6172399e-02
 -1.1208495e-01
  1.0906779e-01
 -8.6440131e-02
 -3.1910695e-05
 -2.8125853e-05
  1.7900469e-05
  1.7985001e-05
 -6.5635970e-07
  2.3071618e-06
 -1.6707415e-04
 -1.9434725e-05
  2.2831675e-05
  4.6616697e-05
 -5.5165847e-06
  1.3117305e-05
 -7.2193347e-06
  5.0603372e-01
 -2.2228844e-05
 -3.5439983e-02
 -5.0252855e-02
  2.0537923e-01
 -3.3806045e-02
  2.0191122e-02
  1.1201040e-01
  5.1325307e-05
  1.0581062e-06
  8.4022872e-02
 -1.0296233e-01
 -2.0460633e-03
  4.0379679e-03
  3.5347599e-03
  6.4071514e-02
  1.4551663e-02
  1.8431395e-03
 -3.3952092e-05
 -1.0473621e-01
 -9.8086618e-02
 -8.8134408e-03
 -6.5560766e-02
 -7.7910133e-02
  1.7554397e-02
 -9.2985359e-04
  6.2238774e-05
  1.3318184e-01
  5.6476701e-02
 -9.8811015e-02
  2.8671380e-03
  1.5781638e-04
  8.4024779e-03
  6.2470842e-02
  2.0677462e-02
  5.2216470e-02
  1.9378534e-05
  4.6157469e-03
 -2.4334574e-02
 -3.5363516e-01
  2.8483806e-02
 -1.0123374e-05
  2.8179567e-05
 -5.6419052e-02
  5.8905557e-06
  8.1169273e-06
 -3.1719577e-05
 -2.3787599e-03
  4.7211288e-06
  4.2807383e-06
 -2.7906324e-04
 -3.0018420e-05
 -2.7140294e-04
 -3.8260099e-04
  6.5383983e-06
  8.6671062e-05
  1.1278681e-05
  7.0808564e-05
  8.6466978e-05
 -1.2282641e-05
 -1.3848748e-04
  5.0232058e-05
  2.0929780e-05
 -9.9880221e-05
 -1.3439846e-05
 -7.7584255e-06
 -7.1558898e-06
  3.0354555e-05
  3.6912152e-05
  1.1265984e-05
  2.1153377e-05
  3.9820864e-07
 -9.6521391e-05
 -2.8037359e-05
  2.7547840e-06
  1.2623168e-05
  1.2018530e-04
 -3.2818731e-05
  4.7063211e-05
  4.1009254e-05
 -1.2343898e-05
 -8.4307967e-06
  1.3798030e-05
  2.1936241e-05
 -3.8663184e-06
  1.6486045e-05
  2.9144150e-05
  4.3337368e-06
  1.3877284e-05
 -3.4116081e-05
 -1.8228768e-05
  1.2545162e-04
 -1.3779521e-04
  7.6390672e-05
  2.0975272e-05
 -2.7804396e-07
  2.6292391e-05
  5.2849973e-05
 -1.1355251e-05
 -1.1659108e-06
  3.4808336e-06
 -6.5380805e-06
 -2.0396086e-05
  1.4439812e-05
 -1.5358892e-05
  5.7737940e-05
 -3.1612303e-06
 -4.8702741e-06
  3.4822317e-06
  4.2818228e-06
 -1.1517097e-04
 -1.3607980e-05
  1.0524370e-05
  2.5977060e-05
 -1.4395418e-05
  1.5036545e-05
  1.0933553e-04
  1.7996357e-05
  2.4220953e-05
 -6.6831424e-05
 -2.0897871e-06
  5.5753615e-05
  3.2178472e-05
  1.1730883e-05
  1.3620012e-04
 -3.0642525e-06
  4.5694737e-06
  1.5005384e-05
  8.9457344e-06
 -1.0317656e-05
 -1.0350441e-05
  6.9055764e-06
 -1.7935274e-05
 -3.4705867e-05
  1.0796964e-04
 -3.0771564e-05
  1.0096849e-05
  8.5424790e-06
  3.3654138e-05
  7.3521114e-06
  1.8491493e-05
  4.0755847e-05
  1.2036512e-05
 -1.8486747e-06
  1.1425913e-05
 -4.5008364e-05
  1.7980881e-05
  5.3312697e-06
 -2.5447882e-05
 -3.4807329e-06
 -1.2756340e-05
 -8.7479139e-06
  1.3130689e-05
 -1.7966144e-06
 -1.8202714e-05
 -3.8432128e-05
  3.1051437e-05
 -8.9625210e-05
 -6.8988353e-05
 -3.2923272e-05
 -1.0429165e-05
  8.4671256e-06
  2.6522306e-04
 -4.1219409e-05
  2.3901326e-04
  1.2745034e-05
  3.3470016e-05
  9.3601135e-05
  2.1801767e-04
  1.9017918e-04
  2.7828206e-05
 -1.8039505e-05
 -3.3161463e-04
  1.9305373e-05
  9.2726768e-06
 -1.2514413e-06
 -9.7096727e-06
  3.3393101e-06
 -1.1705169e-05
 -4.2621659e-06
  1.0782156e-05
  2.6827884e-05
  8.6561495e-06
 -1.2746342e-05
  1.2126070e-04
 -2.6119409e-05
  1.7412887e-06
 -1.0131096e-05
  3.8690414e-05
  3.8102808e-06
  2.1077127e-05
 -1.9422256e-05
  5.8345293e-08
 -1.2116725e-05
 -3.3363114e-05
 -1.6495791e-04
  3.1798969e-05
  3.6308851e-05
  1.3383785e-05
 -4.7336725e-06
  4.9633465e-05
 -1.9663343e-05
 -5.2123487e-06
 -1.4451865e-04
 -1.8041545e-05
 -4.2845745e-06
  8.0725142e-05
  3.7832662e-05
  7.9682264e-05
 -2.6551921e-05
 -5.0151230e-06
 -4.9254875e-05
 -2.1200003e-05
 -5.1953029e-06
  1.2901749e-05
  1.4046060e-04
 -4.0890591e-05
 -1.1030745e-04
  4.7260710e-07
  6.0351283e-07
 -3.8897539e-05
  1.0164842e-01
  8.1777427e-05
  4.0382354e-05
  1.5644762e-05
 -3.9708346e-05
  6.4587684e-06
 -6.8162312e-06
 -9.8988872e-05
 -6.1732419e-05
  5.4781490e-06
  3.8635112e-06
 -1.8550981e-04
  2.1622378e-05
 -1.5513491e-06
  5.3638603e-05
 -1.6001022e-05
 -1.2694482e-05
  2.5674433e-05
  9.1542697e-06
 -2.2655943e-06
  3.0049274e-05
 -1.6323395e-06
 -1.0314946e-05
  7.5145086e-05
 -8.4239700e-06
 -3.7292768e-05
 -1.8190460e-05
 -1.5732247e-05
 -2.6678643e-05
  5.3387575e-06
  3.3529263e-06
  2.5800278e-05
  7.0198053e-05
  5.9203488e-05
  2.9230852e-05
 -2.8561277e-05
 -2.1538112e-06
  1.5601152e-05
  4.6993860e-05
 -3.0263176e-05
  3.6108442e-05
  1.1718211e-05
 -2.2349561e-06
 -1.2382486e-05
 -1.0949485e-05
  6.4267319e-05
  7.8734784e-06
  8.3628838e-05
  5.4786375e-05
 -8.7327746e-05
  2.7583432e-05
 -5.6994832e-05
  2.3241822e-05
  3.8853250e-05
 -7.9403453e-06
 -1.1618821e-05
 -2.3617784e-05
  3.1029791e-05
 -1.4763808e-05
  1.4001313e-05
  2.8734956e-05
  3.1133206e-06
 -1.5697278e-05
 -6.2160521e-05
  9.9264244e-06
  1.9083085e-05
  1.0528812e-06
 -2.4084608e-05
 -1.3540008e-05
  1.6762131e-05
 -5.0781280e-05
 -3.8994690e-06
 -2.3870534e-05
 -1.0824200e-05
 -3.3849563e-05
  3.0655854e-05
  3.5351990e-05
  2.4527348e-05
  3.2938296e-06
 -1.9138230e-05
 -2.0510493e-06
 -9.9776764e-05
  1.4325700e-04
 -1.3706762e-05
  2.1587619e-05
 -1.0217161e-05
  1.3390054e-06
  3.1941240e-06
 -4.6046924e-05
 -9.1870120e-08
  9.9472427e-06
  4.8696576e-05
 -1.7076860e-05
 -1.5792850e-05
 -3.1021642e-05
  9.1198280e-07
 -1.1729309e-05
  1.3008069e-05
  3.0487139e-05
 -2.3112301e-05
 -8.2834362e-05
  2.6992246e-05
 -2.8711478e-05
 -2.9784263e-05
 -1.3799548e-05
  4.1506632e-05
  1.2935147e-06
 -4.8933880e-06
 -2.3935614e-05
  9.5153200e-06
  1.5655980e-05
 -4.6985442e-05
 -1.2526998e-06
 -1.2443153e-05
  2.5013862e-05
  6.3395542e-05
 -3.1179396e-05
 -2.2638736e-05
 -1.4176309e-05
 -3.4075332e-05
  4.2536731e-06
  2.4821469e-05
 -5.5281449e-05
  1.1109918e-05
  1.0286337e-04
  3.5348370e-05
 -2.0718560e-06
  3.1232907e-05
  2.7945354e-05
  1.4504365e-06
 -6.8330330e-05
 -5.0649363e-05
  7.4537279e-06
 -6.6167327e-06
 -9.6356365e-05
  6.3777934e-06
 -5.6758323e-05
 -6.1709492e-04
  8.8146498e-06
  3.6498415e-05
  3.8404381e-05
  1.6638105e-05
  3.2084878e-04
 -3.7825529e-07
 -1.7874387e-05
 -2.9857617e-06
  4.1590898e-05
  1.7332461e-05
 -5.9081544e-06
  9.7878046e-06
  1.2913062e-05
  1.7683014e-06
 -1.4049328e-05
  7.0472947e-06
  3.9625316e-05
 -1.1114023e-05
 -1.1571480e-05
  8.4942531e-06
  4.0210914e-02
 -3.7624082e-05
 -3.9540693e-02
  4.3843318e-02
  7.8684211e-01
  9.8707540e-05
  6.0310525e-01
  2.4932961e-04
 -1.1162138e+00
 -1.3262703e-05
 -3.4814988e-05
  2.3793270e-01
  8.1684673e-05
 -1.1525662e-05
  7.0618808e-05
 -4.8996626e-05
 -2.0162195e-05
  6.0053915e-01
  1.7248096e-06
  2.8235177e-04
 -6.6641219e-02
  1.3091440e-02
  5.4769754e-02
 -1.7236885e-04
 -9.0741861e-07
 -2.1554340e-04
  8.4943822e-06
  3.8051810e-05
  4.0856645e-05
 -1.4757110e-05
 -2.4458389e-01
  6.8759422e-05
 -8.4325832e-01
 -6.8913186e-01
  4.9322760e-01
 -1.1696737e-04
  1.0514849e+00
 -1.7698578e-04
 -1.0012738e+00
 -4.0284809e-04
  8.4880805e-05
 -3.6516666e-01
 -1.1100493e-01
 -2.7721220e-01
  1.1704177e-05
  2.3654290e-04
  2.7081791e-01
  1.1223383e+00
 -1.2247540e-01
 -1.5514773e-04
 -2.9674086e-01
 -3.1139943e-01
  5.7158875e-01
  3.4942650e-03
  8.2358427e-02
  2.1840323e-04
  1.5531683e-06
  1.2859941e-02
 -8.7604284e-02
  3.5939604e-05
 -3.5640027e-05
  1.2513183e-06
 -1.2227146e-06
 -1.2973870e-05
  5.1680512e-05
  1.8524614e-05
  3.0635758e-07
  2.5612473e-05
 -5.1943907e-06
  5.1882875e-05
 -1.0315997e-06
  6.0833024e-08
 -2.1695562e-06
 -8.0656682e-06
 -1.7036178e-06
  3.2941618e-05
 -1.6440375e-05
 -1.5909764e-05
  4.6080662e-05
  3.3142209e-05
 -1.1276399e-05
 -1.5585392e-05
  1.2054960e-05
 -2.1971537e-05
 -3.7602578e-07
 -3.9138078e-05
 -2.6660293e-05
  3.7964550e-05
 -2.1253427e-05
  3.7348247e-05
 -1.8575651e-05
  3.6244503e-05
  1.1306905e-05
  2.3046428e-05
  4.2815525e-05
 -4.0670744e-05
 -8.6651045e-05
 -2.6047396e-06
 -8.3642053e-06
 -1.5008571e-07
 -2.9072309e-05
  2.3093613e-05
 -8.1689532e-06
  5.6990557e-06
 -2.3818198e-05
  2.3017588e-05
  1.3291262e-05
 -1.3935723e-06
  2.3535325e-05
 -3.2733398e-05
 -2.4291840e-06
 -9.1263018e-06
 -2.0265843e-05
  6.0839953e-05
  3.5134421e-05
 -1.7940176e-05
 -5.9714566e-06
  2.4438073e-06
  1.2453586e-05
 -2.4926208e-05
 -2.1666307e-05
  6.2997671e-05
 -1.1952498e-05
 -1.4749405e-05
  1.0782253e-05
  8.2333872e-06
 -3.9141236e-05
 -1.9929148e-05
  1.2336820e-05
  7.9474892e-05
  8.0327773e-06
  2.0224432e-05
 -6.2662752e-06
 -3.8897309e-05
 -1.1584973e-05
  3.1211330e-05
 -9.1494738e-05
 -8.1591661e-06
 -1.0992465e-05
 -2.4118301e-05
  1.1073404e-05
  6.7055269e-05
  1.9507069e-04
  7.6478245e-06
  2.9819297e-05
 -1.7902537e-05
  3.3290969e-05
  5.3085369e-05
 -5.4110791e-05
 -1.6627631e-05
  1.4522797e-05
  2.2276217e-05
 -5.5874066e-06
 -2.7943910e-05
  3.6209292e-07
  2.7240329e-05
 -7.5070246e-05
 -3.1045558e-05
 -2.8285303e-05
  5.0604616e-05
 -5.9460050e-05
  4.1556912e-05
  8.1068938e-05
  3.2150527e-04
  6.3574524e-05
 -1.1844420e-06
 -7.3703764e-06
 -9.0718822e-05
 -4.2111351e-05
 -4.0484316e-05
  5.4817727e-05
 -3.2350019e-04
 -3.8382612e-05
  6.7751598e-06
 -9.1100410e-05
 -4.6690197e-06
  7.4838126e-06
 -1.8891249e-05
  1.1399415e-04
  5.5945984e-06
  4.1077335e-05
  2.4764697e-05
 -1.0732560e-05
 -2.8112632e-05
 -4.2060465e-06
 -2.3160141e-05
  1.8094504e-05
  2.9549476e-05
  3.0899573e-05
 -1.1630081e-05
  4.6628538e-05
 -6.6075838e-05
 -6.4011861e-06
  3.0635179e-05
  1.5363463e-05
 -2.7230160e-05
  6.1488295e-06
 -4.4506342e-05
  3.4250701e-05
  2.1308260e-05
 -1.2554618e-05
  9.8191493e-05
  1.2903428e-04
 -1.9775340e-05
  2.6536871e-05
 -1.5553733e-05
  4.9466082e-05
 -3.7932743e-05
  1.8333831e-05
 -5.8594109e-05
  1.7800914e-05
  1.1627570e-04
  1.8936806e-05
 -1.1204856e-05
  1.8339728e-05
  3.2317705e-06
 -7.4859636e-06
 -9.0802396e-06
 -1.9285551e-05
 -1.0460517e-04
  2.0400932e-05
 -1.7148326e-05
 -2.1733760e-05
  1.8943060e-04
  1.3133264e-05
 -1.7442178e-05
  1.5489572e-05
  6.9074731e-06
  8.4912599e-06
 -8.1313374e-05
 -5.3911674e-05
  5.3579457e-05
  1.1282018e-04
  1.7307038e-05
 -1.3781680e-05
 -3.9356324e-05
 -8.7934359e-06
 -5.5966971e-06
  3.4615776e-05
  3.5531135e-05
  6.6825596e-06
  3.6407648e-05
 -2.7851536e-05
  3.5377845e-05
  8.2477463e-06
 -9.4517181e-06
  5.2878411e-05
  1.6552345e-05
  5.4093643e-06
 -9.9559993e-06
 -1.1257795e-05
 -2.0011573e-06
  2.3453467e-05
 -3.8103331e-06
 -1.7546727e-05
 -1.4732117e-04
  8.9259299e-07
  3.8643062e-05
 -2.6842197e-05
  9.3284998e-06
 -4.0928237e-05
 -4.3735876e-05
 -1.1859855e-04
 -2.6154854e-05
  2.4845418e-05
  2.1043013e-05
  7.9592923e-05
  2.7973230e-05
 -1.6534115e-05
  2.4601568e-05
 -1.5138703e-06
 -7.0399246e-06
  2.1946173e-06
  3.2741273e-06
 -1.3288478e-05
  1.4819432e-04
  4.0498238e-05
 -4.7719375e-05
  1.5928905e-02
 -7.5102180e-06
 -4.9520586e-06
  3.2752243e-05
 -2.9418015e-05
 -1.2649544e-05
  5.0046124e-02
 -1.0569615e-03
  2.3341629e-06
  4.3887596e-04
  5.8173526e-05
  7.1104070e-05
  2.4104209e-01
 -4.2183075e-02
  2.2017200e-02
  4.7332351e-03
 -1.5042456e-05
 -7.1172835e-05
 -2.0838837e-05
  3.0903183e-02
 -4.7434787e-05
 -2.5202525e-01
 -5.8244750e-05
 -9.6017620e-06
 -1.1146881e-04
  1.0408572e-05
 -3.4339340e-05
 -5.1975756e-05
  2.0401826e-02
 -3.9872415e-05
  1.0442913e-01
 -9.1285408e-02
 -1.6649796e-05
 -2.5212354e-05
  2.5427615e-05
 -3.3504082e-06
 -5.5488210e-05
  1.1409319e-02
 -2.6817675e-05
  2.4374931e-03
  1.8936847e-05
  1.2157067e-05
 -4.8787037e-06
 -5.0628714e-06
  8.0233847e-05
 -4.6047113e-05
  2.4737896e-05
 -3.0217225e-06
 -2.9273660e-05
 -1.3942383e-06
 -3.6961446e-06
  1.1221574e-04
 -1.0031244e-05
 -7.2254129e-06
  4.4880617e-06
 -1.2112907e-05
  7.3985080e-05
 -5.7455771e-05
  1.7492937e-05
 -1.2156916e-06
  1.6633347e-02
 -3.8291065e-03
 -1.4528905e-05
 -2.1898511e-05
  9.5558389e-06
  1.9034307e-05
 -3.6483280e-02
 -3.5797119e-02
  1.8412708e-03
  1.8839279e-05
  1.6109034e-05
 -1.0006870e-04
  2.3839813e-04
  6.4511262e-02
 -4.6629630e-06
 -4.1675329e-02
  5.9042206e-05
 -1.7555165e-05
 -9.1073280e-06
 -4.1617204e-05
 -1.1468998e-05
  2.8342420e-06
  1.2669079e-03
 -1.8368088e-05
  1.5162969e-01
 -4.5502740e-03
 -1.4562982e-05
  2.5037602e-05
  8.6142456e-05
  1.7109387e-05
  1.0284621e-05
  3.7004727e-05
 -9.3184812e-05
  2.1804374e-01
 -1.8080449e-05
 -2.8803042e-05
  1.2859161e-05
  6.2843428e-06
 -3.4746288e-05
 -1.5829870e-05
 -5.7251593e-05
  2.5145071e-06
  9.9180477e-05
  1.1310552e-06
  4.1552644e-06
 -6.1785388e-05
  4.9784427e-05
 -6.5134307e-05
 -2.9918318e-05
  9.8713841e-05
 -4.5716553e-07
 -3.4401139e-05
 -7.8179575e-05
  1.9639276e-05
 -1.9650129e-04
 -1.3299956e-05
  2.1853637e-07
 -7.8478079e-05
 -1.8794121e-06
 -7.4861324e-05
 -1.1667986e-02
  4.1020223e-05
 -3.5451922e-05
 -1.5744222e-06
  9.0581059e-05
 -1.9130885e-05
 -2.2794706e-05
 -7.2979574e-06
 -2.3027840e-05
  6.3858025e-02
  2.2044065e-05
 -4.4763042e-06
 -1.0444052e-04
  9.5208561e-06
  4.3542441e-05
  4.6039895e-05
  5.2772531e-05
  3.3664361e-05
 -3.9359849e-05
  6.2717195e-03
 -3.3970296e-06
  1.2269522e-04
  2.7861701e-05
 -6.2090105e-05
  1.3722654e-05
 -1.1182413e-05
 -6.6366323e-05
  2.8276838e-07
  5.2638399e-05
  9.7824532e-06
  6.3208072e-06
 -1.3020795e-05
  1.0621984e-04
  1.4236150e-05
  5.0995973e-06
 -6.6883644e-08
 -4.6321265e-06
 -4.1155414e-05
 -3.0525633e-05
  1.2106361e-05
  4.0343279e-05
 -6.1407780e-05
 -2.3865046e-02
  3.6470740e-06
 -1.9738929e-05
  4.6519413e-05
 -1.1906214e-05
 -2.0905853e-05
 -5.8373244e-04
  2.1844446e-05
  2.4587978e-05
  3.3091270e-05
 -4.8520910e-06
 -1.3666811e-05
 -2.2690845e-01
  1.1598913e-02
 -5.3633656e-03
 -9.5609023e-05
  5.7831389e-06
 -1.3811183e-05
 -5.1915307e-05
 -1.2516014e-02
 -2.4220795e-05
  4.2153843e-02
 -1.4877885e-05
 -1.1393897e-05
  5.3646487e-05
 -2.6721204e-05
 -1.1743006e-05
  9.3012386e-06
 -4.0555771e-02
 -5.2886044e-05
  1.1340885e-01
  6.4653056e-03
  2.3415741e-05
 -7.3965501e-05
  1.5853857e-05
 -2.1425687e-05
 -2.3766021e-05
 -2.6390020e-05
  1.9881772e-05
 -2.0377584e-04
  1.2701000e-05
  1.4807336e-04
  1.6626947e-05
  2.0607005e-05
 -2.6066095e-06
  1.7894524e-06
 -1.6838791e-05
  1.3120243e-05
  9.1039783e-06
  1.8437700e-06
  3.6427493e-05
  1.5184038e-05
  5.7728344e-06
 -1.6591552e-05
 -9.9686375e-05
 -8.1784210e-06
  1.5019808e-05
  9.5554833e-06
 -7.2636099e-06
  3.7281457e-05
 -1.2271630e-05
 -1.4662193e-06
  4.0527248e-06
 -2.1408372e-05
  9.4318775e-06
 -1.7290453e-05
 -3.8800768e-05
 -1.8666464e-05
  9.5395935e-06
 -8.4844360e-05
  2.0207994e-05
  1.5195732e-05
  9.6998765e-06
 -1.7249168e-04
  6.5011081e-05
  8.9442932e-05
  3.8990556e-06
 -2.3974335e-05
  1.2982691e-05
  1.7161965e-05
  4.5210827e-06
  5.0983061e-07
  2.1193435e-05
  3.5089601e-05
  1.8504010e-05
  1.4284639e-04
  1.4580276e-05
 -1.6751073e-05
  1.8216466e-05
  5.0001181e-05
 -1.4038031e-05
  3.6962520e-05
  1.9200594e-04
  5.8174206e-05
 -4.0908660e-07
 -1.5960610e-05
  1.0223458e-05
 -1.3779711e-05
  2.4634424e-05
  4.6582096e-05
  1.2131470e-05
 -9.7200100e-06
 -4.3033066e-05
 -2.7623739e-06
 -2.6473770e-06
 -1.3371050e-05
 -9.6061267e-06
  6.3595944e-05
  1.1617951e-05
  1.1875696e-05
 -3.2669602e-06
 -1.2930806e-05
  7.7147080e-05
 -8.3841660e-05
 -1.5445468e-05
 -1.1438191e-05
  1.3136382e-05
 -7.8221638e-06
 -1.1828912e-05
 -4.8285041e-05
  1.0103552e-05
  4.0688006e-05
  4.2237923e-05
 -1.0468315e-04
  4.6955476e-05
  2.1901431e-05
 -3.5504877e-06
  2.4636307e-05
 -2.1139527e-05
 -8.1227345e-06
 -5.3040832e-05
  1.8203444e-05
 -4.1340736e-05
 -7.9031277e-05
 -1.5739521e-05
  9.4023198e-06
  4.4978791e-05
 -4.3374261e-05
 -1.2999310e-05
  2.2490365e-05
  2.2296341e-05
 -1.0596929e-05
  1.4563870e-05
  2.8143638e-06
 -5.4680550e-06
 -3.4224195e-06
 -2.3293799e-06
 -2.1923908e-05
 -3.8545721e-05
 -3.5691714e-06
 -1.1928904e-05
 -4.4566175e-05
  6.5656292e-05
 -3.6273671e-06
  7.1447125e-06
  2.0380170e-05
 -5.6058063e-05
 -2.1715508e-05
 -4.7048310e-05
 -3.6985835e-05
  6.2121665e-01
 -6.4657877e-07
  1.5445694e-01
 -1.0831884e+00
  8.4730973e-06
 -2.9527017e-01
  1.0507491e-05
 -4.5962297e-05
  1.1041844e+00
 -1.4176879e-02
 -7.5190212e-03
  3.0129893e-02
 -1.0780656e-01
  6.9089842e-01
  2.5451532e-01
 -6.2202233e-01
  7.5863250e-02
  6.0432065e-01
 -2.4693388e-02
  6.9172347e-06
  6.5177582e-02
  1.6256629e-01
 -1.1749608e-04
  1.9053228e-01
 -7.0168726e-02
  1.5609863e-04
  1.4647365e-01
  5.7677824e-02
  3.1623290e-06
 -1.9146817e-05
  2.1194953e-01
  3.3407029e-02
  6.1698012e-02
  4.3103326e-02
 -4.0143909e-04
 -1.7725596e-01
  1.9819895e-06
  8.0154277e-05
 -5.5368141e-06
  1.0266148e+00
 -3.3583667e-05
 -8.2587525e-02
 -2.3561211e-03
 -1.7677965e-05
 -1.1506720e-05
 -1.7762738e-06
  9.3281415e-07
 -5.0736828e-05
 -1.2855630e-05
 -1.1443010e-04
  6.2970668e-02
 -2.8879449e-05
 -1.1972322e-05
 -7.7961786e-06
  4.8157359e-05
  2.1626365e-05
  4.1130693e-06
 -2.2502207e-05
 -2.6331683e-05
  7.9393858e-06
  1.4172934e-05
  2.0772110e-05
  6.3459961e-06
  3.6024758e-06
  3.9716462e-05
  2.2262377e-05
 -1.7161899e-05
 -4.8409278e-05
 -3.1933846e-06
  1.5487736e-04
 -2.0345429e-05
  2.1683150e-05
  9.2749644e-05
 -3.2063899e-06
  4.6119331e-07
 -1.2332163e-05
  3.1950658e-05
 -2.4193764e-06
  6.1449442e-05
 -1.2444234e-05
 -1.9349516e-05
  1.0292842e-05
 -2.9883273e-05
  4.3306736e-05
  1.5999982e-05
 -2.2452883e-05
 -1.1651712e-06
  6.1171286e-06
  5.0748690e-06
 -5.2977142e-05
  4.1882206e-05
 -2.3451314e-07
 -3.3748167e-06
 -1.2267055e-05
 -4.5719567e-06
 -1.1099911e-04
  1.7240753e-05
  1.2030593e-05
 -3.3686352e-05
 -4.8265632e-05
  9.4125662e-06
 -5.5067535e-06
 -1.4336798e-05
  8.0007039e-06
 -1.1243957e-05
  1.8403649e-06
  4.8029964e-05
 -1.6425509e-05
  1.0284198e-04
 -1.6682308e-05
 -2.8068655e-05
 -1.3164326e-05
  1.3211537e-04
  8.6946766e-06
  4.0301577e-05
  2.7060722e-05
 -5.3747889e-02
  1.8601795e-04
  1.2598569e-05
 -2.5388654e-05
 -4.4936230e-03
 -1.7221812e-05
 -1.2279647e-02
  1.1799048e-02
 -6.7307250e-05
 -3.0078410e-05
  5.6917132e-05
 -1.0933823e-05
 -4.9500020e-05
 -1.7792260e-04
  2.4876457e-05
  1.2003862e-01
 -8.7987992e-06
  3.4999215e-05
  5.3933105e-05
 -1.8813451e-05
  6.5299819e-06
 -9.6750482e-06
  1.8010146e-06
  3.0708850e-06
 -8.0333322e-02
  4.8483354e-05
  6.0658414e-05
  3.9213624e-05
  2.7843937e-06
  2.9742851e-05
  5.3412764e-06
 -1.6407266e-05
  1.3259034e-05
 -1.6801031e-02
 -4.5018667e-05
 -4.9639701e-05
  1.5670959e-05
  4.9119200e-05
 -7.8190069e-06
  3.8011785e-05
  1.8454721e-05
  7.9141819e-06
  3.7755388e-05
  5.8385222e-06
  1.4989668e-06
  5.7319994e-05
  6.0655319e-05
 -1.2094161e-05
  2.9136832e-05
  1.0499742e-06
  2.4712203e-05
  8.2759443e-06
  8.5472449e-05
  4.2959155e-06
 -7.6116892e-05
 -7.1526993e-06
  6.8490459e-05
  1.1411810e-05
 -2.0455545e-05
  8.8725283e-06
 -1.0025290e-05
  2.5861154e-06
 -9.3190774e-06
  3.1486896e-05
  3.3520820e-07
  3.8962244e-05
  1.2793404e-05
 -2.9584758e-06
 -1.0092098e-04
 -5.3923195e-06
  7.9642639e-05
 -2.0274960e-05
  9.6183168e-05
 -2.3673963e-05
  1.2992978e-05
 -1.5052447e-05
 -8.2967472e-06
 -4.9022656e-06
 -2.7760225e-05
  1.3328580e-05
 -1.7810500e-05
  2.9347564e-05
 -4.6869311e-05
 -4.5073368e-05
  4.8215210e-05
 -2.9079654e-05
  8.3240746e-05
  6.5873792e-05
  1.6692062e-05
  1.7813298e-05
  3.5504483e-05
 -5.2233907e-05
 -4.3280048e-05
  1.5737868e-06
 -3.8684891e-05
  6.6975726e-06
  9.8297760e-06
  1.9612577e-05
  7.0412748e-06
 -6.0557022e-06
  5.2318337e-05
 -1.7595969e-05
 -1.1748002e-05
 -1.7816150e-05
 -4.2258383e-05
 -6.3427346e-05
  4.6437668e-05
  5.3377830e-06
  1.4569076e-04
 -4.7433943e-05
  1.8518860e-05
  8.5919828e-06
  1.4890618e-06
 -6.4700121e-06
 -1.7830332e-01
 -9.1022099e-05
  1.3684118e-04
 -4.5567126e-06
  1.0736093e-05
  1.4379412e-05
  8.6999164e-05
  1.0270455e-05
 -5.4854204e-06
 -7.0655718e-02
 -3.7527297e-04
  1.7275291e-06
 -3.1699095e-05
  1.0191908e-04
  1.9897925e-05
 -8.3490926e-07
  1.1647934e-03
  1.9402383e-05
  1.0156598e-02
 -2.1506952e-04
  6.4354703e-07
 -1.0108333e-06
 -1.3900315e-05
  6.6594526e-05
 -3.2335858e-05
  5.3787688e-05
 -2.7921258e-05
  4.4975288e-05
 -3.5031084e-05
  2.0231981e-05
  8.4768487e-07
 -4.3455884e-06
 -1.9851204e-05
  5.5648670e-06
  8.7691596e-06
 -5.2982912e-05
  5.9077236e-05
 -7.2329938e-05
  2.4841780e-05
  5.7163637e-05
 -9.6661995e-07
  1.0254748e-05
 -2.0753099e-05
  2.5242829e-05
 -2.5070993e-05
  4.9677528e-06
 -6.8742775e-05
  1.6717229e-05
 -1.8728583e-01
  1.1314105e-01
 -2.5212270e-07
 -6.8592608e-02
  4.4655319e-02
 -3.0433092e-05
  1.0428029e-01
  9.6927665e-02
 -3.3533063e-02
 -3.0295162e-02
 -4.6430505e-05
 -4.1239597e-05
 -1.8495537e-03
 -1.2869810e-01
  7.1258009e-06
 -3.3941770e-01
 -9.7066368e-07
 -1.0832398e-06
 -1.8796969e-02
 -5.9569811e-05
  1.0817122e-04
 -5.2448149e-06
 -1.3628977e-04
 -8.9212454e-06
 -2.8121513e-01
 -2.0196196e-05
  6.0886954e-04
  9.9473527e-06
  1.2904509e-05
 -5.1474104e-05
  9.0192016e-06
 -1.0760628e-02
 -1.8755454e-05
 -4.3229571e-01
 -5.6317484e-04
 -1.3084178e-05
  6.0737634e-06
  3.7867362e-06
 -1.0586586e-05
  5.6979377e-05
 -2.5500922e-05
  1.1586681e-05
 -5.7975889e-05
 -9.5894684e-05
  1.5302496e-05
 -1.2945671e-07
 -2.8305147e-05
  6.3179345e-06
 -1.3010192e-02
  4.7232777e-05
 -1.0015503e-04
  5.1302673e-06
  1.6866490e-05
 -3.4357996e-05
 -8.8441996e-03
  3.4131858e-04
  1.9980705e-06
 -5.3114207e-03
 -3.9004162e-04
  4.3317315e-05
 -4.2457264e-02
  7.5917924e-03
 -3.6987960e-02
 -9.8044788e-03
 -5.7520733e-06
  1.4924703e-04
 -1.3995313e-04
 -5.5361446e-04
  3.7093025e-06
  7.6977059e-02
  5.5459305e-03
 -2.6684829e-05
 -1.3037743e-05
 -7.7377677e-05
  5.2894451e-05
  2.2205422e-05
 -3.3901453e-03
 -2.8042746e-04
 -1.6850454e-03
  7.6950737e-03
  2.1731563e-05
 -1.6824113e-06
  2.9102619e-05
  1.4116397e-05
 -1.5901584e-05
 -3.1703964e-02
  5.6684594e-06
 -2.8388188e-04
  2.8970017e-06
 -3.8160331e-05
  4.0272051e-05
 -1.8023622e-05
 -1.1019767e-05
  6.4870774e-06
 -6.7389512e-05
 -8.1040625e-06
 -8.8627548e-06
  1.4961566e-05
 -3.9121453e-05
  1.4736375e-05
 -1.8523533e-05
  5.5125129e-06
 -2.2411428e-05
  1.1911894e-05
  3.0895204e-05
 -6.5815732e-07
 -9.0302230e-05
 -6.2351237e-06
 -3.1245159e-04
  1.9532672e-06
 -1.8056753e-05
 -1.4617846e-05
  1.1928087e-05
 -1.3875534e-05
 -2.6970598e-01
  3.0303880e-04
 -1.2751020e-04
 -2.8810604e-05
 -1.1527789e-05
  7.3755955e-06
 -2.6257354e-04
 -1.8592315e-05
 -2.6009364e-05
  6.3332230e-02
  3.2834039e-05
 -7.9006968e-05
  3.9439050e-07
  5.6378199e-06
 -3.2591335e-05
  6.5540931e-05
 -2.4121631e-05
 -3.2726435e-05
 -2.1348658e-04
 -1.0824542e-04
  8.8056977e-06
 -7.7530831e-06
 -1.2345289e-05
  4.2171461e-05
  3.7030255e-05
 -1.5832249e-04
 -3.5673072e-06
  1.8547902e-05
  4.6359328e-05
 -1.2546407e-05
  1.4687945e-05
 -2.5066314e-05
  1.3787178e-05
 -8.1950402e-06
 -1.8528644e-05
  8.7479769e-08
  8.5833863e-06
  5.4573443e-06
 -2.9622455e-05
  3.4256341e-06
 -3.6878304e-05
 -2.8520662e-05
 -1.9172650e-02
  4.5210336e-04
 -2.4576122e-05
  1.0549567e-01
 -4.3652508e-05
  2.9414023e-06
 -2.4896661e-02
  5.6866169e-02
 -3.6648063e-07
 -6.3211329e-02
 -2.6930964e-02
 -6.3249166e-03
 -2.0383312e-01
  2.8423008e-02
 -5.4942559e-02
 -1.0337423e-01
  2.2214625e-05
  1.4339796e-04
 -1.4504212e-01
 -1.0957275e-01
 -4.8580082e-06
  8.1372773e-03
 -1.1539144e-04
 -8.3933296e-03
 -5.9145492e-02
 -2.5710251e-04
 -2.6039077e-05
  4.0492418e-05
 -5.9065439e-02
 -4.0211882e-05
  1.6932635e-01
  4.6177752e-02
  2.4258622e-03
  2.0325815e-05
 -1.0165245e-06
 -1.3395163e-06
  3.0637650e-06
 -1.3513060e-01
 -3.5581517e-05
 -1.0691468e-01
 -4.6243906e-05
  2.4427336e-05
 -4.1371106e-05
 -4.3727294e-05
 -1.6045507e-05
 -2.3899884e-05
  2.0962632e-05
  1.3906608e-04
 -3.3623755e-03
 -1.1768499e-05
 -2.8277775e-05
  4.9836977e-05
  3.7625236e-05
  1.9218802e-05
  2.3851588e-05
  8.8777097e-06
  5.1747353e-05
 -3.2230597e-05
  1.6142702e-07
  6.0305298e-05
 -2.6645172e-05
  3.9508861e-05
  2.1669222e-05
  4.0410247e-05
  5.4508469e-06
  3.9565144e-05
 -2.5372778e-05
  3.2943331e-05
  2.7653301e-05
 -3.3011416e-05
  4.8236834e-06
  3.7640084e-06
  1.7349439e-07
 -2.4341909e-05
 -9.5316616e-05
  1.3447345e-05
 -6.2043684e-05
 -2.2772310e-05
 -7.9030415e-06
  3.3006907e-04
  3.6653589e-06
 -2.9698735e-06
 -2.8858722e-05
  3.9472485e-05
  9.2526234e-06
 -3.8816102e-06
  2.7838780e-06
  8.2488505e-06
 -2.3338593e-05
  2.7810209e-05
 -4.2473468e-05
 -2.0978774e-05
 -1.9910909e-05
  3.7403879e-05
 -1.5413054e-05
  6.1143626e-05
  3.1823151e-06
  1.9857847e-05
 -2.1119777e-06
 -1.0505568e-04
  5.5181401e-05
 -5.6912224e-05
 -4.0887164e-07
  1.3306842e-05
  2.8688743e-05
  3.6381945e-05
  8.9907233e-05
 -2.1462552e-06
 -6.0288824e-02
 -1.0573785e-06
 -2.3989558e-06
  1.8576931e-05
 -9.1852434e-07
 -1.7096226e-04
 -2.3316920e-02
  2.7965998e-02
 -2.9586822e-06
 -2.2173662e-02
 -3.6003117e-03
 -5.7516918e-03
 -1.6920295e-01
  2.6386937e-03
 -5.8753245e-02
 -1.6922945e-02
  4.1928192e-06
  1.2481623e-04
 -1.5524968e-04
 -2.2695849e-02
 -3.3627774e-05
  2.1530582e-02
  5.7554455e-03
 -8.4587075e-05
  5.6175057e-05
 -2.2289435e-04
  6.8793874e-05
 -1.9964924e-05
 -3.2920667e-04
 -5.7802792e-04
 -4.5954212e-04
  6.7428187e-02
  2.7985079e-04
  2.8736826e-05
 -7.5085860e-05
 -1.8983639e-05
 -3.6219733e-06
 -1.5222426e-01
  6.0575999e-06
 -8.2238985e-04
 -1.7463108e-05
  2.5570553e-05
 -1.1402203e-04
 -5.9928134e-06
  1.7296341e-05
  3.4373476e-05
 -2.2157343e-05
  5.3304393e-05
 -3.1408552e-05
  1.9999336e-06
  3.3960196e-06
 -4.5722518e-06
 -3.2699452e-05
  5.2109073e-07
  7.5576609e-06
  1.1587847e-05
 -3.8080154e-05
  2.4238956e-05
 -9.3014532e-06
 -4.2909796e-06
  1.6436123e-05
  1.0852194e-05
  7.1538324e-07
  2.5606425e-05
  2.8116078e-06
  3.0964484e-06
 -1.0630925e-04
  3.0844351e-06
 -5.9343138e-06
  1.2380783e-06
  4.2462565e-05
 -2.4477305e-05
 -4.3900454e-06
 -6.1083961e-06
  1.7534248e-05
  1.7244269e-05
 -4.1605923e-05
  1.1364713e-05
  1.0263685e-05
 -4.8912348e-06
 -3.6435558e-05
 -1.6230461e-04
  1.0284629e-04
  3.9933076e-07
  2.8384365e-08
 -4.9736786e-06
  1.7071843e-05
 -5.1339089e-06
  1.5584206e-05
  4.9704763e-06
  3.7626571e-06
  1.2114729e-05
  4.7743248e-05
  2.6714966e-05
 -1.4833408e-05
 -4.2476688e-05
 -3.5766091e-06
  2.8503728e-06
 -2.7991471e-05
 -5.7875116e-07
 -3.4016266e-05
  2.1397468e-06
 -2.0295565e-05
 -9.9046283e-06
 -1.3385918e-04
 -5.2542000e-06
  1.7507717e-05
 -9.9706449e-06
 -2.3146031e-05
 -1.5066404e-04
 -1.8843706e-05
  9.2026476e-06
 -4.4061515e-05
 -3.9737817e-05
  3.2302629e-05
  3.0053507e-06
 -8.0396671e-07
  5.8373938e-05
  2.9852761e-05
 -2.4264260e-05
  1.8675327e-02
 -1.4575911e-04
  3.1178035e-05
  1.0870265e-04
  6.7478834e-07
 -2.6340467e-05
  3.1611265e-04
 -4.5756817e-05
  1.4598363e-04
 -1.0175008e-01
 -2.5139718e-06
 -2.3086715e-05
 -4.8682698e-05
  3.5621772e-05
 -7.0000315e-05
  2.0889094e-05
  9.2254928e-04
  2.8201277e-05
 -6.0127873e-06
  6.8377908e-06
 -2.0296825e-06
 -7.2189032e-06
 -3.7055688e-06
 -6.4365872e-06
 -4.6767796e-05
  1.5792279e-05
 -6.4525688e-05
  2.5896796e-05
 -5.6699382e-06
 -7.0084416e-06
  2.5108926e-05
 -1.3539342e-05
 -1.9956413e-05
 -7.6631375e-05
  3.1640325e-06
 -1.1694886e-05
  1.6983460e-04
  1.2343418e-05
 -2.1513154e-06
  1.0495551e-04
 -3.0946121e-05
  1.4832497e-05
  5.5714263e-06
  2.7100379e-05
 -6.9502996e-05
 -1.3809922e-05
 -3.8556031e-05
 -9.3457980e-05
 -1.1144333e-05
  3.0684771e-06
  7.0794304e-06
  4.3014326e-05
  5.6016679e-06
  2.1200383e-06
 -8.8137553e-05
  3.4158391e-05
 -3.5673525e-05
  1.3051543e-05
  7.7728873e-06
  4.3850549e-05
 -7.5019798e-08
 -1.1735732e-05
  4.9207010e-05
  9.7499005e-06
  2.3221650e-05
 -4.7475911e-05
 -6.7540394e-05
 -1.4550312e-06
  1.6788330e-05
  3.4803794e-05
  5.3765420e-05
 -1.3243640e-06
 -9.4054781e-07
 -1.1265511e-06
  1.2325479e-05
  7.3265451e-06
  2.1812883e-04
 -2.4596366e-05
  3.1986606e-06
  9.1676588e-07
 -3.4983502e-06
  2.5671581e-05
  3.5506660e-06
  7.9496294e-06
 -1.8539173e-06
 -6.0242144e-07
  1.2421562e-05
  2.2228713e-05
 -3.8971717e-05
 -7.2026178e-06
  2.5133881e-05
  1.1720731e-05
 -3.9806018e-06
  3.5826946e-05
  2.1702263e-06
  2.0682783e-05
  1.0823952e-04
 -6.4842519e-05
  3.8425722e-05
  1.6278084e-06
 -8.6369137e-06
  2.8592485e-06
  3.3354212e-02
 -1.7708488e-02
  8.7453645e-06
  1.6798839e-01
  9.0131165e-05
  3.1287645e-04
  1.3196334e-01
 -3.7689567e-02
  3.8904190e-02
  4.0156112e-04
  5.3732183e-05
  5.6060258e-06
  5.4980261e-04
 -2.8042407e-03
  1.5307964e-05
 -5.6594066e-02
 -6.0328271e-04
  4.0300647e-06
  2.9423667e-02
  1.4888770e-04
 -9.1795500e-06
 -2.5353404e-03
  7.4072152e-02
  1.9109648e-05
  4.4203494e-02
 -3.9867301e-02
 -1.9761760e-04
  3.1612646e-05
 -1.8186473e-07
 -1.5087707e-05
  2.9180933e-06
  1.3472213e-02
 -1.4254962e-05
  5.9365958e-04
  2.1048309e-06
  1.8299129e-06
 -2.0306436e-05
  2.7580560e-05
 -9.5288247e-05
 -1.1128405e-04
  8.2882480e-06
 -1.2044672e-05
  2.1776706e-03
 -6.2727464e-05
 -4.2551434e-05
  3.0333229e-05
  1.0108435e-05
  5.5774810e-05
 -4.7402914e-06
 -1.4429131e-04
  5.3144657e-05
  1.9041148e-05
 -1.5391769e-06
 -1.6205877e-05
  4.2382623e-03
 -4.1193092e-05
  5.5814662e-06
  1.9383880e-04
  3.1221132e-03
  4.9051338e-05
  1.1200847e-01
 -7.6359464e-04
  1.6794503e-02
  1.6020189e-04
 -1.7413948e-05
 -3.5998553e-06
  1.8151375e-05
  1.3015460e-03
 -2.7695916e-05
 -7.1626052e-02
 -7.5884229e-05
  4.8310390e-05
 -2.1208401e-05
 -7.3119472e-06
 -3.6584010e-05
 -3.6621601e-05
  6.9536545e-05
  1.0740879e-04
  1.3246686e-04
 -1.5247343e-03
  1.2143748e-05
 -5.6277637e-05
 -3.2330421e-04
 -2.0435837e-06
  2.9188506e-05
  4.4291897e-05
  2.4090143e-05
 -5.0922939e-05
 -2.0596754e-05
  5.1885396e-05
 -1.9453737e-05
 -1.9235260e-05
  2.8444454e-05
  8.3983105e-06
  4.4504559e-06
 -6.9009575e-06
 -3.0391905e-06
 -1.1162843e-05
  2.8099976e-05
  9.6745543e-06
 -4.4761850e-06
 -1.0920775e-06
 -5.9011058e-05
  1.3090858e-04
 -3.6456331e-05
  1.0440422e-05
  1.8064786e-05
 -1.3799703e-05
 -6.1077619e-04
  1.2132868e-03
 -2.4340761e-05
  1.7563892e-05
  7.6928355e-02
 -2.8258401e-05
 -6.6490293e-02
  6.0901457e-05
 -2.8013587e-03
 -4.5668567e-05
 -6.5021384e-05
  1.2075801e-04
 -2.1227152e-05
 -1.1376763e-03
  1.3317943e-05
  4.3411214e-02
  8.8572851e-06
  1.6951855e-05
 -4.8543357e-06
 -7.0581682e-06
  3.4328325e-05
  1.5014739e-04
  1.9247535e-05
  1.0172439e-05
 -1.0470171e-01
 -2.5861473e-06
  1.3450177e-04
 -5.9657496e-06
 -3.5127036e-05
  2.9947793e-07
  1.3227605e-05
 -2.6015578e-02
  1.3798706e-05
 -5.6789257e-02
  8.1618295e-05
  4.0463707e-05
  8.2163118e-05
  4.5657282e-05
  5.7771427e-05
  2.0910336e-05
  6.9420676e-06
 -8.1535232e-05
  2.4201569e-05
 -1.5337542e-05
  4.1716139e-05
  1.2462861e-05
  1.4865144e-05
  5.8269961e-06
  4.0494141e-01
 -1.0772320e-01
  2.3752774e-01
  2.1611715e-05
 -8.1983062e-06
 -3.7144368e-05
 -2.8554959e-02
 -5.6224787e-01
 -2.1065612e-01
  1.8685097e-02
  4.9895220e-03
  1.1884221e-01
 -1.3894223e-01
 -1.7246166e-01
  1.4812027e-01
 -3.0212140e-02
  8.2689198e-03
 -1.8008038e-01
  2.7319193e-01
 -2.7616132e-02
 -4.3952812e-02
  2.2848642e-01
 -1.3928713e-01
  7.7557996e-02
  1.6329251e-01
  7.1799025e-02
 -4.2659426e-01
 -1.1289614e-01
  1.8034218e-01
  2.9441804e-01
 -5.8235221e-02
 -1.4888125e-02
 -5.6660342e-01
  2.7006984e-01
  7.2433136e-02
  7.0011385e-02
  1.4007893e-01
  3.5276449e-01
 -1.6246967e-03
 -4.3180853e-01
 -1.0632496e-01
  1.7842467e-05
  1.4351437e-02
  8.4682321e-03
 -3.4765664e-05
 -2.4982743e-02
  1.4056341e-03
 -3.1879349e-04
  1.7119148e-03
  3.4197893e-02
  1.1168580e-05
  5.2485939e-05
  1.7638051e-05
 -3.1796660e-06
 -3.1156698e-02
 -5.6504427e-06
 -3.5837427e-05
 -3.1129541e-05
  2.9315852e-05
  5.5671449e-06
 -2.6880535e-03
  5.5611291e-04
 -7.1904133e-06
 -2.7104517e-04
 -1.1212828e-03
 -3.2714757e-05
 -4.8292965e-02
  9.5652731e-04
 -2.6967091e-02
 -7.0164256e-06
  7.4824734e-06
  2.7274949e-05
 -5.2436278e-03
 -2.1202958e-03
  2.0644011e-05
  6.5864652e-02
  1.3739093e-04
 -1.8415236e-05
 -9.7142806e-04
 -2.5051882e-04
  4.7395012e-04
  6.0330381e-06
 -5.8514562e-02
 -2.2651322e-04
 -1.4220156e-03
 -6.4742278e-05
  7.1162656e-05
 -1.6032986e-05
 -2.5532241e-05
 -9.8600458e-06
  5.0695558e-05
 -1.0241221e-02
 -6.8291552e-06
 -1.4667859e-05
 -1.5650698e-05
 -2.8413012e-06
 -3.5843968e-05
  8.1503631e-06
 -1.0839631e-05
  1.0445573e-05
 -3.9591130e-05
  3.7117256e-06
  2.4239664e-05
 -2.6903794e-05
 -3.8618757e-05
 -6.7490873e-05
 -2.4149856e-05
 -1.6765161e-05
  2.8782535e-01
 -1.4964084e-01
  3.4393359e-02
 -4.3330096e-05
  8.3303412e-06
  2.0029222e-05
  3.8125964e-03
 -1.1841590e-01
 -3.0455471e-03
  1.4543381e-01
  7.0337565e-03
  7.3214665e-02
  3.6702592e-02
 -4.2666513e-02
  4.7139231e-02
  1.5021627e-02
 -4.3719294e-03
 -1.0676312e-03
  1.3338061e-01
  2.1291235e-02
 -2.4819123e-05
 -3.2991522e-03
 -2.9393970e-03
  4.8160818e-03
  1.9574873e-01
  7.4517941e-03
 -8.0192938e-02
 -1.0063260e-01
  5.3594347e-02
  1.3888973e-01
 -3.0244160e-02
 -3.0579472e-02
 -2.0293988e-02
 -3.2417796e-04
 -1.4297722e-04
  4.1631036e-05
 -6.9420166e-05
  1.3052472e-01
 -9.6474256e-04
  3.2406044e-04
  3.9595012e-03
 -1.4363909e-04
  4.8955355e-04
  2.2891370e-05
  1.3540326e-05
 -9.2244204e-03
  2.5834721e-05
 -7.9538913e-05
  2.8038519e-02
 -8.0658970e-03
  5.2021419e-06
  6.3123807e-06
  3.4370663e-05
 -1.3339090e-05
 -8.8777588e-06
 -1.2206734e-05
  1.1269170e-05
 -2.6716937e-06
  2.8721599e-05
 -7.0223564e-06
  9.9720717e-05
  1.9047906e-01
 -5.4545289e-05
 -4.1281810e-06
  1.5058623e-05
 -1.1083768e-07
  6.4176008e-02
 -2.8247732e-05
  3.6143068e-05
 -4.1765996e-04
  4.7932874e-05
  1.4811817e-05
  6.2040657e-05
 -3.5277979e-05
  1.1892232e-05
 -1.0680401e-05
 -1.9093517e-05
 -9.4334973e-05
 -3.5314359e-02
  3.4955388e-05
 -4.4460048e-06
  7.4382269e-06
  6.5381438e-03
  2.2382483e-05
 -2.5260970e-05
  1.5020260e-01
  1.2141195e-01
 -5.4338537e-02
 -1.1037153e-01
 -8.9232586e-03
 -2.5740235e-05
  2.0653026e-01
  8.9790474e-06
 -8.1848092e-02
 -1.7748343e-05
  6.2090687e-02
 -1.7646596e-01
 -1.5220271e-01
 -8.9592539e-02
 -1.8838453e-01
  7.7625609e-06
 -1.8944129e-01
  7.6398837e-06
  6.1101329e-02
  1.4953985e-06
  1.5143064e-01
  1.0880107e-01
 -9.1894194e-02
  9.5527011e-01
 -1.3215387e-01
  6.7357045e-01
 -1.8905035e+00
  2.8081700e-05
  9.3627369e-01
 -1.0326414e-04
 -1.5075344e-05
  8.6733953e-06
 -6.0914531e-02
 -2.9487251e-07
  9.9116123e-06
 -2.9078263e-01
  2.7836150e-02
  1.2796406e-05
 -1.0049643e-05
  7.7564269e-01
  3.6955267e-01
 -2.8936642e-05
 -2.0772145e-06
  2.3435641e-05
  7.4345134e-02
  6.2770027e-06
  4.0954223e-05
  1.5775517e-01
  2.3353900e-01
 -2.0792524e-05
  1.0629037e-05
 -6.1835635e-02
  1.3429192e-01
  1.4179194e-05
 -5.0581632e-05
 -3.9953360e-07
  2.2504862e-01
  3.3098625e-04
  1.2341532e-06
 -5.7556927e-01
  8.3333418e-02
 -1.3902553e-04
  2.3901423e-05
 -1.0179669e-01
  4.3147411e-03
  8.3956966e-06
 -3.7668753e-05
  3.2300799e-05
  1.1475944e-04
 -1.7525061e-05
 -5.5737760e-06
  5.5016443e-07
 -6.0336520e-06
 -2.9699591e-05
  5.1952458e-05
 -3.6042061e-01
  4.7800624e-01
  2.0460087e-05
 -1.0868029e-04
 -2.5954812e-06
  1.6936063e-04
 -1.8458719e-05
 -3.6732727e-05
 -1.7496747e-01
  5.3223572e-05
 -2.5223735e-05
 -2.4726419e-04
  1.7451075e-01
  8.2174838e-01
 -6.2314657e-06
  1.1767594e-05
 -1.6193038e-01
  1.3567743e+00
 -2.6905034e-06
  1.5249915e-05
 -2.4123423e-01
 -5.5985101e-02
 -2.8436209e-05
 -6.2534615e-02
 -1.1950547e+00
 -3.3216286e-01
 -9.7110733e-06
 -7.9960250e-07
 -1.1164038e-04
  1.1458682e-01
  1.1748111e-05
 -2.1774438e-05
 -4.3907195e-01
 -2.5437716e-01
  3.4684649e-06
  3.9398201e-05
 -1.1559489e+00
  4.3704215e-01
 -2.5797738e-06
 -1.1936637e-05
 -4.1610961e-05
  6.0994381e-01
 -2.6457108e-05
  7.9727097e-06
  1.0483671e+00
 -1.4907786e-01
  7.0444192e-05
  1.1891499e-06
  3.8714054e-01
  3.4252146e-01
  3.5367066e-05
 -2.7015918e-05
 -2.8222252e-04
  8.1611693e-01
 -2.5105268e-05
  2.8078139e-05
  2.4595463e+00
  1.1919012e+00
 -1.5608244e-05
 -3.7987742e-05
 -2.6350954e+00
  3.2315361e-01
  3.0393122e-02
  1.9053708e-05
  1.3741668e-05
  3.6276266e-02
 -1.4953634e-06
  4.5120520e-05
  1.5978700e-01
  5.7420844e-01
  2.7037089e-05
  8.8804722e-04
 -1.9647044e+00
  1.5686196e+00
  2.1194337e-05
 -4.2942952e-02
 -2.5308612e-01
  9.6387064e-01
 -8.0240970e-06
  7.3314361e-02
  1.8997729e-01
  3.3828279e-01
  3.6044021e-03
 -2.9497406e-02
 -1.3264492e+00
  7.5892895e-01
  2.5032650e-06
  4.5875689e-01
 -9.8204583e-01
  1.4031364e+00
  4.1532557e-02
  2.9890332e-01
  1.7037715e+00
  6.5727997e-01
 -2.5082383e-01
 -5.3985214e-01
  6.3080859e-01
  3.7720740e-01
  2.2615910e-01
 -3.1010888e-05
  4.6893729e-05
  3.0104336e-01
  2.2407707e-05
 -3.1103376e-05
  9.6752417e-01
 -5.8824688e-01
 -2.4168736e-05
 -2.2501725e-05
 -1.6940150e-01
 -1.0616618e+00
 -9.5702358e-02
  6.6504865e-05
  8.9040601e-01
 -2.5704765e-01
 -6.5860663e-06
 -3.4747384e-02
  6.8959403e-01
 -2.8735653e-01
  4.8546772e-06
  4.6222437e-02
  6.2046450e-01
  2.2880878e-01
  2.1997575e-06
 -3.5900980e-01
  1.4979097e+00
 -1.4002475e+00
  2.1713723e-01
 -1.6815434e-01
  2.9359372e+00
 -1.3167442e+00
  6.4295150e-02
  3.5230374e-01
  1.4425907e+00
 -2.0360972e-01
 -2.8518340e-05
 -3.0543946e-05
  9.3922623e-05
  1.9194893e-05
 -2.9655701e-05
 -2.9363402e-05
  2.6578838e-02
 -2.3714410e-05
  3.1813944e-04
  3.6621317e-05
  3.8036263e-01
  4.2128271e-05
 -7.3999972e-06
 -1.8605797e-04
  7.6967415e-05
  2.5382152e-01
  3.6176058e-05
  9.0159083e-06
 -6.6617924e-01
  1.4307641e-05
  4.2076019e-05
 -1.6821361e-05
  5.6945380e-02
  1.1639650e-05
  8.6699811e-06
  3.7339482e-02
 -4.4953326e-06
  1.1346604e+00
  1.3720382e-05
  1.2617017e-01
  7.7878058e-02
 -1.2121785e-05
 -6.1132386e-03
 -1.2251773e-01
  2.5446415e-01
 -4.7619143e-01
 -4.1845456e-06
 -1.0205531e-05
 -2.1326387e-05
  8.8247359e-03
 -2.5758010e-05
  9.7610946e-06
 -3.9322367e-03
  7.5195915e-01
 -2.8206323e-05
  6.9498084e-05
  8.6663198e-01
 -3.0774367e+00
 -1.0849002e-04
 -8.7730050e-06
  6.5645224e-01
  4.2359080e-02
 -4.5724701e-05
  9.7646271e-06
  1.4331061e+00
  3.3683336e-01
  3.7017620e-05
  1.7848315e-05
  6.3303220e-01
 -4.3461364e-02
  6.6035559e-06
 -4.2583024e-06
  4.7928272e-03
 -1.2892134e+00
  2.1806454e-05
 -4.9275764e-05
 -1.5668585e+00
  6.4558923e-01
 -2.6533873e-05
 -1.8631619e-05
  1.7133809e+00
 -7.5976616e-01
  2.0348340e-05
 -1.7195493e-06
  1.0616736e-02
 -1.2002906e-01
 -8.7405379e-06
  5.3518350e-05
 -1.3980421e+00
 -8.5004330e-01
 -2.0427002e-05
 -4.4106569e-06
  1.9510688e+00
 -5.9657341e-01
 -5.1425290e-05
  1.4679841e-05
  4.3738860e-01
  4.2624468e-01
  2.1979691e-05
 -8.3534842e-06
 -4.6855858e-01
  2.3773804e+00
 -1.8600700e-05
 -6.6389446e-05
  2.4362387e-01
  5.0723261e-01
 -7.8269650e-06
 -1.0219983e-04
  7.1935600e-01
 -1.3902647e+00
 -7.5265975e-06
  3.4659381e-05
  1.1717620e+00
  1.1129631e+00
  8.8962712e-05
 -5.8093642e-06
  3.8357201e-05
  5.4126734e-01
 -5.0169063e-05
 -1.7869127e-06
  4.0233361e-05
 -2.2613933e-05
  1.7798118e-05
 -4.8079281e-05
  8.3678633e-06
  4.3281776e-05
 -1.5492862e-05
 -3.0913827e-05
 -6.1958231e-02
 -1.4897311e-01
 -7.0550224e-05
 -2.1277005e-05
  1.6486350e-05
 -2.1994843e-05
  1.6470902e-05
  1.2504799e-05
 -2.4405152e-01
 -4.7891222e-06
 -2.2321419e-05
  4.8754042e-05
 -7.8197882e-05
  9.9497025e-05
  6.0018697e-06
 -4.0473329e-05
  1.1128666e-05
 -2.1968140e-04
 -2.0857026e-06
  3.3111020e-05
  4.0775046e-01
 -4.2358082e-05
 -1.5283180e-05
 -7.2133516e-06
  5.2389455e-01
 -1.8004909e-01
 -5.6176209e-01
 -2.5625220e-01
 -6.6445085e-05
  1.0494148e+00
  1.4819894e-02
 -2.1890725e-04
  7.9863340e-01
 -1.3801510e+00
  2.2645609e-01
  2.5542840e-01
 -3.9432362e-01
  5.5571115e-01
  7.4416155e-01
 -2.7035639e-01
  4.6725801e-01
 -8.4716934e-01
 -1.6467395e+00
  2.1695273e-06
  1.4982691e-01
 -4.7777426e-01
 -8.1463695e-02
  6.2584095e-02
  3.5684830e-01
  1.0050159e-01
  1.0141745e+00
  4.5947130e-03
  1.1350369e+00
 -1.8680276e-02
  7.5301933e-01
 -3.7505258e-02
  2.6958945e-01
  5.7437730e-01
 -5.9518613e-02
  1.0103424e-01
  2.7905786e-01
  1.0063610e-01
  3.7212646e-01
 -7.2161067e-01
  1.9875796e-01
  3.9082527e-02
  9.5700406e-02
  2.2421338e-05
 -1.2638508e-01
 -2.4227692e-02
 -2.4751288e-01
 -4.8313165e-01
  5.3568262e-01
 -3.8382098e-01
  2.4644053e-01
  1.0569245e-01
 -4.2139548e-01
 -4.3587662e-02
 -1.6346048e-01
 -3.0676219e-01
  3.7444752e-01
 -9.2117381e-01
  1.6010970e-02
 -2.9161033e-01
  1.0375538e-01
 -1.5716476e+00
  3.6558599e-04
 -4.1971171e-01
  6.6701430e-01
 -3.6889124e-01
  1.4530612e-02
 -3.8409419e-03
 -6.9641888e-02
 -1.5003195e-01
 -1.1420453e-01
 -8.4794313e-02
  4.7077495e-01
  7.4080622e-01
 -5.3810500e-02
 -3.8382728e-02
  3.8273599e-02
  6.8708676e-01
 -4.1996300e-06
 -6.5138367e-05
 -1.6808597e+00
  7.3014969e-01
  8.9690648e-06
  2.1141472e-05
  1.1478554e+00
 -5.1307750e-01
 -5.4196056e-02
 -3.0875521e-02
 -1.0914729e+00
 -1.0278333e+00
 -5.7839993e-02
  7.7937757e-06
 -1.0597588e+00
 -3.1147024e-01
  3.3018809e-05
 -3.3171996e-04
 -1.2388991e+00
  1.0321046e+00
  2.1972081e-05
 -3.4664944e-02
 -5.2359921e-01
  5.5406463e-01
 -2.1730454e-01
 -5.7816174e-02
  1.1573130e-01
  2.2747125e-01
  9.5741749e-01
 -1.9715646e-05
 -5.1264405e-01
  2.0066813e-01
  5.3247631e-01
 -5.1526345e-02
 -2.0359862e-06
 -6.4716580e-05
  3.6200538e-05
 -9.6075986e-05
 -4.3047694e-04
  1.6885105e-01
  4.2972334e-02
  4.8412297e-05
 -3.9168516e-01
 -5.2449703e-01
  7.5060106e-04
 -7.2871208e-01
 -3.8666752e-01
  1.2595700e+00
 -4.4912657e-01
 -1.3130353e-01
  2.8885236e-01
  3.1278425e-01
  9.4728649e-02
  1.6269661e-01
  7.2928198e-02
  1.3064415e+00
  6.0062015e-01
 -1.3936576e-01
 -4.3312918e-02
 -1.1551310e-01
  2.3850587e-01
 -1.0566987e-01
  1.9388117e-02
 -2.0955724e-01
 -1.2700608e-01
  5.0079030e-01
 -2.4639450e-01
  6.1580455e-01
  1.6109688e-02
 -7.6990336e-01
  2.8139639e-06
  4.5261024e-07
 -3.7993941e-05
 -1.1420919e-03
 -1.7663732e-01
  3.1907859e-01
  3.9514256e-01
 -1.8453179e-01
 -7.2193295e-02
 -1.0972429e-01
  4.0201741e-01
 -3.4472537e-01
  7.5364122e-05
 -1.8756808e-01
 -9.2456630e-06
 -2.3872437e-01
 -5.6869376e-01
  8.1578298e-03
  6.9902211e-01
  2.8554115e-02
  1.2250642e-01
  2.0863698e-01
  2.8642407e-01
 -6.8467557e-01
 -1.6057417e-02
 -4.8818180e-01
 -6.1734747e-02
 -1.3012373e-01
 -6.3037258e-01
  3.8058901e-01
  2.8864102e-02
 -4.4887641e-01
  2.1746422e-01
  3.3835191e-01
  5.2975225e-05
  2.8202721e-01
 -9.1238862e-06
  3.3666543e-05
  1.7062925e-05
  2.1486094e-05
 -7.4078557e-06
 -1.0389753e-01
 -2.3226105e-01
  3.2272008e-01
  5.7701144e-02
  1.7038013e-01
  1.2675254e-01
  1.6773246e-01
 -1.9763684e-02
 -2.6328793e-01
 -3.7543026e-01
  1.0093079e-03
  2.2821052e-01
 -5.2965987e-01
 -2.9223833e-02
  3.6658339e-02
  9.1442741e-02
 -3.9528111e-01
  4.5860341e-01
 -3.4056756e-01
 -1.0431311e-01
 -2.5717422e-01
  4.8114267e-01
  1.2951346e-01
  4.5368829e-01
 -1.2724139e-01
  7.4231438e-02
  4.8610404e-01
  1.4868917e-02
  5.5469628e-02
 -1.4092971e-01
  4.0320575e-01
  1.1325045e-04
  6.1670667e-01
 -2.8388304e-04
  1.0200814e-02
  1.0039498e-01
 -8.6185342e-01
 -3.3507220e-02
  1.6314130e-05
  4.6702692e-01
  1.3148294e-01
 -4.4362497e-01
  7.2807288e-01
 -5.1143266e-05
  1.0927558e+00
 -7.5223261e-01
 -1.2379345e-01
  5.1006380e-02
  8.3479816e-01
 -3.7423235e-01
  5.2998982e-02
 -4.4339344e-01
  9.1552116e-02
 -8.2907468e-01
  6.2069821e-01
  2.5232762e-01
 -6.6223127e-01
 -5.3634137e-01
 -2.9381132e-01
  1.9263227e-01
  2.8735152e-01
 -4.8994824e-01
  3.8453007e-01
  1.5923105e-01
 -1.3313452e+00
  7.4840687e-02
 -6.7575181e-01
  7.3081324e-06
 -1.2147595e-01
  2.2043024e-01
 -3.3928204e-06
 -4.8286702e-06
  1.7410504e-02
 -1.1515293e-01
 -5.6868881e-01
 -3.4971783e-01
 -3.5544906e-02
 -5.1605869e-02
  5.9264761e-01
 -1.5406163e-01
  6.7579359e-01
  3.4280486e-02
 -3.9425749e-01
  2.2259864e-01
  4.8217082e-01
 -3.3980761e-02
 -3.2238215e-02
  6.0667896e-01
 -1.4535350e-02
  8.3817226e-01
 -9.9801332e-01
  5.4915136e-01
 -7.2541779e-01
  1.4075285e+00
 -4.7968179e-02
 -4.9819600e-02
 -2.2942724e-02
  7.3749238e-01
 -1.1587016e-01
  1.1858106e-01
  4.3335372e-01
 -5.5433327e-01
 -1.8632571e-01
  5.2812338e-05
 -2.4365667e-05
  4.2503867e-03
 -2.5678555e-05
 -2.6187119e-05
 -4.1542644e-05
 -5.7091039e-01
  1.5070569e-03
  5.8596486e-01
 -2.1355474e-01
  3.9302686e-01
 -3.3281046e-01
  1.3149689e-01
  8.0665398e-01
 -3.6354861e-01
  3.4499547e-04
 -3.5903397e-01
  3.3301991e-01
 -6.6392952e-01
  1.8730010e-04
  3.3670741e-01
 -3.5242867e-01
 -3.6985625e-02
 -8.1563964e-03
  6.2207604e-04
 -6.5648156e-01
 -1.0911226e-01
  1.7363228e-01
  1.4796298e-03
 -4.1638885e-02
 -1.5869342e-01
 -1.6442451e-01
  7.1463682e-02
  7.1463682e-02
  7.1463682e-02
  7.1463682e-02
  7.1463682e-02
  7.1463682e-02
  7.1463682e-02
  7.1463682e-02
  7.1463682e-02
  1.1981272e+00
  1.1981272e+00
  1.1981272e+00
  1.1981272e+00
  1.1981272e+00
  1.1981272e+00
  1.1981272e+00
  1.1981272e+00
  1.1981272e+00
  9.4198173e-01
  9.4198173e-01
  9.4198173e-01
  9.4198173e-01
  9.4198173e-01
  9.4198173e-01
  9.4198173e-01
  9.4198173e-01
  9.4198173e-01
  3.1253439e-01
  3.1253439e-01
  3.1253439e-01
  3.1253439e-01
  3.1253439e-01
  3.1253439e-01
  3.1253439e-01
  3.1253439e-01
  3.1253439e-01
  4.0543411e-02
  4.0543411e-02
  4.0543411e-02
  4.0543411e-02
  4.0543411e-02
  4.0543411e-02
  4.0543411e-02
  4.0543411e-02
  4.0543411e-02
  2.3866811e+00
  2.3866811e+00
  2.3866811e+00
  2.3866811e+00
  2.3866811e+00
  2.3866811e+00
  2.3866811e+00
  2.3866811e+00
  2.3866811e+00
