nep4 3 Al Ga N 
cutoff 5 5 54 54
n_max 8 8
basis_size 12 12
l_max 4 2 0
ANN 40 0
  1.0980687e-01
 -6.3836682e-01
  1.3954839e-01
  4.8336712e-01
  2.4621530e-01
 -3.2407704e-01
  1.3576524e-01
  8.3311483e-02
  4.6866480e-01
  9.7471271e-03
 -9.7615421e-02
 -4.8483811e-02
  4.2890865e-01
 -1.0857733e-01
  1.4216283e-01
 -6.7848414e-02
 -1.0582946e-01
  5.2906400e-01
 -3.9596546e-01
 -4.2809099e-02
  2.0450673e-01
  2.7697900e-02
 -2.1650863e-01
 -7.9278432e-02
  2.7709094e-01
 -1.5261431e-01
 -5.1301014e-01
 -1.8399224e-01
  4.0220520e-01
 -1.0724891e-02
  4.4759944e-01
  6.7953676e-01
  9.2078380e-02
 -8.6694531e-02
 -3.7800658e-01
  2.5824973e-01
 -3.6000293e-01
 -2.5338361e-02
 -1.8105252e-01
  2.8628185e-03
  1.5824739e-02
 -5.3247547e-01
 -3.9355630e-01
 -1.6294219e-01
  4.2054978e-01
 -9.9025086e-02
 -4.4630513e-01
  7.6890424e-02
  2.9304886e-01
 -4.1417304e-01
 -1.0218886e-01
 -1.7056021e-01
 -2.9445088e-01
  4.9253158e-02
 -1.7631913e-02
  3.8608631e-01
 -3.8041207e-01
  1.5484741e-01
 -3.5818789e-02
 -5.7865884e-03
 -9.9741071e-01
  5.6713629e-01
  2.1970771e-01
 -9.9977151e-02
 -3.1656191e-02
 -4.9858093e-03
 -5.0069523e-01
 -1.3777742e-01
  1.9559243e-01
  1.4225832e-01
 -4.4727466e-01
 -3.6074626e-01
  2.8534526e-01
 -1.3120816e-02
 -2.9572028e-01
 -5.0005618e-02
  1.2355928e+00
  3.7135819e-01
  1.8264368e-02
  5.2108622e-01
  6.3687861e-02
 -7.4050277e-02
 -4.9626835e-02
  1.7320600e-01
 -5.9186351e-01
  4.3411702e-01
 -8.4730637e-01
 -6.1398849e-02
 -3.5683975e-01
 -1.7197588e-01
  2.7591181e-01
  7.5849509e-01
 -4.4874796e-01
  9.1638136e-01
  2.9914027e-01
  1.6559565e-01
 -6.0653053e-03
 -2.8236583e-01
  5.9050030e-01
  5.3252733e-01
  2.5820062e-01
  1.3390163e-01
  7.3076501e-02
 -3.4555745e-01
 -3.2279339e-01
 -2.9407385e-01
 -1.8396832e-01
  1.2452197e+00
 -9.0295002e-03
 -6.7791802e-01
  1.2768641e-01
  1.0046953e+00
 -3.4093782e-03
  1.0440119e-01
  7.1207553e-02
 -4.2769247e-01
 -3.7703949e-01
 -8.6778417e-02
 -3.0986434e-01
 -1.2308924e+00
 -2.2998963e-01
  1.0096929e+00
  7.7780741e-01
 -3.8010088e-01
  1.6659375e-01
 -4.2623609e-01
  4.1775953e-02
 -2.4178702e-01
 -4.5883209e-02
 -2.8773621e-01
 -1.9655098e-01
 -2.8170395e-01
  7.3094219e-01
 -1.8547040e-01
 -1.6431431e-01
  3.2643017e-01
 -4.1967072e-02
  4.3250126e-01
  4.0767488e-01
 -1.2006723e-01
 -1.6187487e-02
  4.0064842e-01
  7.2248057e-02
  1.4890534e-01
 -1.3938583e-01
  3.9727098e-01
  4.1757133e-02
  3.0364850e-01
 -2.5165695e-01
 -1.2507097e-01
 -1.1895318e-01
 -5.2081788e-01
  2.1703769e-01
  6.1630461e-02
  1.5172761e-02
 -7.1098989e-01
 -4.9266833e-01
  4.4750266e-02
  7.1827310e-01
  2.2290936e-02
 -1.0669904e+00
 -5.5738345e-02
 -3.6997551e-01
 -8.7153989e-01
 -1.7000370e-01
 -1.0581362e+00
  3.3831111e-01
 -2.8623459e-01
  3.9251712e-01
 -3.3596957e-01
 -3.3939958e-02
  4.1235336e-03
  4.5525649e-01
 -8.6607563e-01
 -5.9314913e-01
  6.4927220e-01
  3.7248254e-01
 -7.4953258e-02
 -2.9830164e-01
  1.0841666e-03
 -1.6440997e-01
 -3.5659224e-01
  3.1341568e-01
 -2.5185782e-01
 -1.0891796e+00
 -4.6828038e-01
  1.2607156e+00
 -6.1422306e-01
 -3.9924195e-01
  1.0694319e-01
 -1.6648760e-01
 -8.2865044e-02
  3.0795521e-01
 -5.9676990e-02
 -5.8618896e-02
 -3.2627830e-01
 -5.8947438e-01
  7.2307551e-01
  1.4157215e-01
  7.2387666e-02
 -2.9055655e-01
  3.2630205e-01
 -2.0317528e-01
 -2.8792709e-01
 -6.3672954e-01
 -4.5927670e-02
 -9.2481740e-02
 -5.0489224e-02
 -1.7322955e-01
  8.8888064e-02
 -3.2599407e-01
 -2.2137240e-01
 -4.6128747e-01
  4.7192109e-01
  1.3735219e-02
 -1.1843390e+00
 -1.4153907e-01
  2.3653980e-01
  1.5793997e-01
 -1.5462471e-02
 -5.5866444e-01
 -3.6495593e-01
  2.8811589e-01
 -8.8713653e-02
  1.0515506e+00
 -2.8544903e-01
  6.2095803e-01
  2.3042537e-01
 -4.9027511e-01
 -3.8913214e-01
  1.0887162e-01
  7.4015833e-02
  2.9281706e-01
 -5.5141079e-01
  2.4547477e-01
  4.1655833e-01
  3.5839781e-01
 -5.1918519e-01
 -1.2128836e+00
  2.0484373e-02
  5.6986231e-02
  2.4015400e-01
  1.5474948e-01
 -1.3584514e-01
 -4.6786991e-01
  3.3358984e-02
 -1.8993621e-01
 -2.9017401e-01
  1.0690949e+00
  3.8089508e-01
 -1.0507979e+00
  3.9445549e-01
 -4.4022334e-01
  5.7978374e-01
  1.6455049e-02
  1.7282107e-01
 -4.6268255e-02
 -2.9552516e-02
  2.1428964e-01
  2.2345760e-01
 -2.2008768e-01
 -6.1390263e-01
 -5.5573332e-01
 -2.1620965e-01
  2.3360226e-01
 -4.5166022e-01
  4.8706791e-01
 -3.0752219e-02
 -3.3266494e-01
 -2.4414484e-01
  1.8751973e-01
 -4.1465148e-01
  1.0816379e+00
  1.2232579e-01
 -7.8675397e-02
 -8.5546541e-01
 -3.0706754e-02
 -1.7373887e-01
  2.3302747e-01
  8.6856627e-01
  2.8599539e-01
 -1.9309156e-01
  5.2428317e-01
 -4.0656725e-01
  2.6183641e-01
 -4.6887043e-01
 -5.2154768e-01
 -9.1618699e-01
  7.2384912e-01
  1.5074831e+00
  5.3163815e-01
  6.0368848e-01
  1.8128370e-01
 -1.9076715e-01
  5.1802224e-01
  4.7632289e-01
 -1.1220098e-01
  7.1351904e-01
 -2.7705139e-01
 -2.2946080e-02
 -3.2039332e-01
 -8.0276150e-01
  4.8564309e-01
  8.3148383e-02
 -8.8471472e-01
 -3.6892623e-01
  1.6625310e+00
 -3.6492088e-01
  1.0683363e-01
  1.5072699e-01
 -9.9406257e-02
 -1.2906991e-01
  3.2715151e-01
 -1.0681441e+00
 -1.3116470e-01
  1.3722554e-03
 -4.0253678e-01
  4.0477630e-01
 -1.3553247e-01
 -8.2777806e-02
 -1.3371721e-01
 -4.6557310e-01
 -3.7990290e-01
  2.4407080e-01
 -4.0948507e-01
 -3.9083470e-02
  2.2014280e-01
 -2.4062195e-01
 -2.4869291e-01
  4.3498805e-01
 -1.8221219e-01
 -2.1819615e-01
  5.7001412e-01
  2.9355468e-02
 -2.4797377e-01
  3.2563850e-02
  7.5349711e-02
  2.9026935e-01
  3.0225980e-01
 -1.6034812e-01
  6.2263541e-02
 -2.6175568e-01
 -3.0492103e-01
  5.0233269e-01
  7.6144852e-02
 -3.9923787e-01
  7.6866746e-01
  1.6500442e+00
 -1.8818310e-01
 -1.2658125e-01
 -2.6020458e-01
 -1.5153436e-01
 -3.6045444e-01
  2.0607574e+00
  1.0788310e+00
 -5.4611266e-01
  3.8563207e-01
 -3.6506444e-01
 -1.8566608e-01
 -8.7179221e-02
 -1.2337886e-01
  7.2691262e-02
 -2.7150598e-01
 -1.2397500e-01
  3.1729814e-01
 -1.8733572e-02
 -4.0684012e-01
  2.9458109e-01
 -2.9405576e-01
 -5.3099394e-01
 -3.5362694e-02
 -5.1908749e-01
 -2.8275603e-01
 -2.2669353e-02
  4.0455759e-01
  1.7560722e-01
 -3.1464574e-01
 -3.9524999e-02
  2.7332464e-01
 -9.3650073e-04
 -2.8204806e-02
 -4.8790249e-01
  1.5107116e-01
  8.3195740e-01
  3.3420074e-01
  8.4147513e-02
 -1.0734471e+00
 -1.2079760e-01
  7.3162273e-02
  3.5481453e-01
  3.6502889e-01
 -5.6202185e-01
  3.6521189e-02
 -1.3375303e-01
 -3.3197004e-01
 -1.5977715e-01
 -2.0919280e-02
  1.5985006e-01
 -1.9795018e-01
  4.0042393e-02
 -4.0187854e-01
  4.5366507e-02
  3.0658844e-01
  9.8074712e-02
  4.6811649e-01
  1.7829321e-01
  4.5154652e-01
 -2.2814995e-01
  3.5939837e-01
  2.8322570e-02
 -2.5743103e-01
  4.2816244e-02
  7.2884478e-02
 -2.1549901e-01
 -5.0052100e-01
  5.9420246e-01
 -4.8196524e-02
 -2.5836676e-02
 -4.7043610e-01
 -1.7782640e+00
  5.7657444e-01
  1.0818422e-01
 -3.8439777e-01
 -1.1816869e-01
 -5.2781701e-01
 -1.6627887e-01
  2.4526571e-01
  2.9803094e-01
  1.2377282e-01
  1.8671075e-01
  1.7962733e-01
 -1.1443254e-04
  9.0982877e-02
  5.6913978e-01
  6.9601052e-02
 -1.1209453e+00
  3.9136904e-01
 -5.6289762e-01
 -3.1957349e-01
  4.4389355e-01
 -1.4879236e-01
 -1.1095077e-01
  1.3365415e-01
  2.8722283e-01
 -1.5184978e-01
  4.2505819e-01
  6.5997809e-02
 -2.1054676e-01
 -2.6137727e-01
  5.5960870e-01
  1.2959988e-01
  1.2669140e-01
  2.4421018e-01
  1.4204352e-01
 -1.2378010e+00
  2.4415389e-01
 -2.6561701e-01
 -1.3961756e-02
  4.2839694e-01
  1.5057252e-01
  1.0323049e+00
 -2.3418267e+00
  7.9464436e-01
 -2.1685321e-02
 -2.1168131e-01
  3.1526005e-01
  1.2140523e-01
  5.1188797e-01
 -1.9994944e-01
 -3.2881550e-03
  7.4902248e-01
 -4.5315808e-01
  3.9918087e-03
 -2.8125012e-01
  1.6532639e+00
 -4.6783423e-01
 -1.7330278e-01
  3.2624108e-01
  1.7879978e-01
 -1.3751695e-01
 -8.2780577e-02
  3.3077091e-01
 -4.9535170e-02
  3.3509832e-02
 -2.8613809e-01
 -2.4240476e-01
 -2.9981043e-02
 -7.7786922e-01
  7.1271211e-02
  1.5433833e-01
 -1.8985575e-01
  6.3630027e-01
  2.5827640e-01
 -4.5171040e-01
 -2.2240896e-02
 -3.7121123e-01
  3.5238057e-01
  2.8217196e-01
  2.9206559e-01
 -4.3236312e-01
 -6.8939358e-02
 -5.7016727e-02
  7.0455021e-01
  2.2513255e-02
 -9.2783697e-02
  1.6076091e-01
  5.7333523e-01
  3.5981220e-01
 -6.5526921e-01
  2.4878882e-01
 -3.6929414e-01
 -1.1074242e-01
 -3.7188339e-01
  5.3132799e-02
 -5.0208226e-02
  8.7562430e-01
 -2.6556766e-01
  1.3421746e-01
 -8.4948093e-02
  2.5972417e-01
 -4.4782078e-01
  1.6836867e-01
 -8.5691655e-01
  4.8266272e-03
  2.7121711e-01
  3.9713988e-01
 -4.2721754e-01
 -7.7397209e-01
 -2.2459869e-01
 -2.0520502e-01
  1.4861912e-01
 -5.6884414e-01
 -1.4074206e-01
 -5.1481966e-02
  5.1435065e-01
  8.7383425e-01
 -1.3929492e-01
  1.3250533e-01
  2.0032097e-01
  2.8242085e-02
 -3.1080869e-01
 -8.2383561e-01
 -1.1834273e-01
  6.8199599e-01
 -3.5451207e-01
 -1.7052977e-01
 -4.3887448e-01
  3.7496975e-01
  7.9696238e-01
  3.6089033e-01
  1.1133608e-01
 -1.4781043e-01
 -1.4548756e-02
  1.2506728e-01
 -1.2957337e-01
  1.6370089e-01
  4.9921378e-02
 -2.9867001e-02
  8.7038660e-01
  5.2847230e-01
  1.1839852e-02
 -5.2428734e-01
 -2.7339652e-01
  4.8204526e-01
 -6.7283529e-01
  5.1810491e-01
  7.8636006e-02
  9.1525555e-02
 -2.2283936e-01
 -1.2779752e-02
  2.0470327e-02
 -4.6629906e-01
 -1.1465394e-01
 -6.3205516e-01
  6.3085645e-02
  5.6705087e-01
 -2.6214555e-02
 -5.8164173e-01
 -2.3107673e-01
 -1.2316706e-01
 -2.6215798e-01
 -3.3946964e-01
 -3.9154238e-01
  5.6769049e-01
  4.1813132e-01
  1.7131181e-02
 -1.1748328e-01
 -2.0409976e-01
 -5.1190895e-01
  1.8268421e-02
  1.4010531e-01
  2.2938670e-01
  3.4905314e-02
  1.4738190e-01
 -2.7567081e-02
 -7.0632547e-02
 -6.0365289e-01
 -2.6949823e-01
  3.4162867e-01
  2.1179037e-01
 -5.6666023e-01
  2.3499909e-01
 -1.2063110e+00
  9.2508920e-02
 -1.8414874e-01
  8.6496286e-03
  5.5922556e-01
  4.3712482e-03
 -3.9988719e-02
 -6.8125367e-01
  4.2090524e-02
  8.6055398e-02
 -4.8288435e-02
  2.6774707e-01
 -3.8166556e-01
 -2.8798342e-01
 -1.4753400e-01
  2.3608552e-01
 -3.1106669e-01
 -2.6390463e-01
 -1.5058321e-01
 -8.0831403e-01
 -2.4196273e-01
 -2.3688889e-01
 -4.4877353e-01
 -8.3416140e-01
  1.8765266e-01
 -2.8474420e-01
 -2.4599984e-01
  3.6474091e-01
  3.3012909e-01
 -2.5964662e-01
  2.9592291e-01
 -4.3582574e-02
  1.8002190e-01
  4.0939265e-01
 -7.8705050e-02
  1.1106161e+00
 -4.5027927e-01
 -4.3615600e-01
 -1.3372116e-01
  2.7196234e-02
  3.4531501e-01
 -3.1104323e-02
  3.4287207e-02
 -1.1866608e-01
 -3.6367247e-01
 -3.9457968e-01
 -2.3470195e-01
 -3.5181513e-01
 -2.2675863e-02
  9.4114912e-01
 -3.5860498e-02
  1.9850554e-02
 -4.9343020e-01
  3.8961813e-01
  2.5455207e-01
 -1.9815275e-01
  1.9563355e-01
 -1.9812046e-01
  4.5722038e-01
  1.0597626e-02
 -3.9947635e-01
 -4.0921423e-01
  4.7224883e-02
 -1.2889464e-02
 -1.5831697e-01
  1.9237988e+00
  3.3761147e-01
  3.2117647e-01
 -3.8077730e-01
 -8.7867147e-01
 -2.6221105e-01
  1.0969892e-02
  4.0605161e-01
 -4.7188450e-02
  9.2782170e-02
 -1.1168737e-01
  4.8236176e-04
 -1.6329718e-01
 -6.0281461e-01
  4.2668068e-01
  1.7181972e-01
  3.0679330e-01
  4.5568115e-01
  7.2960500e-03
  1.9905150e-01
  3.4124094e-01
  5.3811318e-01
  4.4434428e-01
 -7.9121351e-01
  2.5631684e-01
 -3.4055492e-01
  6.6674054e-01
 -4.6646628e-01
 -4.2651939e-01
 -1.3875584e-01
  1.5807396e-01
  5.6572622e-01
 -2.5812438e-01
  1.1911684e-01
  2.3317042e-01
  3.7732724e-02
  2.7133755e-02
 -5.2169907e-01
  1.5081047e+00
  4.1675499e-01
  7.5435966e-01
  4.9927464e-01
  5.9806663e-01
 -1.3019261e-01
  9.3447194e-02
  1.9788140e-01
 -3.8362861e-01
 -1.3094727e+00
 -7.0398666e-02
 -1.1025432e-01
 -1.9704521e-02
 -4.9187794e-01
 -4.6899267e-02
  2.1440463e-01
 -8.5301682e-02
  7.8257102e-01
  1.5646918e-01
 -3.5296404e-01
 -3.8984876e-02
  3.3198315e-01
  9.5888376e-02
  1.5856538e-02
 -3.7140343e-01
 -9.2265832e-01
  2.7252221e-01
  1.3780650e-01
 -2.0078038e-01
  4.0084681e-01
  7.8693211e-02
  2.4302953e-01
  9.5217600e-02
 -3.5795006e-01
 -7.4525595e-01
  3.1218126e-02
  3.0801414e-02
  4.4475418e-02
  2.6055318e-01
 -1.7877473e-01
  6.5555239e-01
  4.8451266e-01
  1.1492153e-01
  2.5887740e-01
 -3.1713393e-01
  1.4922854e-02
  2.6635894e-01
 -1.3136533e-01
 -6.9425219e-01
 -1.5658306e-01
 -4.2209364e-02
  2.4518114e-01
 -6.7760326e-02
  3.1804377e-01
 -1.0003219e+00
 -7.1993127e-02
  1.9844869e-01
  4.8003858e-01
 -1.3956840e-01
  8.3286434e-01
 -7.0301247e-01
 -8.1680030e-02
 -8.9282997e-02
  7.4642606e-02
  2.7055758e-01
  4.9108857e-01
 -2.8458580e-01
 -5.1513933e-02
  2.3937505e-01
 -7.7558599e-02
 -8.0145471e-02
  1.8815005e-01
  2.6347420e-01
 -2.8650025e-01
 -5.6063026e-02
 -3.1293720e-01
  1.9759877e-01
  1.4062721e-01
  1.6782847e-01
  2.1180850e-01
  1.0121530e-01
  2.6990524e-01
  5.8377063e-01
 -5.1033407e-01
  1.6199666e-01
  6.3637421e-02
  6.1745763e-02
 -2.5585791e-01
  6.0522616e-01
 -3.2170165e-02
  6.2098330e-01
 -2.6930913e-01
  5.7435071e-01
 -1.0709933e+00
 -2.2882269e-01
  1.0357194e+00
  6.1836116e-02
  5.5038327e-01
  2.0572138e-01
 -3.5966682e-01
 -9.8431307e-01
  8.2188749e-01
  3.9370498e-01
  6.9256686e-03
  4.0999961e-01
  2.4973556e-02
 -2.8614625e-01
 -8.3041364e-01
  2.8528073e-01
 -1.7058107e-01
 -3.8370171e-01
  2.6280945e-02
  1.1337025e-01
 -9.5838517e-02
  2.7848926e-01
  6.0284352e-01
 -2.8311053e-01
  2.5319311e-01
  4.6171063e-01
 -6.8431431e-01
  9.5050074e-02
 -4.5494735e-01
 -6.4898714e-02
 -3.6896890e-01
  7.4504977e-01
  2.0555827e-01
  6.8873972e-02
 -1.5345252e-01
 -5.7587966e-02
  3.1324196e-01
 -2.0970187e-01
 -2.9929215e-03
  7.6237088e-01
 -8.1762511e-01
  1.0657609e-01
 -3.9367434e-01
  8.4467500e-01
 -3.6837928e-02
 -2.1111509e-01
  4.4702175e-01
 -1.3910972e+00
  2.7667904e-01
  1.0821238e-01
  2.9159805e-01
  2.7931852e-02
  4.7347143e-02
  8.4350862e-02
 -6.4059472e-01
  6.5148646e-01
 -4.5812860e-01
  8.5119087e-01
  5.9902877e-01
  5.6562778e-02
 -1.2139441e-02
 -1.1323898e+00
 -4.1369176e-01
  7.3241204e-02
 -5.3206545e-01
 -2.3876464e-01
 -2.1157330e-01
 -2.9119369e-01
 -6.7592663e-01
  8.7062740e-01
 -2.1802936e-02
  4.1314337e-01
 -1.1321763e-01
 -4.0824451e-02
  2.2734005e-02
 -4.3378502e-01
  3.1250495e-01
  3.3685967e-01
  1.0832485e-02
  7.1351066e-02
 -2.7887127e-01
 -3.6193144e-01
  7.2953422e-03
 -2.0614339e-01
 -1.5061669e-01
  2.3903131e-01
 -5.3876734e-01
  3.4604572e-02
 -7.3662144e-01
  7.3815960e-01
  6.3790077e-01
  4.3029732e-01
  2.1785957e-01
 -5.1795608e-01
  4.4380043e-02
  1.2984855e-01
  4.5459226e-01
  2.9107788e-01
 -6.5110981e-01
 -2.6370108e-01
 -5.0529259e-01
  5.1798481e-02
 -4.4577369e-01
 -6.4966897e-03
 -4.1563246e-01
  3.0839372e-01
 -1.3715777e-01
 -1.7083552e-01
 -1.2367430e-01
 -1.1332931e-02
 -5.4394659e-02
  5.8735436e-01
 -1.2463439e-01
  4.6416789e-01
 -9.3768649e-02
  2.5007457e-01
 -1.9175798e-01
 -2.9426169e-01
 -4.6703771e-01
 -1.1112618e-01
  4.3373081e-01
  6.7512512e-01
 -2.0213450e-01
  8.4012248e-02
 -9.5261693e-01
 -7.6227450e-01
  2.4381718e-01
 -9.6756989e-01
 -7.6245087e-01
  9.2942957e-03
 -4.9130598e-01
  8.9021951e-01
  2.5956079e-02
  5.4134005e-01
 -2.2625659e-01
 -5.5466002e-01
 -9.8086953e-02
 -7.7628183e-01
 -3.1306106e-01
 -1.6828753e-01
 -4.7221023e-01
 -5.7768482e-01
 -4.4666186e-01
 -2.9591355e-02
  6.3040078e-01
  4.0140808e-02
  2.5281060e-01
  6.1765939e-01
  7.3570251e-01
 -1.1543689e+00
 -9.2599109e-02
 -9.8070130e-02
 -1.0609739e-01
 -5.3302819e-01
  3.7749566e-02
  9.2311352e-02
 -1.1652327e-01
 -1.3881160e-01
 -1.7985791e-01
 -5.3145158e-01
 -6.4167745e-02
 -3.3923909e-03
 -4.7294760e-01
  1.7345479e-01
  4.0338472e-01
 -3.8761723e-01
  1.1445791e-02
  1.1920967e+00
 -4.0108475e-01
  3.7409735e-01
 -5.5905193e-01
  3.4666532e-01
 -4.8227105e-01
 -4.0171593e-01
 -6.7889176e-02
 -2.9957587e-01
 -9.7611111e-01
 -4.1450411e-01
 -4.6947959e-01
  6.4647809e-02
  6.8341440e-01
 -1.6773999e-01
  2.5835216e-01
  3.0164543e-01
  7.9378754e-01
  7.9598850e-01
  3.7934014e-01
  1.3388486e-01
 -1.4773627e-01
 -2.8514659e-01
 -5.1340485e-01
  1.1056896e-01
  4.2749591e-02
  6.3408688e-02
 -3.1682727e-01
 -3.8740528e-01
  2.8904659e-01
 -3.6267892e-02
  6.5124595e-01
 -3.0656617e-02
  1.9098423e-01
  1.0825346e-01
  9.2302904e-02
 -2.1068475e-01
 -1.5384281e-01
 -1.7410511e-01
 -1.6626239e-01
  2.1891075e-01
 -1.1027452e-01
 -4.1768029e-03
  1.4389053e-01
  9.3113440e-01
  3.0594650e-01
 -4.8141152e-01
  6.0684019e-01
 -2.8639516e-01
 -1.2852140e-01
  3.5036278e-01
 -1.4382373e-01
  9.5988065e-02
 -1.2199160e-01
  3.1551141e-01
  4.4986054e-01
  6.1659127e-01
  1.3922207e-01
  1.8388648e-01
 -1.8660675e-01
  3.3349115e-01
 -1.3347769e-02
 -1.6184983e-01
 -6.9087103e-02
 -1.8746691e-02
  4.5921624e-02
 -1.7057517e-01
  1.1303240e+00
  2.4592611e-01
  1.0485061e-01
  1.0068382e-01
  2.4900420e-01
 -3.0982336e-01
  3.0172210e-02
 -5.0537527e-01
  2.0902759e-01
 -2.8955948e-01
 -7.6764338e-02
 -6.0428906e-02
  1.9442226e-01
  5.2859628e-01
 -6.4214662e-02
 -1.9841406e-01
 -5.5240381e-01
  3.9557281e-01
 -1.0920955e+00
 -2.9160643e-01
 -2.3687389e-01
 -5.5134898e-01
 -1.0183764e+00
  7.9305872e-02
 -7.7830672e-01
 -1.5270132e-01
 -2.4900676e-01
 -4.0964946e-02
 -6.6642828e-02
 -5.0699669e-01
 -1.0016284e+00
  7.9794478e-01
  4.6695864e-01
  2.5092773e+00
 -1.9517619e-02
 -1.3380526e-01
  2.2088474e-01
  1.2546480e-03
 -7.1495876e-02
 -8.2991475e-01
 -1.0658947e-01
  1.5557522e-01
 -8.0744588e-01
 -6.7370474e-01
  1.2682053e-01
  8.8941872e-02
 -4.6345833e-01
  6.2430745e-01
 -3.8096532e-01
  1.0178196e-01
  3.0809161e-01
  2.6372170e-01
 -5.4073292e-01
  7.5261754e-01
 -1.8846241e-01
  1.2539004e-01
  2.5651288e-01
 -3.8576303e-03
 -1.9499792e-01
 -3.6338675e-01
 -1.4758217e-01
 -1.4433764e-01
  2.4236578e-01
 -1.3333346e-01
  1.0985557e+00
  1.4502376e-02
 -4.6446311e-01
  2.3991221e-01
  3.0032974e-01
 -7.2339520e-02
 -1.4037807e-01
 -4.6174756e-01
 -3.3431932e-01
 -1.0863408e+00
 -4.8103982e-01
  1.0464286e+00
 -3.6053568e-01
 -1.3797496e-02
 -3.8963929e-01
  5.2213049e-01
  5.0242871e-01
 -5.3618520e-01
 -1.2317643e-02
  4.2740397e-02
  4.9187884e-01
  4.7796801e-01
 -4.7574379e-02
  2.1506348e-01
 -7.3104250e-01
  1.9291043e-01
 -6.7100728e-01
 -7.5155884e-01
 -2.1048529e-01
  2.6405674e-01
  1.1253962e-01
  4.7073081e-01
  1.0332748e-01
  1.2984625e-01
 -1.5581478e-01
 -2.5803462e-01
 -1.9748290e-01
  5.6030792e-01
 -1.6213281e-01
 -9.1446179e-01
 -9.5198072e-02
 -1.4631793e-01
  4.5501789e-01
 -6.8703479e-01
  4.2372787e-01
 -3.4279737e-01
 -1.1088583e+00
 -2.7185282e-01
  5.2004851e-02
 -3.5948694e-01
 -3.9317440e-02
 -2.3204997e-01
  8.8743091e-02
 -2.7206084e-01
  1.0852823e-01
  5.0164878e-02
  7.6368727e-02
  3.4243822e-02
 -6.2543929e-02
  3.0339864e-01
 -4.6372083e-01
  3.4420975e-02
  6.8526268e-01
 -1.2820011e-01
 -2.1551353e-01
 -4.4273108e-01
  2.4192023e-01
  8.8026637e-01
  2.0410037e-01
  2.1021062e-01
 -2.8692150e-01
  2.0015916e-01
 -1.6870880e-01
 -3.3560318e-01
  2.5838682e-01
  3.8051194e-01
  1.9210614e-02
 -5.0295317e-01
  1.4211987e-01
  1.4067337e-01
 -2.8537661e-01
 -7.3906548e-02
  8.8925064e-02
  1.8055487e-01
 -3.1809551e-01
  8.0255795e-01
  1.5048867e-01
 -9.3839580e-01
 -1.4624634e-01
  3.2858497e-01
 -2.5433231e-02
  9.7604476e-02
 -6.8930590e-01
  1.9145519e-01
 -1.2062401e+00
 -3.3212495e-01
  1.4213005e-01
  9.1307908e-03
 -2.1918066e-01
  1.0729886e+00
 -6.1318398e-01
 -5.7989335e-01
 -9.0034139e-01
  7.4845389e-02
  2.1657441e-02
  1.9744460e-02
  1.9190088e-04
 -6.0744184e-01
  2.1973106e-01
 -1.9630072e-01
  8.7710780e-01
 -9.3018636e-02
  1.7197846e-01
  1.4585736e-01
 -4.4250086e-02
  2.2077233e-01
 -6.6445237e-01
 -2.6236886e-01
  9.4087636e-01
 -5.9161800e-01
  3.6499885e-01
 -4.6924176e-03
  4.1907752e-01
 -3.0290043e-01
 -1.4315298e-01
  1.5740915e-01
 -2.5298402e-01
 -9.1690528e-01
  4.0418485e-01
 -6.5774584e-01
 -1.9994035e-01
  2.2260472e-02
 -6.3573140e-01
  1.0160775e-01
  1.0920578e-01
 -4.5763448e-01
  6.3082373e-01
 -5.7724722e-02
  2.7436167e-01
 -5.1090449e-01
 -3.1552795e-01
 -1.4548413e-02
 -5.7673685e-02
 -1.2555367e+00
 -6.1066049e-01
  3.0780807e-01
 -2.4046677e-01
  5.0635073e-02
  6.3701922e-01
 -3.2622911e-02
 -7.2357014e-02
 -3.9553022e-01
  5.7111967e-01
  3.8500351e-01
 -9.8700798e-01
 -5.3676084e-02
  4.9897483e-01
  9.9474780e-02
 -2.0633672e-01
 -1.0107462e-02
  6.3231242e-01
  2.4541534e-01
 -1.8215017e-01
 -4.0847786e-02
  2.1514015e-01
 -3.9716104e-01
  5.8650178e-01
 -2.4787791e-02
 -3.7301129e-01
  6.1860293e-01
  6.9015038e-01
 -5.3664112e-01
 -1.6478749e-01
 -2.2094426e-01
 -6.0276348e-02
  2.1060254e-02
  5.8623105e-01
 -8.6973363e-01
 -7.4799156e-01
 -2.5509161e-01
  1.5719943e-03
 -2.0436908e-01
 -2.9175942e+00
  1.3731141e+00
  3.6584893e-01
 -1.7934591e-01
 -3.6926615e-01
 -1.7352082e-01
  5.4763675e-01
  1.9383638e-01
 -3.9190665e-01
  1.4638859e-01
  2.9173744e-01
  3.8639616e-02
  7.3738895e-02
  2.8662905e-03
 -3.5559264e-01
 -4.2356774e-01
  8.7723203e-02
 -2.0034334e-01
  2.8428113e-01
  1.8927856e-01
 -6.8259016e-03
 -1.5342216e+00
  7.5942534e-01
  1.3518229e-02
 -2.4635389e-01
 -4.0014505e-01
  1.0979085e-01
  6.6058689e-01
  2.6889931e-02
 -1.0294981e-02
  4.1663934e-02
 -2.3588233e-01
  2.0799807e-01
  6.0429946e-02
 -4.1079253e-02
 -5.1279180e-02
 -1.1432893e-01
 -2.7467766e-01
 -3.4746602e-01
 -3.9182976e-02
 -9.2500234e-01
  4.6747577e-01
  2.8063574e-01
  1.8367641e-02
 -1.2109166e-01
 -8.8205016e-01
 -2.1093488e-02
  8.9794435e-03
 -9.7319297e-02
 -2.3960406e-01
 -2.9307592e-01
  2.1014105e-01
  2.9534605e-01
 -1.8831521e-01
 -1.1102117e-01
 -4.0553007e-01
 -2.1018758e-01
  2.4320589e-02
 -1.3309000e-02
 -1.7702532e-01
  5.5214345e-01
  4.9238804e-01
  1.8849459e-01
 -1.4732510e-02
  1.0846218e-01
  8.5145064e-02
  1.3220658e+00
  1.8277755e-01
 -4.5809963e-01
  6.6295400e-02
  2.3482168e-01
 -3.7116191e-01
  3.4237468e-01
  4.2058992e-01
  1.0763301e+00
  6.0107815e-01
 -5.2051514e-01
  1.7356558e-02
 -1.6828424e-01
 -4.8602514e-02
  6.8335617e-01
 -1.2127846e-01
  8.9566194e-02
  8.5538849e-02
  1.4384367e-01
  1.0167962e-01
 -4.3145165e-02
  5.3176022e-01
  1.6878271e-01
 -1.8475279e-01
 -3.8044685e-01
 -1.5141213e-01
 -1.3385965e-02
  6.8208016e-03
  7.9514802e-02
  7.8787863e-01
 -2.8882527e-01
 -7.1297809e-02
  2.7760848e-01
  3.7547082e-01
 -1.1312167e-01
  1.0733476e-01
 -2.2628835e-01
  2.3855824e-02
  1.7383906e-01
 -8.4741020e-01
  1.1218177e-01
  4.7387117e-01
 -5.6626801e-03
 -1.5102072e-01
  4.7364318e-01
  3.5780534e-01
  2.0940368e-01
 -1.1919636e-01
 -4.7339576e-01
  9.7408026e-02
 -5.7428002e-01
  3.4294006e-01
 -5.2860123e-01
  2.5572196e-01
  4.1698247e-01
  4.3564427e-01
 -2.5287962e-01
 -1.3389781e-01
 -3.6410099e-01
 -1.5749486e-01
  2.2784740e-02
 -8.2610868e-02
  7.0567638e-02
  7.4200279e-01
  2.2466632e-02
 -8.1389785e-02
  5.2812552e-01
  3.0661789e-01
  2.5960603e-01
 -1.5611456e-01
 -3.6095050e-01
 -1.2125194e-02
  3.1472734e-01
 -1.6780613e-01
 -2.7882087e-01
  3.3555359e-02
 -9.4544220e-01
  3.9863151e-01
 -7.1827114e-02
 -1.8816872e-01
 -3.4372169e-01
  1.8515481e-01
 -7.7832264e-01
  2.8763184e-01
  1.4475100e-02
 -2.0868297e-01
  1.7369218e-01
  3.6043683e-01
  5.5010378e-01
 -8.5448736e-01
 -2.2244336e-01
 -6.2928766e-02
  4.2909890e-01
 -7.3318273e-02
 -2.6485445e-03
 -4.4352603e-01
  9.0854280e-02
 -5.0925065e-02
  2.1563761e-01
 -2.2632426e-01
  1.3960037e-01
 -1.0240255e-03
  1.1262654e-01
 -5.5955189e-01
 -2.7759506e-03
 -5.3256321e-01
 -1.0736239e-01
  2.9626176e-01
  1.5020165e-01
  9.2683777e-02
 -3.4719551e-01
  1.5179684e-02
  2.6303776e-02
  2.8824374e-01
 -1.0259040e-01
  6.0619289e-01
  1.6432071e-01
  2.2190556e-01
  1.1228307e-01
 -1.8580986e-02
 -2.4706882e-01
  5.6761986e-01
  3.0667281e-01
 -6.6882473e-01
 -4.9561836e-02
  3.5276249e-01
 -5.1611900e-01
  3.4954944e-01
  5.1345807e-01
 -1.4832138e-01
 -1.3935010e-01
  1.7520495e-02
  9.1345415e-02
  3.5192631e-02
 -3.5743895e-01
 -9.8824967e-03
  4.5744655e-01
 -6.0723543e-01
 -1.3797972e-01
 -9.0380281e-02
  7.7377290e-02
 -7.3546392e-01
 -3.3198658e-01
 -4.2382807e-01
  5.0355273e-01
  5.2444100e-02
  7.9905683e-01
  3.1442860e-01
  2.1949269e-01
 -6.1436999e-01
  9.8683313e-02
 -6.4669800e-01
  2.1292576e-01
 -6.3795365e-02
  4.2243186e-01
  8.6218342e-02
 -2.9475549e-01
  2.6525909e-01
 -2.8571609e-01
 -1.3290632e-01
  2.0331666e-03
  8.1650180e-01
  2.4983987e-01
  1.2259169e+00
 -1.9854280e-01
 -2.1411954e-01
  8.8414490e-02
 -5.2138621e-01
 -1.0719070e-01
 -1.3852331e-02
  6.2956625e-01
 -4.8484406e-01
  8.6754525e-01
  5.3093128e-02
 -1.5141428e-01
  2.2656934e-01
  2.2874650e-01
  8.5465588e-02
  3.7837920e-01
  4.0043786e-01
 -6.8144999e-02
 -1.7734408e-01
 -3.6709005e-01
 -3.2258898e-01
 -1.0305364e+00
  1.0399904e-01
 -3.9674279e-01
  2.9605031e-01
  4.0143174e-01
 -9.7310849e-02
 -5.0058293e-01
 -3.9385843e-01
 -1.3880020e-01
 -7.4232590e-01
  3.7495069e-02
  3.9441165e-01
 -1.9040754e-01
  3.4094596e-01
  2.2048162e-01
 -2.5841513e-01
 -3.6596966e-01
 -1.0506753e-01
  1.3381293e-01
  3.6026940e-01
  3.4317082e-01
  2.3273933e-01
  5.0215310e-01
 -5.9590226e-01
  7.5775072e-02
  3.9811366e+00
 -5.1230133e-01
  4.9230129e-01
 -9.6228707e-01
 -2.3644342e-01
  4.3976575e-01
  2.3752891e-01
 -2.6177847e-01
 -1.9119474e-01
  7.9134309e-01
 -1.8905941e-01
 -2.9095650e-01
 -5.4927999e-01
 -2.2009236e-01
 -2.8885284e-01
  3.4444094e-01
  7.6852851e-02
  4.9217675e-02
 -2.4384846e-01
  1.6944756e-01
  7.7778734e-03
  4.5620808e-01
  6.2058270e-01
  2.4205412e-01
  5.4409361e-01
  1.9705088e-01
  8.4917191e-03
 -5.4601848e-01
  9.6611872e-02
 -1.2986173e-01
  7.2673850e-02
  4.7648096e-01
 -3.8481200e-01
 -5.0167346e-01
  8.6169124e-02
  8.4337518e-02
  1.1938965e-01
  3.7582468e-02
 -3.0219939e-01
  7.5274825e-02
 -5.1437420e-01
  2.2203884e-01
  2.0926374e-01
  4.9643397e-01
 -2.4263968e-01
 -3.0925786e-01
  3.0361724e-01
 -1.6258080e-02
  1.2500522e-01
 -1.3239883e-02
 -8.3591804e-02
  1.9704197e-01
 -5.2800059e-01
  2.9696721e-01
 -1.7318326e-01
 -1.1393778e-01
 -8.3585268e-01
 -5.3873148e-02
  5.4699707e-01
 -7.4891824e-01
  5.2350688e-01
 -1.3605191e-01
  3.4569985e-01
  8.5512328e-01
  6.1465371e-01
 -4.3193780e-02
  8.5543430e-01
 -1.5888290e-01
  3.1532562e-01
  3.9485756e-01
 -3.8799652e-01
  9.2002749e-02
  3.3904406e-01
  9.2744505e-01
  9.7957486e-03
 -6.0720664e-01
 -1.6195731e-02
 -1.5968445e-01
  2.9754573e-01
  2.7992386e-01
  2.8677824e-01
  5.0550622e-01
 -8.8855374e-01
 -1.5002568e-01
 -3.7408063e-01
  1.0645098e-01
 -3.6112949e-01
  9.8346001e-01
 -6.8034345e-01
  3.2431817e-01
  5.1885468e-01
  1.0876230e-01
 -2.2986424e-01
 -4.7927892e-01
 -7.5687313e-01
 -7.9592931e-01
  7.9732805e-02
 -8.5598338e-01
  3.4583867e-02
  8.0145173e-02
 -2.3990314e-02
 -1.4117695e-01
  1.1825582e-01
 -4.4291669e-01
  3.3539090e-01
 -1.1466952e-01
 -1.5009946e-01
  5.6516176e-01
 -9.8444849e-01
 -5.3908718e-01
  5.4950631e-01
  4.6850798e-01
  6.2495965e-01
 -5.5157381e-01
  6.0920477e-01
 -1.3610455e-01
 -8.0628939e-02
 -1.3125725e-01
  1.6270388e-02
  1.2385996e-01
 -7.3647670e-02
  1.4955667e-01
 -6.1334056e-01
  1.1365097e+00
  1.0576324e-01
  3.2267776e-01
  1.5084207e-01
  6.3380307e-01
 -4.8283404e-01
  6.0423392e-01
  3.3318520e-01
 -1.7133331e-01
 -4.7692952e-01
 -4.9738953e-01
 -2.4689813e-01
  4.0983507e-01
  1.0871430e-01
  1.2896506e-01
  2.8273737e-01
 -3.6051711e-01
  1.0091852e-01
 -8.1018664e-02
 -2.1904187e-02
  2.7704483e-02
  2.3649666e-01
  4.8526669e-01
  1.4361005e-01
  1.3104346e-02
 -8.9168020e-02
 -1.8714637e-01
  2.8747225e-01
 -3.9009640e-01
  6.0479384e-02
  1.2664275e-01
  6.3225651e-01
  1.2025230e+00
  1.5995526e-01
 -5.0339425e-01
 -4.5122303e-02
 -4.6151377e-02
  3.7220708e-01
  1.1734942e-01
 -3.6117351e-03
  8.3696181e-01
  5.2652651e-01
  5.6335405e-02
  6.6610426e-02
  6.4934209e-02
 -4.4039798e-01
 -1.0789284e-01
 -1.4775540e-01
 -2.1482621e-01
 -6.6116703e-01
 -3.0638903e-01
  5.2565187e-01
  3.3797096e-03
 -4.2810819e-01
  1.3741370e-01
  1.0928854e+00
 -2.7693209e-01
 -4.2211285e-01
 -1.6794036e-01
  5.6865379e-02
  1.3180694e-01
 -3.5158500e-01
 -7.5207990e-01
  2.4841258e-01
 -1.8227252e-01
  5.3649154e-02
  3.0816421e-01
 -4.4986796e-01
 -7.8706376e-02
  6.0374552e-01
 -2.7390280e-01
  4.8180717e-01
 -6.0602611e-01
  6.2145226e-02
  3.0591272e-02
 -1.4268439e-01
 -2.9859447e-01
 -5.1647658e-05
  4.2240971e-01
 -1.9553386e-01
  2.1867369e-01
 -3.4124908e-01
 -2.4242226e-02
 -5.3913587e-01
  5.4525590e-01
  9.7639298e-01
  9.4336189e-02
 -8.6825207e-02
 -4.1667745e-01
  1.5932672e-02
  5.1174706e-01
 -7.4399549e-01
  5.2008009e-01
  1.6284475e-01
  5.1023805e-01
  4.7378191e-01
 -8.5560955e-02
  3.8531899e-01
  1.9151896e-02
  3.7164104e-01
 -1.6677731e-01
  4.8206574e-01
 -3.7125757e-01
  4.5604154e-02
 -8.7464884e-02
 -1.7389950e-01
  3.0474624e-01
  3.2476321e-01
 -6.4113599e-01
  8.3675909e-01
 -2.1007925e-01
  5.3305167e-01
  9.6309125e-02
  4.6777600e-01
 -5.8703993e-02
  1.7147399e-01
 -1.0566462e-01
 -3.6831611e-01
  8.8388495e-02
  1.6077077e-01
 -4.0378386e-01
 -2.9856455e-01
  2.9146799e-01
  1.4177009e-01
 -2.0285596e-01
 -3.4654543e-02
  5.4463047e-01
 -1.9436282e-01
 -2.8166568e-01
  7.3476368e-01
  2.5913209e-01
 -5.0170964e-01
 -3.7737069e-01
  4.5405692e-01
 -8.3043620e-02
  6.8527186e-01
  8.2209277e-01
  1.9627461e+00
  2.2235888e-01
 -5.0179625e-01
 -5.6209199e-02
  5.8158733e-02
  1.2959638e-01
 -2.5935814e-01
  4.1096491e-01
  1.3138028e+00
 -3.0822054e-01
 -4.6332729e-01
 -4.2102015e-01
  2.0001382e-03
 -5.2275926e-01
 -3.7750576e-02
 -1.0535704e-01
 -7.8418836e-02
 -2.9902521e-01
  1.2168366e-01
 -5.4218650e-01
 -2.5130995e-02
  6.2923110e-01
  4.3748251e-01
  4.2842862e-01
 -4.7195867e-01
  1.0846488e-01
 -3.9607838e-02
 -1.0707647e-01
  9.7280955e-01
  7.9002398e-01
  8.0424502e-02
  6.7459077e-01
  1.7084673e-01
 -4.8894411e-01
 -4.8843476e-01
 -3.1115931e-01
  4.7285381e-01
 -3.2601646e-01
  2.6213560e-01
  9.6032238e-01
  1.1709757e-02
  1.7072387e-02
  1.3740584e-01
  3.1578028e-01
 -1.4934185e-01
  6.1549717e-01
 -6.1999932e-02
 -1.8312110e-01
  2.5767690e-01
 -1.9875243e-01
  1.4948058e-01
 -7.4351698e-02
 -7.9293564e-02
 -1.3888833e-01
 -2.8023198e-01
  2.8874584e-02
  3.7395778e-01
 -4.5356989e-01
  1.3032202e-02
  6.0602528e-01
  3.1955335e-01
 -5.3576101e-03
  4.3327397e-01
  2.3273760e-02
 -1.0097600e-01
  3.6067098e-01
 -2.3535047e-01
 -3.8686194e-02
  9.9962475e-03
 -1.0827239e-01
  1.0237511e-04
  2.1491009e-01
 -1.8434279e-01
 -2.2457162e-01
  5.3000194e-01
 -1.4930356e-01
 -1.9264357e-01
  3.2599986e-01
  5.2952766e-01
 -2.7441728e-01
  4.6579983e-02
  2.8790551e-01
 -3.1152281e-01
 -1.2254743e-01
  1.0591625e-01
  6.1953425e-01
 -3.8702562e-01
 -1.8004404e-01
 -2.8582352e-01
  4.2846553e-02
 -2.1696237e-01
  7.3607022e-01
 -3.3371499e-01
  6.3856059e-01
  2.4967389e-01
 -5.1711422e-01
  2.9189554e-01
  3.4941864e-01
 -1.9868988e-01
 -3.1845365e-02
  2.7343714e-01
 -2.0645164e-02
  1.1010133e-01
 -1.5771239e+00
  1.2542680e-01
  2.2592321e-03
 -4.3021652e-01
  2.3421498e-01
 -2.5882252e-02
  1.0977043e-01
 -1.6575792e-01
 -7.8010269e-02
 -2.7613047e-01
  6.3019675e-01
 -3.3442107e-01
 -9.1227435e-02
 -1.1550871e-01
  2.9632160e-01
 -7.5347066e-01
  1.6495645e-02
 -2.4933100e-01
 -4.7547072e-02
 -8.1285588e-02
  1.7166431e-01
 -6.8755734e-01
  4.1152278e-01
  6.8068898e-01
  5.2539879e-01
  1.9800676e-01
  7.7169275e-01
 -6.3284747e-02
 -3.7480450e-01
 -5.8882996e-02
 -8.8734806e-02
  5.5598474e-01
 -2.2931799e-01
 -1.9319879e-01
  1.6885450e-01
 -3.5732914e-02
  1.2397478e+00
 -2.8353930e-01
  6.1209446e-01
  5.3285033e-01
 -5.3376669e-01
  9.5391683e-02
 -3.1863198e-01
 -5.2857494e-01
  2.0035212e-01
 -2.1055344e-01
  8.3580047e-02
 -4.4065803e-01
  8.5846961e-01
  9.9946225e-01
 -2.7649224e-02
  2.2031932e-01
 -3.3269870e-01
 -6.5140612e-02
  1.1827167e+00
  2.3045441e-02
  1.7287597e-02
 -2.9647377e-01
 -6.5982327e-02
 -2.0508854e-01
  4.2090543e-02
  1.0683950e-01
 -7.6443326e-01
 -1.4322889e-01
  4.3738958e-01
 -2.9153126e-01
  4.2924482e-01
  2.8701797e-01
 -2.5248906e-01
  1.1886658e-02
  1.3553798e-01
  5.6072527e-01
  7.4729234e-02
 -1.2232608e-01
  3.0444592e-01
  1.6675750e-03
  2.2608528e-01
  1.3410661e-01
  2.6350716e-01
  1.0864571e-02
  1.0536569e-01
 -2.3310024e-01
  6.2294051e-02
  8.9223132e-02
  2.0376810e-01
  1.3084499e+00
 -6.7492461e-01
  2.9971379e-01
 -2.5794616e-01
  5.2381020e-02
 -1.2002266e-01
 -3.4675425e-01
 -7.1057148e-02
  4.4974376e-02
 -1.9136598e-02
 -5.5537736e-01
  1.4382827e-01
 -4.7471859e-03
  3.2420474e-01
 -8.6888708e-03
  4.3622017e-02
  1.3987171e-02
 -2.6209161e-01
 -4.7125155e-01
  4.5706344e-01
  5.0606087e-02
 -2.5386018e-01
 -6.2437959e-02
  1.7086321e-01
  1.8034896e-02
  6.1566406e-01
  4.5254722e-01
  1.3614616e-01
  6.8041199e-01
 -1.3709578e-02
  6.7988831e-01
 -5.8000773e-01
  3.5957184e-01
 -1.3610759e-01
  5.2892280e-01
  6.1315194e-02
  3.5624290e-01
  5.2921087e-01
  3.5956234e-01
  7.0601755e-01
  5.0700480e-01
 -1.1197717e-01
  1.2422394e-01
  6.7227870e-01
 -3.4469193e-01
  2.2387715e-01
  1.8838331e-01
  1.1054748e-01
 -1.3574253e-01
  3.9056465e-01
  9.0693556e-02
  3.9586464e-01
  8.3368346e-03
  1.5860786e-01
 -5.9860274e-02
 -4.8995796e-01
 -1.4334850e-01
 -5.0883186e-01
  2.1394417e+00
 -5.9667379e-01
 -7.0491606e-01
 -8.2863569e-01
  1.4188474e-01
 -1.5761797e-01
 -1.3920029e-01
  3.0011374e-01
  1.2078699e-01
  5.9922081e-01
  6.5948114e-02
  1.1152411e+00
 -7.6426733e-01
  7.0635170e-01
 -4.8570701e-01
 -8.3114006e-02
  2.5539866e-01
 -1.1970842e-01
 -6.8182513e-02
 -2.1490373e-01
 -5.3233677e-01
 -2.8543204e-01
  5.8338773e-01
  4.3272853e-01
 -5.2141577e-01
 -3.7557927e-01
  5.9770931e-02
  9.5588315e-01
 -5.3844255e-01
 -2.5426466e-02
 -6.7227334e-02
  1.5514711e-01
  1.9832729e-01
 -2.6701295e-01
 -3.4784016e-01
 -4.3377480e-01
  9.4325468e-02
 -1.1094265e+00
 -2.6518250e-01
  5.5305552e-01
 -4.3574721e-03
  1.0418354e-01
 -1.0647908e-01
  9.6769728e-02
  4.2081246e-01
 -8.5216537e-02
  3.0414637e-02
  5.3058302e-01
  5.3865325e-01
 -3.3812547e-01
 -1.6396987e+00
  9.5969099e-01
  6.9332308e-01
 -2.6810804e-01
 -2.5203136e-01
 -3.3238393e-01
 -2.8845361e-01
  4.4852695e-01
 -1.1851387e-01
 -6.3942415e-01
  7.8263864e-02
 -1.6890323e-01
 -3.0414712e-01
  2.6053179e-02
 -1.4834881e-01
 -2.3419370e-03
 -5.1632404e-02
  6.4986981e-02
  6.5215662e-02
  3.1783387e-02
 -7.1449384e-02
 -3.9778823e-01
  2.8177294e-01
 -4.7571582e-01
  9.5999026e-01
 -8.7366171e-02
  3.5990852e-01
  2.3133759e-01
  1.1074229e-01
  8.6570710e-02
 -6.5611482e-01
 -5.7601005e-01
  7.7638394e-01
  2.8013611e-01
 -8.5925925e-01
 -6.7374751e-02
  5.2483860e-02
 -2.7532446e-01
  1.4546986e-01
  5.9656000e-01
 -9.0196609e-02
 -6.4483851e-01
 -1.9453037e-01
 -1.2883791e-01
  1.4595163e-01
 -1.8340275e-01
  2.4618480e-01
  2.1267906e-01
  6.6436738e-01
 -1.4956988e-02
  8.9818275e-01
  1.6406269e+00
 -4.7995096e-01
  1.0860388e+00
 -8.5510617e-01
  7.4995852e-01
  1.0302361e+00
  5.6375381e-02
 -5.6872439e-01
 -3.5455093e-01
  1.5299937e+00
  2.6634923e-01
 -4.6187401e-01
  6.1532754e-01
 -5.2436255e-04
 -4.5494390e-01
  7.9248077e-01
 -7.8573716e-01
  7.2099365e-02
 -6.5458435e-01
 -5.8569372e-01
  1.0025642e+00
 -6.9938868e-01
 -1.2319465e+00
 -2.8560710e-01
 -7.7812457e-01
  6.3860714e-01
  5.0384927e-01
 -1.3764496e-01
 -2.5308549e-01
  6.3837028e-01
 -8.3913684e-01
 -6.9975352e-01
  5.0365269e-01
 -1.4028561e-02
  3.7384674e-01
 -7.2176009e-01
  2.9387513e-01
  1.2431312e-01
 -1.0307031e+00
 -3.7575877e-01
  1.1124043e+00
 -1.8955173e-02
  1.8611752e+00
 -3.7536452e+00
  1.5585419e+00
  2.7996876e+00
  2.9834405e-02
 -7.7374190e-01
 -1.9198493e+00
  1.9678448e+00
  4.8639953e-02
 -1.3367093e+00
  1.2889224e+00
  8.9109421e-01
 -2.1565324e-01
  3.9116544e-01
 -8.9811158e-01
 -1.9582255e-01
  6.1008227e-01
 -5.9332926e-02
  4.9453285e-01
 -4.7207603e-01
 -1.6528732e+00
  7.9307979e-01
 -2.1393566e+00
  1.1647809e+00
  1.0360589e+00
 -2.0809082e-02
  4.0944549e-01
 -2.6432782e-01
 -1.8693476e+00
 -3.5678881e-01
  9.3495536e-01
 -7.0317227e-01
  2.1164492e-01
 -4.8056591e-02
  1.2876797e+00
  5.6048226e-01
 -8.4689818e-02
 -1.4097167e+00
  8.6662084e-02
  7.9056770e-01
  5.6224979e-02
  1.5791722e-01
 -2.7115378e-01
  2.3199828e-01
  5.6967223e-01
  9.0247467e-02
  7.0855480e-01
 -5.6586340e-02
  2.2148837e-01
  6.6280760e-02
 -8.1675309e-01
  1.2093557e-01
 -1.4836131e-01
  7.5116113e-02
 -4.4853967e-02
 -3.1445205e-01
 -1.8121150e-01
  1.6930324e-01
 -2.3734462e-01
 -9.7612686e-02
  6.2214029e-01
  5.2011129e-02
  2.3498112e-01
 -1.4464924e-01
 -4.6605214e-02
 -6.7355686e-01
 -1.3177110e-01
  9.4500566e-01
 -1.6379625e-01
  4.0473527e-01
  1.2790326e-02
 -9.1644943e-02
 -2.5641486e-01
  3.3637515e-01
  1.5918659e-01
  6.1132267e-02
  2.6722246e-01
 -2.5418933e-02
 -6.8844296e-02
 -5.9496146e-01
  2.6652217e-02
  2.3073986e-02
 -1.1796604e-01
  3.2179195e-01
  1.0689360e-01
 -2.0290250e-01
  1.3813785e-01
  6.8024933e-02
  4.8227227e-01
 -6.6992050e-01
 -1.5106496e-01
 -6.9490001e-02
  4.9195671e-01
 -3.3419719e-01
 -8.2347780e-01
 -1.0226352e+00
 -9.1114186e-02
  4.7605631e-01
 -1.3206723e-03
 -1.3961965e+00
  4.4055957e-02
 -6.1269037e-02
  5.5288553e-01
 -1.1099561e-01
 -2.3744760e+00
  5.3024292e-01
  4.2070907e-01
 -9.7806787e-01
  5.9067214e-01
  3.2958630e-01
  2.9777402e-01
 -8.1018656e-01
 -1.4805120e-01
 -2.5614649e-01
 -3.3858725e-01
  5.1304376e-01
  6.7316294e-01
 -1.1833376e-01
 -2.2355512e-01
  5.2000022e-01
  1.7474563e+00
  7.0344232e-02
 -1.1842217e+00
 -4.4250721e-01
 -1.0525297e+00
  2.1955444e-01
  2.6330996e-01
  1.0474792e+00
 -6.6420275e-01
  1.1566902e+00
 -4.2717871e-01
  5.7440823e-01
  9.9812585e-01
 -3.6370733e-01
  4.6460371e-02
  1.3102230e-02
 -9.5339632e-03
  1.8185322e-01
  3.9152339e-02
  4.0917203e-01
  8.8282302e-02
  1.1539723e-01
 -3.6484946e-02
 -4.6474466e-01
  1.8486792e+00
 -3.6062422e-01
 -1.1516979e-01
 -5.4144096e-01
 -1.0517179e+00
 -1.3268733e-01
  3.3839047e-01
 -5.8222842e-01
 -9.1847616e-01
 -2.1911693e-01
  4.7974080e-02
  4.5429671e-01
  1.1014954e+00
 -3.4324902e-01
 -8.1408978e-01
 -1.3235186e-01
  1.5789919e-01
 -3.1039407e-02
 -9.5709205e-02
  4.4889826e-01
  3.0365911e-01
 -5.7601714e-01
 -9.8249443e-02
  1.3787328e-01
  1.3350908e-02
 -9.7167701e-02
  1.8181626e-01
 -4.3390644e-01
  1.5751147e-01
 -3.1991798e-01
  3.2591474e-01
 -1.6622606e-01
  1.2875003e-01
 -3.8903676e-02
 -1.5187667e-01
 -6.0057450e-02
  3.8706881e-01
 -5.9824694e-02
  4.2527139e-01
 -4.8266885e-01
 -7.5365186e-02
  1.3738908e-01
 -1.1235527e-01
  3.1262383e-01
 -3.5525006e-01
  2.1876195e-02
 -2.2746988e-02
 -1.4491636e-01
  3.2039139e-01
 -1.7262299e-01
 -2.1733423e-01
 -1.0341583e-01
 -1.4867516e-01
  9.4116753e-01
 -7.5086638e-02
  4.1437206e-01
 -2.2899522e-01
  1.5399912e-01
  9.2663720e-02
  4.7061551e-01
  3.4148887e-01
 -6.5432984e-01
 -1.0742611e+00
  1.6146374e-01
 -1.4548917e-01
 -8.2860559e-02
 -5.7360280e-01
  1.6956612e-02
 -1.7531687e-01
  1.3768198e-01
  4.8319392e-02
  6.7080721e-02
  2.3676597e-02
  1.4448191e-01
  6.2858626e-02
  6.9565284e-01
  8.8404775e-01
 -9.4249159e-02
  2.9231450e-01
  2.3305361e-01
  2.2062227e-02
 -1.2014006e-01
 -8.0597329e-01
  3.4824708e-01
  2.9213780e-01
  1.5226683e-01
  6.8826652e-01
 -2.2895038e-02
 -7.1649536e-02
 -4.4052623e-02
  5.7160538e-01
 -6.6834706e-01
  4.0777653e-01
  8.6321555e-02
 -6.0232079e-01
  3.0656636e-01
  7.6554380e-03
  5.0021070e-01
  1.6540129e-01
  3.5525107e-01
 -5.7190943e-01
  2.7508169e-01
  9.0919733e-03
  3.5283872e-01
  1.0683918e+00
  3.6319092e-01
  1.9034277e-01
 -6.1579901e-01
  1.8692476e-01
 -7.4294761e-02
  2.2851183e-01
 -4.1701591e-01
  5.1419997e-01
  5.2206498e-02
 -1.3821111e+00
 -1.7333281e+00
 -5.4745871e-01
  3.3341786e-01
 -2.0321715e-01
 -5.9044755e-01
 -5.5463725e-01
 -6.8057293e-01
  1.5364499e-01
 -6.1422050e-01
 -5.5057496e-01
  3.1197557e-01
 -7.8866166e-01
  3.7082681e-01
 -4.6713954e-01
 -1.5490803e-01
  6.6183910e-02
 -1.8903656e-01
  1.8542431e-02
 -2.4896155e-01
  3.3773434e-01
 -1.4009950e-01
  3.9914799e-01
 -1.5162498e-01
  3.8779068e-01
 -5.1753604e-01
 -1.1637665e+00
 -2.9751220e-01
 -8.8504165e-01
 -4.7734472e-01
  6.8950522e-01
  2.0165364e-01
  1.4894223e-01
 -7.4296123e-01
  1.1931200e-01
  2.0305619e-01
  7.2156107e-01
 -1.3833543e+00
 -1.8092761e-02
 -3.8807085e-01
 -9.7968602e-01
 -2.4907230e-01
 -3.9368206e-01
 -3.9457418e-02
  5.6504589e-01
 -1.0100131e-01
  1.9979027e-01
 -7.6121569e-02
  4.9128467e-01
  1.0327007e-01
  2.3202881e-01
 -2.5165215e-01
 -6.7337030e-01
  1.1816280e+00
  3.8411692e-01
 -5.4128873e-01
  5.4361397e-01
 -3.3194068e-01
  9.7205028e-02
  3.6023644e-01
 -6.8305001e-02
 -2.4222256e-01
 -3.1810161e-01
  1.9263306e-01
 -8.1739336e-02
 -1.5647224e-01
  1.1990984e-01
  1.6158208e-01
  5.2628809e-01
  3.4607676e-01
 -1.5103658e-01
 -6.1627861e-02
 -1.7264090e-02
 -7.5447485e-02
 -9.2839442e-02
 -1.0600299e-01
 -3.5172644e-01
  5.6599224e-01
 -2.7739632e-01
  2.8585400e-02
  4.8632354e-02
 -3.6096525e-01
 -3.1737691e-01
 -2.9993439e-02
 -1.1090978e+00
  7.8880973e-02
  2.3736408e-01
  1.7247255e-01
 -5.6846476e-01
  1.3975398e-01
 -6.5245576e-02
  7.1010247e-02
 -5.4624742e-01
  2.4054421e-01
 -1.1182745e-01
 -4.6014407e-01
  3.7977958e-01
  9.3517125e-02
  1.5638171e-02
  5.2464271e-01
  4.5730162e-01
 -2.2375797e-01
 -6.1343074e-01
  1.4867449e-01
 -9.8396719e-02
 -1.1092304e-01
  5.8926654e-01
  4.5124143e-01
 -4.6874806e-02
  5.9288400e-01
  3.2523194e-01
 -3.1851271e-01
 -2.2426152e-01
 -9.8172772e-01
  2.7491251e-02
 -1.7364269e-01
  2.9108271e-01
  1.8456839e-01
 -3.7675142e-02
 -1.5591331e+00
  1.7110987e+00
  7.8328556e-01
 -2.6573795e-01
  1.6114080e-01
  2.6755854e-01
 -4.6514305e-01
 -5.3801816e-02
  4.0800977e-01
 -2.3937757e-01
  1.1700872e-02
  9.5159662e-01
 -7.9075145e-03
 -9.4348115e-01
  9.3446165e-02
  2.1083917e-01
 -4.7732127e-01
 -9.4569683e-02
 -2.8681377e-01
 -9.2737056e-02
  6.3402689e-01
  2.6644450e-01
 -4.8951447e-02
  1.8162839e-03
 -4.4038016e-01
  3.0506638e-01
  2.6399810e-03
 -1.5157969e-01
 -2.4935390e-01
  4.9250564e-01
 -1.9616100e-01
 -2.4616718e-05
  1.6912942e-01
  1.0641523e-01
  1.5168202e-01
 -6.0119784e-01
 -7.0291504e-02
  4.5095913e-02
 -6.8691212e-01
  1.3330369e+00
  8.8944323e-02
  2.6834860e-02
 -2.8916443e-02
 -1.2218854e+00
 -2.5761509e-01
  6.7452334e-02
  6.8852627e-01
  3.1615000e-02
  1.3521773e-01
  2.9201362e-01
 -2.8690538e-01
 -2.2415857e-01
  2.8748888e-01
 -2.2645874e-01
  4.5917326e-01
  3.8062152e-01
 -8.4492475e-02
  1.1653210e-01
 -4.9755058e-01
 -1.0132077e-01
  2.7766618e-01
  4.7832984e-01
  4.4335860e-01
 -5.1795769e-01
 -2.3482504e-01
 -3.4042498e-01
  6.1087447e-01
  7.5319582e-01
 -3.6296374e-01
  1.4276062e-01
 -2.1124971e-01
 -4.1814369e-01
  1.1831450e-01
 -1.4380273e-01
  3.3062667e-02
  5.5531049e-01
 -1.0001688e-01
  1.3817203e-01
  1.6827972e-01
  6.2435782e-01
  2.5280127e-01
 -2.5623083e-01
 -8.7069219e-01
  1.3267417e-01
  3.8704750e-01
  3.9486390e-01
 -4.8916161e-01
  1.7996274e-01
 -8.4296174e-02
 -1.4963043e-01
 -1.3789956e-01
 -1.0934992e-01
 -2.3003368e-02
  1.1904479e-01
  6.1255717e-01
 -1.0142783e+00
  8.3173740e-01
  2.1056626e+00
  5.3709674e-01
  1.2796143e+00
  8.9091033e-01
 -1.7419402e-01
  2.8132153e-01
  1.5120545e-01
  3.2543096e-01
  3.5806969e-02
 -2.8361896e-01
  4.6574289e-01
  3.2619154e-01
  2.8189099e-01
 -9.5597267e-02
 -1.2102726e-01
  1.9484046e-01
  6.0168564e-02
 -3.5617864e-01
 -6.6251457e-01
 -1.9975674e-01
 -1.4627174e-01
  3.3270362e-01
  1.7983358e-01
 -5.3272825e-01
 -9.9119610e-01
  1.2393737e+00
 -4.5554501e-01
  1.8401796e-01
  8.0153179e-01
 -1.1824670e+00
  6.4883597e-02
 -2.8306785e-01
  4.1774830e-01
 -2.9289367e-02
  7.7542406e-01
 -9.8222125e-01
  2.5383630e-01
  4.0745759e-01
  2.1721153e-01
 -1.2705883e-01
 -7.2345537e-01
 -1.0786688e+00
 -2.5539285e-01
 -6.3917857e-01
 -1.5345685e-01
  6.1000228e-01
 -1.8819912e-01
  1.0680425e-01
  4.0964711e-01
 -5.3811711e-01
 -3.0283222e-01
  3.2701898e-02
 -1.6936983e-01
  7.9246438e-01
  6.6507983e-01
 -5.1883277e-03
  1.1591262e-01
 -8.1710076e-01
 -2.6038239e+00
 -9.9419422e-02
  9.3109846e-01
 -5.8123685e-02
 -6.0178053e-01
 -1.8912095e-01
  2.8031310e-01
  2.8664765e-01
 -4.5583513e-01
  7.1468651e-01
 -3.4020567e-01
 -4.4949505e-01
  1.6200280e-01
 -1.7231302e-01
 -5.2327400e-01
  8.6703324e-01
  3.7007162e-01
 -9.4520974e-01
 -1.2789656e-01
 -4.0504366e-02
  4.1061354e-01
  4.9557778e-01
 -5.4482955e-01
 -2.2920814e-01
  5.2903276e-02
  6.6178912e-01
  4.5025682e-01
 -3.6224979e-01
  1.9335048e-02
  9.5601827e-01
 -8.6616026e-03
 -6.4215821e-01
 -4.4897684e-01
 -2.8646898e-01
 -5.0115597e-01
  8.9390546e-01
  8.5357845e-02
  6.1387580e-02
 -4.0498996e-01
  1.8734649e-01
  4.8366189e-01
  2.5984728e-01
 -1.2028991e-01
  1.7862006e-01
  1.1809091e-01
  2.6537693e-01
  4.9842048e-01
 -1.7276855e-01
 -5.6756113e-02
 -1.0425066e+00
 -1.3260336e-01
 -3.0503692e-02
 -2.3865705e+00
  3.2307304e-02
  2.0719619e-01
  3.3468553e-01
 -2.8817397e-01
 -4.1547678e-03
  4.8470396e-01
 -5.0068390e-01
  2.7564917e-02
 -8.6088657e-02
  1.2325742e-01
  3.1272641e-01
 -4.1328233e-02
 -1.3503221e-01
 -7.8306305e-01
 -1.7323610e-01
 -6.9242066e-01
 -4.9673206e-01
 -2.2010224e-02
 -2.3220369e-01
  9.7810316e-01
 -3.6758676e-01
 -2.0196757e-01
 -3.1088490e-02
  3.4924254e-01
 -7.4842386e-02
 -6.0903919e-01
 -2.0511559e-01
 -3.5320112e-01
 -4.2553878e-01
  2.4883837e-01
 -2.0885948e-02
  3.3584717e-01
  3.7673229e-01
 -3.4543073e-01
  1.4491293e-01
  7.1215725e-01
  8.4438600e-02
 -2.1875975e-01
  1.8719597e-01
 -2.2319327e-01
  8.9605831e-02
  1.0111047e-01
 -9.7553805e-02
 -6.2063131e-02
 -4.3399164e-01
 -1.1473319e-01
  3.6593542e-01
 -2.1427731e-01
 -2.5406387e-01
 -9.3541563e-01
 -7.2355902e-01
 -2.0657861e-01
  1.1026495e+00
  9.4641715e-02
  3.8805395e-02
 -4.9546409e-01
  2.4774666e-01
 -2.6823288e-01
 -3.2198855e-01
  1.2746328e-01
  6.1244833e-01
 -6.5678880e-02
 -2.1233451e-01
  1.1889249e-01
 -3.9760184e-01
  5.8470979e-02
 -9.0052597e-03
  1.1707491e-01
  8.3488777e-02
 -4.6205106e-01
  4.3545583e-01
 -3.7276953e-02
  1.1155178e-01
  1.8529579e-01
  7.0214713e-01
 -1.7024639e-01
 -2.0247085e-01
  8.6709410e-01
 -9.4810709e-02
 -3.8001144e-01
 -8.2725877e-01
 -6.5357774e-02
  1.3327785e-02
 -8.5838151e-01
  3.2114205e-01
  9.4452456e-02
  3.0596688e-01
  1.6699246e-01
  5.4991293e-01
  6.9517344e-02
 -1.2323910e+00
 -1.0595870e-02
 -2.3040341e-02
  9.7463034e-02
 -3.0358106e-01
  4.2669797e-01
  1.7735739e+00
 -1.3752784e+00
 -5.4825097e-01
 -3.4136012e-01
  2.1258374e-01
 -6.8469003e-02
  6.0781711e-01
  3.1846699e-01
 -4.8841825e-01
 -8.5600346e-01
  5.7934272e-01
  2.7217079e-02
 -2.9950392e-01
  1.1943932e+00
 -3.6522964e-01
 -1.3917895e-01
 -2.8451905e-02
  1.5202639e-01
 -1.2461599e-02
  2.1887305e-01
  3.4672430e-01
 -2.5182289e-01
  7.5287549e-03
  2.3356698e-01
 -1.5786758e-01
 -4.0742907e-01
 -3.1739417e-01
 -5.2436548e-01
  8.3027363e-01
 -5.5683851e-01
  1.7585063e-01
  8.1099272e-02
  9.1206156e-02
 -8.3852470e-01
  6.0342550e-01
  4.3871337e-01
  4.3787704e+00
  7.7038020e-01
 -2.0361826e-01
 -6.1048663e-01
  8.1207547e-03
  1.8143709e-01
  7.9597764e-02
  2.3274226e-01
 -1.8647312e-01
  2.5699556e-02
  1.4309056e-02
  2.8398651e-01
 -1.3691668e-01
  8.7217845e-02
 -3.7583423e-01
  2.1210435e-01
  2.3550864e-02
  2.5167876e-01
  1.4103784e-01
 -4.6172228e-02
  3.4167364e-01
 -6.7348242e-01
 -4.4536102e-01
 -1.9974898e-01
 -1.8387231e-01
 -1.6961205e+00
  2.4780330e-01
 -5.2690464e-01
 -8.8515323e-01
 -7.3408997e-01
 -6.2489182e-01
 -2.2772950e-01
 -4.1992322e-02
 -2.1362235e-01
  2.3698029e-01
 -3.8230655e-01
 -4.9299091e-01
  2.9766718e-01
  2.5288638e-01
  3.7378845e-01
 -9.4874781e-01
  1.1058481e-01
 -5.7809561e-02
 -6.5924472e-01
 -4.0715894e-01
 -4.5089856e-01
 -6.5423809e-02
 -6.5688455e-01
 -2.1714279e-01
  2.9645693e-02
 -1.1739917e-01
  1.4066440e-01
  5.3117096e-01
  1.7081334e-01
 -2.0364214e-01
 -5.8890790e-01
 -2.6536334e-01
  1.7316698e-01
 -1.5603481e-01
  2.1807656e-02
  2.0818114e-01
  4.6707097e-01
 -6.0121194e-02
 -2.4669240e-01
 -4.8158017e-01
  1.5894623e-01
 -4.7588319e-01
  2.7505612e-01
 -5.3286320e-01
 -2.0548737e-01
  5.8154427e-02
 -6.3644189e-01
 -1.0656922e-01
  1.4100218e-01
  2.2573990e-01
  3.0362195e-01
 -2.3671477e-01
  3.1645395e-02
 -4.0014067e-01
 -6.8038356e-01
 -2.0732588e-01
 -5.2502748e-02
 -3.7872326e-01
  7.3830432e-01
  9.4438314e-01
 -2.8600127e-01
 -2.8776121e-01
  8.9006074e-02
 -2.2939324e-02
 -1.3760833e-01
  1.6816106e-01
  8.7660238e-02
 -7.1456915e-01
 -2.6100236e-01
  3.2663819e-01
 -7.1415174e-01
  2.2342363e-01
 -3.3749342e-01
  3.0326154e-02
  5.5609888e-01
  7.3084325e-01
  6.2161952e-01
 -5.6968158e-01
  2.1475196e-01
 -1.5311146e-01
  3.4648858e-02
 -7.2588801e-02
  9.9597543e-02
  1.0555863e-01
  1.1682111e-02
 -6.1885375e-01
  2.3205212e-01
 -2.6238152e-01
  2.4858803e-01
  8.4491253e-01
  1.5797363e-01
 -8.1872270e-02
  9.0336025e-02
 -8.0118850e-02
  7.0063904e-02
 -3.6154747e-01
 -1.3176854e-01
  9.4154590e-01
 -5.0162989e-01
 -3.9002106e-01
 -1.5283518e-01
 -1.1080477e-01
 -4.3883088e-01
 -1.5508084e-01
  8.0910444e-01
  5.8480698e-01
 -1.7910795e-02
  9.3040466e-01
  1.1120979e-01
 -9.2327303e-01
 -2.0152509e-01
  9.9641997e-01
  5.1525269e+00
  2.3137810e-02
  7.5568125e-02
  3.4462113e-02
 -6.3109708e-01
 -3.8883063e-01
  5.9920079e-01
  3.9388457e-01
  2.6104636e-02
  2.0201519e-01
 -5.6224260e-02
 -2.8707033e-01
  1.5972334e-01
 -2.6320279e-02
  4.9102657e-02
  5.4639927e-03
 -6.9945341e-01
  5.5332160e-01
  5.4724872e-01
  6.4770035e-02
  8.6392269e-02
 -2.4855371e-01
  3.7584352e-01
 -3.7204493e-03
  7.0271865e-02
  2.0598578e-01
  5.5638963e-01
  2.2758889e-01
  6.8756849e-01
 -1.4392610e-01
  4.9437577e-01
  4.3327329e-01
  2.0539367e-01
  3.6196122e-01
 -1.5975985e-01
 -7.1491778e-02
 -7.1969789e-01
  3.0951846e-01
 -1.9276654e-04
  5.2441216e-01
  3.5628840e-02
  1.1204109e+00
 -1.6434228e-01
 -5.6176281e-01
 -2.2708032e-01
 -1.0365067e-01
 -4.9305834e-02
 -6.0717955e-02
  2.0004818e-01
 -8.4710196e-02
  1.2036008e-01
 -3.6102405e-01
 -1.3468442e+00
  1.4644891e-01
 -2.1383163e-02
  2.0820855e-01
  5.0738496e-01
 -2.2728190e-01
  6.6712213e-01
 -2.3050062e-01
 -7.4351981e-02
  1.0249384e-01
 -3.5874486e-01
 -6.2820566e-01
 -2.1838146e-01
  1.3446939e-01
 -2.0054427e-01
  8.6959109e-02
 -3.3552563e-01
 -1.0249302e+00
  7.6690990e-01
  2.8745991e-01
  9.0232957e-03
  2.3922446e-01
  1.4231141e-01
  3.4023148e-01
 -1.2285891e-01
  2.8262946e-01
  4.4119120e-01
 -8.6171553e-02
  4.7210804e-01
  5.0957721e-01
 -9.2424005e-02
  5.2033192e-01
  6.9073305e-02
 -1.5402299e-01
  2.8925467e-01
 -7.1959209e-01
 -2.0998907e-01
  2.4315724e-01
  1.0859469e-01
 -3.6988318e-02
  2.9661122e-01
 -9.3729399e-02
  2.3104756e-01
 -2.3709252e-01
 -5.9282947e-01
 -7.0827983e-02
  8.7912723e-02
  1.7553492e-01
 -2.2528929e-01
  3.8510807e-02
 -5.4441452e-01
  5.5502824e-02
  2.1004039e-01
 -2.8473723e-01
  2.6233679e-01
  1.3624111e+00
  1.0956911e+00
 -1.5152995e-01
 -8.6330009e-01
  1.7577553e-01
 -2.1869798e-01
  1.8961205e-01
  1.9918203e-01
  4.1616952e-01
 -2.8588471e-01
 -1.3868758e-02
 -3.8853217e-02
 -3.3997405e-01
  3.0614710e-01
  2.1363412e-01
  7.3120162e-02
  2.0796332e-01
  3.9622268e-01
 -1.2854689e-01
  8.9406252e-01
 -6.4678359e-01
  9.3787855e-01
 -7.1948820e-01
 -2.9510897e-01
 -1.3382766e-01
 -2.7617607e-01
 -7.4639553e-01
  1.4197330e-01
 -2.0847417e-01
  2.4873383e-01
 -1.2946124e-01
 -3.3471516e-01
 -1.6108081e-01
 -1.5823421e-01
  5.2584547e-01
  2.2325504e-01
 -1.0820465e+00
 -1.0576148e-01
 -9.3241829e-01
 -2.8430894e-01
 -2.3161170e-01
  2.1716039e-01
  4.9406615e-01
 -1.8632810e-03
 -2.1350904e-01
 -1.7201638e-01
  3.2149604e-01
 -1.6091692e-01
  1.6186641e-01
 -9.3829438e-02
 -2.8104988e-01
  1.0288926e-01
 -1.4196545e-01
 -1.5628029e-01
 -4.5021573e-01
  9.5755333e-01
  3.7620187e-01
  2.8013581e-01
  3.9723262e-02
 -3.6947337e-01
 -9.1095138e-01
 -2.1482976e-01
 -3.1038192e-01
 -3.9744663e-01
 -2.3574408e-02
 -5.4983872e-01
  7.8591980e-02
  8.6990976e-01
 -1.0660952e+00
 -3.0127859e-01
 -2.8562926e-02
  1.0928623e-02
 -1.3377737e-01
  6.8014532e-01
 -7.8452611e-01
  1.8272984e+00
 -3.3138892e-01
 -6.9490165e-02
 -5.6323897e-02
  1.3883454e-01
 -1.5180171e-02
  6.0019279e-01
  1.9405566e-02
  6.0815513e-01
  1.1751046e-01
 -4.6720233e-02
  2.6563212e-02
 -8.4729180e-02
  3.9239055e-01
 -9.0455942e-02
 -1.7816991e-01
 -5.3210445e-02
 -3.5054058e-01
 -4.5285159e-01
  3.5813093e-02
  9.8201111e-02
  4.9688134e-01
  4.9108837e-02
 -3.6707041e-01
 -8.6664528e-02
 -4.7422603e-02
 -7.1832024e-02
  5.2134538e-01
  2.8709745e-01
  1.5438630e-01
  5.3757776e-02
  2.6134702e-03
  5.1603522e-02
  8.1959951e-01
  1.0842565e-01
 -2.2192204e-01
 -3.2853240e-01
 -9.7183377e-01
  5.4889649e-02
  1.0318482e+00
 -2.5781539e-01
 -6.0315168e-01
 -4.7341192e-01
  3.0484304e-01
  4.2625073e-01
  2.2355649e-01
 -3.9675298e-01
  3.3325188e-02
  1.0330989e-01
  4.5713991e-01
  1.1336811e+00
  1.0475354e-02
  2.2943757e-02
 -3.4227335e-01
 -3.1889882e-02
  5.0325185e-01
  1.8447767e-01
  2.1139772e-01
  1.5552151e-01
  1.6564091e+00
  1.2000164e-01
  1.6788442e-02
 -1.4285102e-01
 -1.0826492e-01
  4.5571096e-02
 -2.0821881e-01
 -5.2424812e-01
 -2.9160738e-01
  1.9916461e-01
  1.2295242e-01
  2.2328849e-01
  1.8267094e-01
  3.8041216e-01
 -1.2139986e-01
 -2.4617457e-01
  5.9833455e-01
  4.5856231e-01
 -1.6646831e-01
 -6.6356413e-02
  1.2119657e-01
 -3.6686200e-01
 -7.3588914e-01
  2.6394421e-01
 -7.8973301e-02
  5.2247234e-02
 -7.6818496e-01
 -1.8821803e-01
  8.0401182e-01
  1.9038793e-01
  8.0857402e-01
  8.6903386e-02
 -1.4765312e-02
 -2.6483986e-01
  1.9446060e-01
 -3.6429238e-01
  8.3126627e-02
  3.7953514e-01
 -5.3850508e-01
  4.5102075e-01
 -4.9806765e-01
  2.6705843e-01
  2.7929032e-01
 -4.2328429e-01
  1.8875364e+00
 -5.7276636e-01
 -2.4340352e-01
 -1.9592032e-02
 -2.8643113e-01
  4.9089607e-02
 -8.7141341e-01
 -6.0402229e-03
  2.9581010e-02
 -5.9375446e-02
  9.2310220e-01
  1.5228152e-01
 -5.4712176e-02
  5.0274625e-02
 -6.1364233e-02
  7.0545360e-02
  3.2443255e-02
  2.3293734e-02
  1.2326982e-02
 -2.1541351e-01
  5.1685387e-01
  2.6946230e+00
 -1.0248014e+00
  3.7483233e-01
 -4.7529602e-01
  2.2283655e-01
 -3.6196274e-01
 -1.9556002e-01
 -3.9925322e-01
 -2.1054286e-01
 -3.7293956e-01
  3.2214221e-01
  7.7025138e-02
 -1.2811177e+00
  3.6325898e-02
 -4.8210385e-01
 -4.3160987e-01
 -1.7900221e-02
 -1.3068624e+00
  5.5691622e-02
  3.6764702e-01
 -1.8542010e-01
  3.1689820e-01
 -5.9581328e-02
  7.3592246e-02
  1.5538460e-01
 -1.4737228e-01
 -3.0673653e-01
  2.5737587e-01
  1.4020978e-01
  5.0816454e-02
 -2.5653270e-01
 -4.4968367e-01
  1.6606595e-01
 -6.0260212e-01
  2.9898608e-01
 -2.3206761e-02
 -1.4959741e-01
  7.6756746e-01
  2.9233792e-01
  3.2853791e-01
  5.0871325e-01
  8.7207270e-01
 -1.0702878e+00
  3.1759563e-01
 -1.6577646e-01
 -1.4139898e-02
  2.8578264e-01
 -1.7813587e-01
 -1.3655770e-01
 -6.4562507e-02
  3.7526441e-01
  9.6695656e-03
 -3.0013251e-01
  7.3635155e-01
  2.2328906e-02
 -7.7117503e-02
 -2.7934262e-01
  8.3416277e-01
  3.3936936e-01
  2.4888022e-01
 -3.8222969e-03
 -3.0711514e-01
  1.1728722e-01
  4.7322524e-01
  1.8188235e-01
  1.4945222e-01
  4.7296596e-01
  6.6652894e-02
  3.1817347e-01
  2.3033001e-01
  9.9235928e-01
 -1.1444939e+00
  5.1410586e-01
 -2.3741175e-01
 -1.5175506e-01
  6.4489856e-02
 -1.6749384e+00
  2.4872810e-01
 -4.5600334e-01
  3.0231091e-01
  1.6336237e+00
 -3.1112531e-01
  1.8032004e+00
 -3.2399848e-01
  7.2803706e-02
  3.0958200e-01
  2.6608009e-02
  2.3675126e-01
  6.3421685e-01
  1.8517181e-01
 -1.5059333e-01
 -1.6692798e-01
 -5.0562739e-01
 -1.2311850e-02
  3.4687880e-01
  1.7482856e-01
  4.4572595e-01
 -4.3548590e-01
  1.1287308e+00
 -2.3210883e-01
 -8.4943563e-02
 -1.3723007e-01
  4.5289022e-01
 -4.5246249e-01
  8.0181754e-01
  1.2149893e+00
  6.1913526e-01
  1.1394908e+00
 -2.6706842e-01
 -1.1919113e-01
  1.1398820e-01
 -2.3758163e-01
 -4.5707846e-01
 -2.2437340e-01
 -1.2021592e+00
 -7.1295112e-02
  4.7270903e-01
 -6.0142571e-01
 -5.5255508e-01
 -2.4183787e-02
 -9.8067243e-03
 -4.1609937e-01
 -1.1422190e-01
  1.0842748e+00
  1.0917380e+00
  1.3211576e+00
 -1.1849338e+00
  6.0462070e-01
  2.1369687e-01
  5.4372955e-02
 -3.4008580e-01
 -4.1952133e-01
 -4.4121549e-02
  5.7831216e-01
 -1.1957440e-01
 -7.2245747e-01
  6.5940060e-03
  6.7608720e-01
 -4.6691272e-01
  5.8949089e-01
  1.1038950e-01
 -8.5368115e-01
  2.2292958e-01
 -3.0171153e-01
  1.1759894e-01
 -1.2373116e-02
  9.0401965e-01
  1.5361582e-01
  3.4680927e-01
 -9.1833824e-01
 -1.5888664e-01
 -9.3965888e-02
  3.2319880e-01
  6.0859394e-01
 -3.9693955e-01
 -5.3923374e-01
 -1.6679049e-01
 -3.7183607e-01
 -5.9719533e-01
  9.7710967e-02
 -2.2031866e-02
  1.4716330e-01
  1.1864683e-01
 -9.2252158e-02
 -7.5254744e-01
 -1.5830773e-01
 -6.6216975e-01
  3.9206806e-01
 -3.6836785e-01
 -3.9069051e-01
  2.4607502e-01
  5.5335706e-01
  4.6379220e-02
 -3.3433430e-02
 -3.1576139e-01
 -4.4303232e-01
  1.7911048e-01
  2.1318765e+00
  5.5654401e-01
 -2.7507317e-01
  1.7870933e+00
 -1.3085578e-01
  5.6228495e-01
  1.8634804e-01
  4.0666461e-01
  4.3566465e-01
  7.3211831e-01
 -4.4284198e-01
  5.5768639e-01
  3.5379642e-01
  4.6989504e-01
  6.6998564e-02
  8.6635035e-01
  1.5618335e-01
 -4.8511839e-01
 -1.7967291e-01
 -3.8220051e-01
 -1.6054045e-01
 -5.9353858e-02
  4.5737705e-01
  1.0899132e+00
 -1.7150144e-01
 -1.0017855e+00
 -6.6462970e-01
  9.3865520e-01
 -4.4597387e-01
  5.1004887e-02
  2.0269763e-01
  6.0750473e-02
 -7.5036538e-01
  2.9820663e-01
 -5.0700778e-01
 -1.7789362e-01
  3.6360174e-03
  1.3421498e-01
  4.2635036e-01
  2.7927464e-02
  4.8513258e-01
  2.5469452e-01
  5.6445092e-02
 -1.1129026e-01
 -5.8767450e-01
 -3.3066896e-01
 -7.3724276e-01
 -3.3650517e-01
 -5.8248241e-02
 -1.7702539e-01
 -3.4276634e-02
  1.1466071e-01
  7.3362404e-01
  3.7755510e-01
 -1.3019519e+00
 -1.2925249e-01
  1.7275818e-02
  5.2454412e-01
 -1.9417977e-01
  6.4413601e-01
 -1.3727221e-01
  4.0802878e-01
 -5.9726840e-01
 -5.9174734e-01
  1.2349027e-01
  9.5457447e-01
 -1.3893436e-01
 -6.1180300e-01
 -4.1805193e-01
 -2.4860774e-01
  9.2237838e-02
 -4.5853791e-01
 -3.7493029e-01
  2.7401325e-01
 -2.3741479e-01
  3.7906218e-01
 -1.4632878e-01
  3.9270213e-01
 -6.2210959e-01
 -4.5790903e-02
  6.8278842e-02
 -1.5047738e-01
 -1.0820792e-01
 -2.3352668e-01
  1.8837628e-01
  3.6341327e-03
 -9.8356092e-01
 -5.7807082e-01
 -7.3093772e-01
  6.4133948e-01
  1.6032067e-01
  3.8550574e-01
 -2.4729007e-01
  1.2164335e-01
 -4.6507734e-01
 -5.7029631e-02
 -4.7476569e-01
 -6.1173338e-02
 -1.9260359e-01
  7.4540991e-01
 -3.3286503e-01
 -8.3712912e-01
  3.1272665e-01
 -2.5304404e-01
  2.0034723e-01
  1.1815917e+00
  4.7625765e-02
  6.0876244e-01
 -5.4384917e-01
  1.8592052e-02
 -5.1263171e-01
  6.2359667e-01
 -3.1395903e-01
 -1.0254480e-01
  3.1873318e-03
 -1.3448697e-01
  3.1420368e-01
 -3.4383705e-01
  3.3463749e-01
  2.7174378e-02
 -1.1359883e-01
  5.3101301e-01
  7.0176321e-01
  2.3542948e-01
 -4.7205765e-02
 -4.8028463e-01
 -4.0163931e-01
  1.4880620e-01
 -7.9929017e-02
  7.7636346e-02
  3.7850702e-01
 -9.0605295e-01
  3.8540569e-01
 -6.3942063e-01
 -6.9605075e-02
 -1.2073325e-01
  1.0774378e-02
 -1.3860297e-01
 -5.0254256e-01
 -1.9937849e+00
  7.3224582e-02
  1.4715011e-01
  1.1099478e+00
 -2.1834315e-01
 -2.4567094e-01
  2.2718489e-01
 -5.3997290e-01
 -2.7571067e-01
  2.0127352e-03
 -3.5718679e-01
  2.6961929e-01
 -3.0066881e-02
 -1.0467213e-01
  4.0177159e-02
 -4.1212356e-01
 -1.9042656e-01
  4.4197714e-01
  3.9680371e-01
  7.0145625e-01
 -8.9821234e-02
 -1.5950429e-01
  5.4546338e-01
 -5.0659664e-02
 -6.2937546e-01
  9.5156372e-02
  7.9835147e-01
 -9.8608756e-01
  2.5891891e-01
 -3.8949287e-01
 -1.7437832e-01
  4.2180401e-01
  1.4808779e+00
  1.0992835e-01
 -4.5405957e-01
 -5.9474635e-01
  6.3703644e-01
  1.0683745e-02
  3.2619131e-01
 -5.3999859e-01
 -5.0260925e-01
  1.9338563e-02
 -1.3830490e-01
 -8.1906092e-01
 -5.4595321e-01
 -8.7077844e-01
 -4.6946064e-01
 -6.3766962e-01
 -2.7934706e-01
 -3.8984650e-01
  1.6236318e-02
  1.0766011e-01
 -9.1207939e-01
 -8.3614692e-02
  4.6354395e-01
  2.6867321e-01
  1.7969367e-01
  3.4959771e-02
  2.1457139e-01
 -9.6930489e-03
  3.7564564e-01
 -9.6881145e-01
 -3.1098512e-01
 -3.3201504e-01
 -8.7515591e-03
 -2.0369978e-01
 -9.5704103e-01
  3.4568220e-01
 -2.4861117e-01
 -1.9868194e-01
  1.7933689e-01
  1.1392208e-02
 -3.4326124e-01
  2.2491879e+00
 -1.5416754e+00
  1.0552255e+00
  1.8958778e+00
 -1.7400477e+00
  2.2063780e+00
 -7.4434507e-01
 -1.2717003e-01
  1.1949471e+00
  2.1287619e-01
 -5.5860627e-01
 -8.0484593e-01
 -7.0523286e-01
  3.3924526e-01
  6.7444074e-01
  5.4184590e-02
 -7.4836141e-01
 -6.0622811e-01
 -5.9429032e-01
  2.6006386e-01
 -2.6613605e-01
 -4.7730085e-02
  9.3744285e-03
  3.2006145e-01
  1.8348464e-01
 -1.0853725e-01
 -1.8697613e+00
 -3.2138750e-01
  3.0838823e-01
 -1.4514734e-01
 -3.9783549e-01
 -9.1280639e-02
  6.6669136e-02
 -1.7601834e-01
 -6.1319903e-02
 -3.5337308e-01
  3.7000272e+00
 -3.7085655e-01
  4.0116885e-01
 -4.6313182e-01
 -3.6890936e-01
 -2.8150532e-01
 -5.0442767e-01
  1.1881373e+00
 -1.1099387e-02
  2.3169903e-01
 -5.1275492e-01
  4.7971871e-01
 -2.7227652e-01
  8.6717784e-02
 -8.4911817e-01
 -3.1057706e-01
 -5.8601803e-01
 -2.9124475e-01
 -3.7793759e-01
 -7.4894711e-02
 -1.2383470e-01
  5.0059879e-01
  3.3416113e-01
 -6.2074356e-02
 -1.1876746e+00
 -5.9660321e-01
  4.3764082e-01
 -5.4310673e-01
  4.2512280e-01
  4.5325911e-01
  8.6581752e-02
 -6.9243371e-02
 -4.4768319e-01
  1.4406526e-01
 -9.3321539e-02
  1.6665261e-02
  1.1219716e-01
 -3.2536814e-01
 -5.0411534e-01
 -2.3816779e-01
 -6.2263459e-02
 -2.8022841e-01
 -3.3404669e-01
  3.4993067e-01
 -2.0406669e-01
 -6.8683511e-01
  7.5754690e-01
  1.3340931e-02
  2.4013543e-01
  8.7510288e-01
 -2.8923050e-01
 -5.1675862e-01
 -2.6302341e-01
 -3.0119952e-02
 -5.0045305e-01
 -3.4220111e-01
 -2.0060244e-01
 -2.9157827e-02
 -7.2978511e-02
 -4.6980608e-01
  1.1186101e-02
 -2.1409224e-01
  2.0936066e-01
 -7.5858092e-01
 -1.2864618e-02
 -1.7573285e-01
 -1.8111989e-01
  9.8130792e-02
  2.9284328e-01
  2.7677315e-01
 -2.0153117e-01
 -4.5697734e-01
 -9.2004669e-01
 -2.4356891e-01
 -1.5418938e-01
  1.2904903e-01
 -2.3068431e-01
 -2.9091808e-01
  5.3547728e-01
  4.3605623e-01
 -1.9836150e-01
  6.4316951e-02
 -4.3202543e-01
 -1.0161335e+00
  4.6163440e-01
 -2.5263257e-02
  4.9377177e-02
 -4.0116853e-01
 -2.0984787e-01
  4.3725875e-01
  3.7245190e-01
  3.1020159e-01
 -1.3445480e-01
 -3.2047468e-01
  1.4759862e-01
 -3.5577753e-01
  6.8028167e-02
 -8.5191354e-02
  5.0605071e-01
 -4.8369959e-02
 -2.5615475e-01
  1.0812819e-01
  7.0546103e-01
 -2.1118635e-01
 -3.3136439e-02
 -1.0142953e-01
 -6.0283166e-01
 -5.0701541e-01
  1.0610745e+00
 -2.2328722e-01
  6.9390488e-01
  7.8204364e-02
 -1.1721108e-01
 -4.1803193e-01
  9.6617803e-02
 -2.0597279e-01
 -1.7079961e-02
 -6.2827778e-01
 -2.3270534e-01
 -3.8537845e-02
  4.2061216e-01
  1.8688530e-01
 -7.3785841e-02
  4.4856298e-01
  6.7124642e-02
  8.6929905e-01
  6.3314503e-01
  1.3061246e+00
 -1.4608771e-01
 -4.4200104e-02
 -2.6846153e-01
 -3.6611187e-01
  7.0571512e-01
 -5.9696287e-02
 -1.4632921e-01
  3.5442081e-01
  5.7633959e-02
  6.6532172e-02
  6.7341077e-01
 -2.2488920e-01
  8.7299883e-01
  5.4768864e-02
  2.7991158e-01
 -1.8513530e-01
 -1.6310494e-01
  3.3121240e-01
 -1.3932191e-01
 -9.6001786e-01
  8.0949634e-01
 -1.0957197e-01
 -4.9572490e-02
  1.7401077e-01
  2.3917498e-01
 -1.4953241e+00
  4.4122145e-02
  4.0472496e-01
  1.1440398e-01
 -2.3333625e-01
 -1.2933534e-01
  7.1069092e-01
 -6.4975893e-01
 -4.8438817e-01
  7.6249743e-01
 -2.1366403e-01
  5.2846915e-01
  5.2636594e-01
  3.9343074e-01
 -3.2897526e-01
 -5.6418270e-02
  6.7312276e-01
 -2.3696204e-01
  3.8202189e-02
 -3.6677617e-01
  4.7616032e-01
 -6.7538366e-02
  2.5741220e-01
  4.1464168e-01
  2.5858176e-01
  5.3140208e-02
 -1.0964052e-01
  2.5577304e-01
  7.7682167e-02
  9.0790056e-02
 -3.7229583e-01
 -4.0328106e-01
 -8.0672145e-01
  5.4925227e-01
  9.3912798e-01
  1.3712122e-01
  3.7058204e-02
  4.1798763e-03
 -6.9740489e-03
 -1.8550556e-02
 -1.1889359e-01
  6.4602315e-02
  4.5755036e-02
  1.1814731e-01
  2.3014170e-01
 -8.8168316e-02
 -7.6909143e-01
  3.5243174e-01
 -3.7385416e-01
 -5.3113246e-01
 -2.8290218e-01
  2.6559004e-01
 -4.1652274e-01
 -7.8343980e-02
 -1.5840931e-01
 -2.1271635e-02
 -1.3909219e-01
 -1.8645141e-02
  1.4900634e-01
  1.5333838e+00
  5.6953621e-01
 -9.1873273e-02
 -2.4603298e-01
  9.7230211e-02
 -2.2334175e-01
 -4.6934652e-01
 -1.0720234e-01
  2.5088081e-01
 -1.7756023e-01
  2.1927229e-01
  1.0117271e+00
  3.7018314e-01
  2.1608201e-01
  9.7157341e-01
  2.0315003e-01
 -1.3778070e-01
 -1.7209496e-01
 -3.8362372e-01
  6.2308535e-03
  3.5242778e-01
  3.8222395e-02
 -9.7489223e-02
 -1.0619696e-01
  1.2938596e-01
 -7.2050661e-01
  1.4233613e+00
  1.0673982e+00
 -3.2090837e-01
  4.3298191e-01
  8.5682705e-02
 -8.1735607e-03
  1.8582681e-01
  3.0012360e-01
  1.9346593e-01
 -1.5908328e-01
  4.4379824e-01
 -4.3973151e-01
  1.1520167e-01
  2.0082545e-01
  2.0604017e-01
  2.8209472e-01
  1.1576985e-01
  9.6297526e-01
  2.9332364e-01
  1.1506194e+00
  6.6526306e-01
  1.3350949e-01
 -6.5873237e-03
 -2.5479382e-01
  7.6518916e-02
  2.7395040e-01
 -1.5371853e-01
  1.1485590e-01
 -1.0023345e+00
 -9.6461380e-01
  7.6202974e-03
 -5.2511387e-02
 -5.5463976e-01
  1.5607670e-01
  8.8082924e-03
  6.1049742e-01
 -1.6239840e-01
  7.4703455e-02
  3.0149102e-01
 -3.7952819e-01
  1.7549656e-01
 -6.0796702e-01
 -4.3911675e-01
  2.2432441e-01
  2.0315537e-01
  1.0944858e-01
  8.0760694e-01
 -5.6293803e-01
  4.0268233e-01
  2.2427706e-01
 -4.9047986e-01
  5.1087368e-01
 -1.6672473e-01
 -2.2710185e-01
 -7.5669393e-02
  4.5118099e-01
  1.0238822e+00
 -1.5095071e-01
 -4.1041574e-01
  6.9134969e-01
 -1.8774787e-01
  3.4522185e-01
  3.9037541e-02
  1.7116074e-01
 -4.0712497e-01
  1.6887356e-01
  1.3384739e+00
 -9.7736454e-01
 -9.7154062e-03
 -4.8554845e-02
 -5.4455662e-01
 -5.9177935e-01
 -7.0875764e-02
 -3.0996564e-01
  4.2652714e-01
 -5.4105259e-02
 -3.4000826e-01
 -4.9421844e-01
 -1.9055672e-01
  2.9126012e+00
 -7.6851720e-01
  5.4241353e-01
  3.3522296e-01
  3.8127783e-01
 -1.6350232e-01
 -1.5311722e-01
  1.1430304e-01
 -3.0076441e-01
  8.6975694e-01
  5.2445847e-01
  3.4046482e-02
 -3.4121090e-01
 -1.9973965e-01
  9.4157048e-02
  1.5034465e-01
 -2.8398421e-02
 -7.2023999e-03
  1.3109237e-02
  2.0995438e-01
  2.4229375e-01
  3.8361111e-01
  5.7991517e-01
 -2.3968822e-01
  8.7056994e-02
  1.2074127e+00
 -3.6483389e-01
  9.7893007e-02
 -5.8833855e-01
 -6.7623222e-01
 -7.6130293e-02
  1.4716971e-01
  1.0900445e-01
 -1.1021642e-01
 -3.7992377e-02
 -1.1568797e+00
  1.0875457e-01
  1.7798641e-01
 -5.4449642e-01
 -1.5640649e-01
  7.5805187e-01
  7.6903731e-01
 -5.3714877e-01
 -1.0652037e+00
  1.0330720e-01
 -8.7971270e-02
 -1.0116874e-01
 -7.2912192e-01
  1.8504409e-02
  7.9537541e-01
  2.2113177e-01
  5.3540105e-01
 -8.8913298e-01
 -1.6733591e-01
 -4.3831116e-01
 -2.9070300e-01
  5.6864315e-01
  1.7946458e-01
 -5.1744622e-01
  1.2316270e+00
  3.1869504e-01
  1.3455358e-01
 -4.8189184e-01
  9.3890470e-01
 -2.3108022e-04
  7.3715401e-01
  6.5058798e-01
  1.1189287e+00
 -4.2615853e-02
 -3.7871909e-01
 -3.7509114e-01
  1.3839501e-01
  1.0280898e-01
  1.9518076e-01
  1.1990052e-01
 -6.7012884e-02
 -2.5057426e-01
 -1.3325427e-01
 -1.7127769e-01
 -5.1802939e-01
  5.5620074e-02
  7.7791810e-01
 -6.2446541e-01
  1.9879159e-01
  1.6102231e-01
  7.5820339e-01
 -1.0286891e-01
 -1.6114584e-01
 -1.2100200e-01
  2.4272789e-01
  1.3089240e-01
 -3.5489720e-01
 -1.1220598e-01
 -3.3021587e-01
 -1.4132392e-02
  4.0698665e-01
  9.8425561e-01
  7.6552272e-01
 -7.8546539e-02
 -3.5269606e-01
 -5.7639644e-02
  7.9373980e-01
  3.7309790e-01
  6.4727724e-01
 -2.3354289e-01
 -7.2241849e-01
 -2.0584631e-01
 -1.1798812e+00
  1.2783385e-02
 -6.1122918e-01
  2.4529666e-01
 -3.2131848e-01
 -3.0189015e-02
 -5.0067231e-02
 -5.3030163e-01
 -6.0876799e-01
  2.1035506e-01
 -2.1714023e-01
 -1.7856817e-01
 -8.4537029e-02
 -6.7401326e-01
 -4.6198800e-01
 -1.6074589e-01
  6.3943601e-01
 -3.7967116e-01
  2.4757960e-01
 -2.1522500e-02
 -1.4174573e-01
  3.8762885e-01
 -1.0016233e+00
  3.1255609e-01
 -3.7645513e-01
 -2.0090497e-01
  8.3179843e-01
  2.6775241e-01
  2.1453011e-01
 -2.0128709e-01
 -4.2262891e-01
 -3.7966245e-01
  1.2237303e+00
 -4.8579881e-01
 -9.8965680e-03
  2.6743144e-01
 -9.0460217e-01
 -3.0054066e-01
  2.1049957e-01
 -1.2908041e-01
  3.1092820e-01
  3.3527136e-01
 -1.1799765e-01
 -2.6331523e-01
 -5.3043711e-01
 -1.4707740e-02
  6.0738248e-01
 -3.8435572e-01
  1.3684203e-01
  5.5470520e-01
 -5.6039912e-01
  5.3866684e-02
 -7.0973270e-02
  4.2486686e-01
  2.8972727e-01
  1.5913989e-01
  2.3761854e-01
  5.2968180e-01
 -3.8122842e-01
  3.0518851e-01
  4.1376683e-01
 -2.7082881e-01
  4.0488636e-01
 -1.6987127e-01
  2.0389476e-01
 -3.3616406e-01
 -5.8559048e-01
  1.0877579e-02
  4.6995270e-01
 -1.5947834e-01
 -2.6483124e-01
 -1.2955292e+00
 -2.6523292e-01
  2.2941178e-01
 -2.9438135e-01
  1.7642888e-01
 -8.6291939e-02
 -2.2786133e-01
  4.6173778e-01
  8.2497931e-01
  6.6700035e-01
 -2.5723279e-01
  1.5522508e-01
 -9.3024582e-02
  2.2387900e+00
 -5.7728487e-01
 -8.6344957e-01
 -4.9984103e-01
  1.5539989e-01
  3.0186806e-02
 -1.8369390e-01
 -1.5194366e-02
  5.2713358e-01
 -2.4538812e-01
 -7.7919596e-01
  1.7397913e-01
  5.0148010e-01
 -6.0817085e-02
  3.9147916e-01
  3.5032853e-03
 -1.1761127e+00
  5.6764819e-03
 -3.3758663e-02
  1.0595722e-01
 -4.7338095e-01
  1.4185342e-01
 -1.9867094e-01
  9.0396784e-02
 -8.3828896e-02
  1.6616284e-03
  2.4676940e-01
  1.6606915e-01
 -1.0163301e-01
 -1.0105766e+00
 -3.1473088e-01
  1.9678539e-01
  1.3499519e-02
  7.3523432e-01
 -8.0079007e-01
 -1.2050693e-01
 -7.5715870e-02
  2.5701791e-02
 -3.7235916e-01
  3.9313638e-01
 -3.9942008e-02
  4.1277442e-02
  3.6114061e-01
 -3.8574240e-01
  1.5509905e-01
 -1.5315606e-01
 -8.2567975e-02
 -3.8852999e-01
 -2.7704147e-01
  5.6276035e-02
 -4.0992662e-02
  1.6188951e-02
  2.9354042e-01
 -1.4418229e-01
 -1.9544922e-01
  6.7847288e-01
  2.0096596e-01
 -2.5881335e-01
  2.4053584e-01
 -6.5027162e-02
 -1.2472546e-01
  4.3172604e-01
 -1.7926064e-01
  4.8200063e-02
 -1.5933874e-01
 -1.5689939e-01
  2.3448920e-01
 -2.9219547e-01
 -6.2112719e-01
 -1.9880250e-02
  7.6775171e-02
  1.2501638e-01
  6.5339535e-01
 -2.9004779e-01
  1.3594715e-01
 -2.4678367e-01
  6.5233904e-01
  5.6660497e-01
  1.6621599e-01
  4.5705155e-02
  6.6649050e-01
 -9.3110330e-02
 -9.7667074e-01
 -4.3634042e-01
  5.9929413e-01
 -1.0873966e-02
  8.2214594e-02
 -3.7880838e-01
 -6.0403399e-02
  1.3410071e-01
  1.2549378e-01
  8.3901525e-02
  1.8260600e-01
 -3.3971649e-01
  1.7761467e-01
  4.9019419e-04
  5.5020148e-01
  3.8215238e-01
 -1.2870805e-01
 -2.7230936e-01
 -9.8216236e-02
 -5.1521450e-02
 -1.4580123e-01
  1.0496541e-01
 -6.3978720e-01
 -4.1292411e-01
  1.1781958e-01
  2.2977300e-01
  4.1529596e-01
 -2.4528260e+00
  5.8057481e-01
 -1.0300347e+00
 -9.1163188e-01
 -4.2610928e-01
 -4.2127263e-02
  8.5656095e-01
 -7.9774296e-01
 -7.5515009e-02
 -1.6230255e-01
  1.0729533e-02
  1.2839516e-01
 -1.1575633e+00
  1.8896988e-01
 -1.5982631e+00
  4.8429927e-01
 -8.6933523e-01
 -9.4898909e-02
  1.3569348e-01
  3.5984078e-01
 -4.7844288e-01
 -3.3177325e-01
 -9.2671990e-01
  4.9493289e-01
 -3.0518126e-01
  6.6539037e-01
 -4.7712427e-01
  1.1851285e-01
  7.6447032e-02
 -4.7806576e-02
  3.8148060e-02
 -6.6839427e-01
 -2.6825377e-01
  1.7662812e-04
  3.0751210e-01
  1.3648170e+00
 -3.2762952e-02
  2.4068248e+00
  7.1040404e-01
  8.5593700e-01
 -3.4754336e-01
  2.0134845e+00
 -1.8463724e+00
 -1.6356525e-01
  2.9793620e-01
 -1.3715210e+00
 -6.7853105e-01
 -6.8499148e-01
 -1.7841493e+00
  2.2779562e+00
 -1.0207429e-01
 -5.0947285e+00
 -1.3195707e+00
 -7.9682755e-01
 -1.0277468e+00
  6.6601980e-01
 -1.3311522e+00
  4.5960915e-01
  1.2328770e+00
  1.6601260e+00
  5.3442723e-01
 -9.9263978e-01
  9.4085866e-01
  1.4469781e+00
  8.9571309e-01
  4.0655713e+00
 -1.3175460e+00
 -9.9546784e-01
 -1.9740386e+00
  2.9347303e+00
 -1.3949002e+00
 -9.2064631e-01
  7.3178791e-02
 -9.9643856e-02
  5.1662710e-02
 -1.9319886e-01
  1.8922650e+00
 -1.7160467e+00
  1.4611928e-01
  1.2131097e+00
 -5.4699606e-01
 -8.4031701e-01
  6.1234158e-01
 -2.6328257e-01
 -4.0946373e-01
 -2.2260704e+00
 -3.0846232e-01
  1.2723720e-02
  3.5459038e-02
  1.0795081e-01
 -5.7463282e-01
  1.8747333e+00
 -2.0631926e-01
 -5.5428088e-02
 -1.6803384e+00
 -1.6674717e-01
  3.4590462e-01
 -1.1941918e+00
 -7.6597816e-01
 -5.3628761e-01
 -3.5411704e-01
  6.1282214e-02
  2.5338194e-01
 -1.1522270e+00
  4.3333158e-01
  2.5016183e-01
  1.6270489e-02
  1.3174876e+00
 -1.4098835e+00
  6.3868833e-01
 -1.3798708e+00
 -6.1083323e-01
 -7.4892038e-01
  4.8601601e-02
 -5.6107169e-01
 -4.9722040e-01
  1.0044757e-01
  6.7635036e-01
 -1.1854578e+00
  1.3127987e-01
 -1.8812680e-01
  2.6437202e-01
 -3.2931906e-01
  3.1948474e-01
 -6.7268091e-01
  2.5542080e-02
 -5.4612839e-01
  2.2485565e-01
 -7.0445806e-02
  4.6684000e-01
  8.8123691e-01
 -3.8755977e+00
 -7.0817880e-02
  3.3230391e-01
  3.9997843e-01
  3.8795277e-01
  2.2331026e+00
 -1.5477543e+00
 -1.2594900e+00
  1.0484411e+00
  5.1001233e-01
  3.5351571e-01
 -8.7129287e-03
  1.2415440e-01
  7.2174942e-01
  1.4740264e+00
  1.0883620e-01
  9.8636669e-01
 -8.2812116e-02
  8.2603884e-01
  1.0726928e-01
  2.5237894e-01
  1.4884261e+00
  1.4419703e+00
  1.1839999e+00
  3.9095201e-02
  1.2308335e+00
  7.9750431e-01
  5.7835001e-01
 -3.8729379e-01
 -4.2821389e-02
 -2.3197100e-01
  1.2315883e-01
 -3.6326316e-01
  6.7956376e-01
  8.4472293e-01
  3.4567308e-01
 -1.1254869e-01
  2.0242088e-01
  6.8797410e-01
  1.9521862e+00
  1.7026551e-03
 -2.9442099e-01
 -1.4266291e+00
  1.5780774e+00
  4.3260568e-01
  1.3876909e-01
 -6.0671501e-02
  5.1643707e-02
 -4.3956262e-01
 -2.8523496e-01
 -4.3318173e-01
 -9.3854606e-01
  9.0843844e-01
 -1.7993563e-01
 -2.0524849e-01
 -9.4147259e-01
  2.5485405e-03
 -3.9467651e-01
  2.7780908e-01
 -1.1523766e-02
 -1.0644509e-01
  5.4111540e-02
 -1.5118203e-01
  3.8431957e-02
  2.1664293e-01
  7.9887247e-01
  2.6551230e+00
 -2.3206346e-01
 -9.1847621e-02
  7.2634661e-01
 -7.9375811e-02
  3.8737983e-01
  9.9836332e-01
 -1.5438339e+00
 -4.5198998e-01
 -2.8030965e-02
  4.3146613e-01
  3.5399726e-01
 -3.7572470e-01
  3.4145121e-02
  2.3052344e-01
  3.4208265e-01
  4.5199528e-01
  5.6109585e-02
 -4.3983635e-01
 -3.4989485e-01
 -1.2805362e-01
 -9.1094095e-01
 -1.0662242e+00
 -4.1312400e-01
 -6.4353395e-01
  3.7407160e-01
 -2.5609987e-02
 -1.4222510e-02
 -2.7004355e-01
 -3.2674420e-01
 -1.4125843e-01
 -1.1840874e+00
  4.1525042e-01
  4.7251478e-01
 -2.8021123e-02
  1.9734663e+00
 -2.6301178e-01
  4.1790903e-01
  1.2982902e-01
  2.6794457e-01
 -2.8411597e-03
 -8.7625295e-01
 -1.0780998e-01
  4.3537989e-01
  2.5895935e-01
  9.3866169e-02
  7.1151608e-01
  2.6830840e-01
 -3.5175923e-01
  6.2879682e-01
 -3.5016206e-01
  3.9000291e-01
 -3.2872272e-01
  7.6392010e-02
 -2.6187935e-01
 -3.8282312e-03
  1.1866456e+00
  5.2851808e-01
 -2.5295526e-01
  1.6525298e-01
 -1.4378187e-01
 -1.5958774e-01
 -5.7657629e-01
  2.4660739e-01
 -4.6238345e-01
  2.6121438e-01
 -1.1352642e-01
  8.4743597e-02
 -1.9595884e-02
 -5.9672832e-01
 -3.7054211e-02
 -5.9664834e-01
 -6.1388128e-02
  4.2452154e-01
  2.4102518e-01
  7.2358394e-01
 -2.5377679e-01
  4.4296825e-01
 -3.5105345e-01
  4.2904052e-01
  2.0506242e-01
  4.4929573e-01
 -3.8342893e-01
 -1.2400255e-02
 -2.1134979e-01
 -2.4189554e-01
  1.3512470e-01
 -2.7972722e-01
 -4.0305761e-01
  8.4860409e-03
 -1.7006177e-01
 -5.8257617e-02
  3.8367155e-01
 -5.7479215e-01
  1.0631354e-01
  9.8990370e-04
  2.5830722e+00
  1.8732764e-01
  8.9749895e-02
 -2.1983007e-01
  1.6459614e-01
  3.1869790e-01
 -1.3237593e-01
 -5.2809125e-01
  1.6706517e-01
  1.9845241e-01
 -9.4112003e-01
  3.0661449e-01
  2.6718032e-01
 -1.4867482e-01
 -3.3198065e-01
  1.4712162e-01
 -1.8632562e-01
  1.5994567e-01
  3.9875910e-01
 -7.6601565e-02
  5.9029180e-01
  1.2381991e-01
 -1.5673852e-01
 -9.7342439e-02
 -6.7557687e-01
  2.5674397e-01
 -3.3644444e-01
 -8.2815617e-01
  7.1680784e-01
 -8.6912960e-03
  2.5964072e-01
 -2.1772614e-01
  8.5996650e-02
 -2.9332536e-01
 -5.7832944e-01
 -1.0207220e+00
  3.4792826e-01
  6.5662634e-01
  6.2049562e-01
  1.2832175e-01
  2.3211308e-01
 -5.2451603e-02
  3.4394231e-01
 -4.3821800e-01
 -2.1885659e-01
  1.3587226e-01
  7.9792321e-01
 -1.6868247e-01
  3.2397099e-02
 -1.6749984e-01
  1.1739705e+00
 -1.1030785e-01
 -5.4710639e-01
  3.3826259e-01
  1.1766601e+00
 -1.6143595e+00
 -6.2210625e-01
 -8.9862710e-01
 -3.0633118e+00
 -1.3828759e+00
 -1.6391587e+00
  4.4256970e-01
 -1.2003485e+00
 -1.6686215e-01
  1.8807830e-01
  1.2423693e-01
  1.0854326e+00
 -4.7677934e-01
 -1.7450234e+00
 -3.6741567e-01
  2.3380999e-01
 -1.4909480e+00
 -7.0067042e-01
 -1.3292779e+00
  4.0901348e-01
 -2.1167475e-01
  1.3025497e-01
  6.7098051e-01
  8.6851704e-01
  1.4758202e+00
 -6.5395814e-01
  5.0386775e-01
  6.9356948e-01
  6.3672805e-01
 -2.6704872e-01
  4.1669652e-02
  2.5591284e-02
  1.9843611e-01
 -9.2968446e-01
 -2.3031680e-01
  2.2181645e-01
  3.6081588e-01
 -6.9365066e-01
 -4.6501976e-01
  1.5437260e-01
  1.2132457e-01
 -2.8996962e-01
  7.7872582e-02
  8.6308748e-01
 -4.3153027e-01
  2.3128536e-01
 -4.7986022e-01
  3.7012663e-01
  3.7220430e-02
 -2.2327045e-01
 -5.0525125e-02
  2.8163490e-01
 -4.1622809e-01
  6.2422228e-01
  3.2604489e-01
 -4.6685465e-02
 -9.3006641e-01
 -3.1462640e-01
  5.7533786e-02
  2.9456562e-01
  4.8367046e-02
 -2.5712290e-01
  5.8316731e-01
 -9.2429489e-02
 -4.1465300e-01
  1.0661308e+00
 -2.0984006e-01
  6.4789578e-03
 -5.1363287e-03
 -3.6606368e-01
 -3.5101837e-01
  1.0288360e+00
 -2.2812703e-01
 -2.0477167e-01
  2.2021791e-01
  3.5992509e-01
 -2.0773971e-01
  4.2568919e-01
  1.9229552e-01
  6.3322335e-01
 -1.1224033e-01
  5.8144855e-01
 -6.4494401e-02
 -1.4536299e+00
  4.6334687e-01
  1.8473122e-01
 -1.0420202e+00
  1.1282875e-01
  2.2590727e-01
 -3.9871892e-01
 -4.2413354e-01
  9.1185725e-01
  1.9349459e-01
 -1.2951452e-01
 -9.6823566e-02
  1.5855971e-01
  4.7697425e-01
  5.2731693e-01
 -2.2206905e-01
  2.3557286e-01
 -3.5862592e-01
 -3.2731432e-01
 -2.5895035e-01
  2.1054576e-01
 -2.8453654e-01
  1.4473467e-01
 -4.0104178e-01
  5.0504047e-02
 -8.4791824e-02
 -4.8369405e-01
 -1.1197368e-01
  4.9505723e-01
 -1.0679426e-01
  8.5927474e-01
 -2.8469947e-01
 -1.9087982e-01
  5.7364125e-03
 -3.5818249e-02
 -4.0784252e-01
  6.9337678e-01
 -1.8976294e-02
 -7.5875342e-02
  1.6380672e+00
  5.4876542e-01
 -3.3391735e-01
  1.5550962e-01
  1.0461278e-03
  6.2716216e-02
  6.3348435e-02
  4.6170317e-02
  2.2440140e-01
 -5.2005309e-01
 -1.9222349e-02
 -6.3360316e-01
 -1.1798234e-01
  3.5025188e-01
  2.5536138e-01
  1.2534000e-01
 -9.4373837e-02
 -5.8139759e-01
  1.2058543e-01
  3.6773893e-01
 -2.3941759e-02
  2.8538164e-02
  1.4160256e-01
  1.1062066e-01
  1.4630571e-01
  2.7278104e-01
  5.0276510e-02
 -1.2826134e-01
 -2.5420019e-01
  1.7793445e-01
 -2.9132351e-01
  1.4813672e-01
 -3.9534202e-01
  7.1985468e-02
  4.2324409e-01
 -8.7081003e-01
 -1.4291377e-01
 -7.8838930e-02
 -1.9235488e+00
  9.6553725e-01
  2.0654991e-01
 -2.0177740e-01
  1.3842782e+00
  9.9947202e-01
 -4.6804592e-01
 -2.1689801e-01
  2.5053737e-01
  8.5243754e-02
  2.4036992e-01
  7.8637570e-02
  5.7643759e-01
 -1.8595610e-02
 -2.1673851e-02
 -3.4018430e-01
 -3.8423911e-02
  2.9884312e-01
  2.2280066e+00
 -6.6537350e-02
  2.3934808e-02
 -6.8976685e-02
  2.9790571e-01
  1.2069006e+00
 -4.5860101e-02
 -4.9535829e-01
 -8.0554950e-01
  1.9979986e+00
  2.7068749e-01
  3.2898337e-01
  1.2386467e+00
  1.0721011e+00
  7.6446927e-01
 -1.1606416e-01
  2.8637508e-01
 -1.3258926e+00
  1.8159701e+00
 -1.2840438e-01
  7.9098547e-01
  4.6344694e-01
  1.2968966e-02
  2.5039554e-01
  5.5443656e-02
 -2.8443384e-01
 -7.0409507e-02
 -4.2672309e-01
 -2.9145774e-01
  2.7272490e-01
 -8.2667463e-02
  3.5175782e-01
 -2.1666515e-01
 -1.2531824e-02
  2.7275291e-01
 -6.0996073e-01
 -1.8658892e+00
  2.7271980e-01
 -9.3587749e-02
 -1.1892406e+00
 -9.8305237e-01
 -2.3948161e-01
 -7.4466830e-01
  1.3185184e-01
  1.2233797e-01
  1.6355588e+00
 -6.8422131e-02
  1.0968308e+00
 -1.1763396e-01
 -5.4913096e-02
  1.4576843e-01
 -6.7556202e-02
  1.2109371e-01
 -3.9737010e-01
 -1.0733250e+00
  1.6989037e-01
  4.1660506e-01
  9.8309600e-01
 -3.9119436e-03
  3.5304412e-02
 -2.2753800e-01
 -4.4169869e-02
  2.3317814e-02
  1.4202774e+00
 -5.4900455e-01
  1.9528420e+00
  1.0951004e+00
 -9.4749667e-02
 -5.2903078e-02
 -1.4008896e-01
  1.6821027e-01
 -3.5896365e-02
  2.2183266e+00
 -1.1662315e-01
  2.4867486e-02
  8.6982119e-01
 -4.6580571e-01
 -9.4598860e-02
  4.0840454e-02
  4.8377477e-02
  7.1797907e-01
 -4.1182536e-01
 -1.2960774e-01
 -3.7968796e-01
 -1.0516107e-02
 -3.8322759e-01
  1.5199566e+00
 -1.2889144e-01
  1.1297961e+00
  6.1679918e-01
 -1.4566711e+00
 -9.3156791e-01
 -6.8832332e-01
  2.3731609e-01
  5.2601111e-01
  1.0814258e+00
  1.5515829e+00
  1.0821830e+00
 -1.0699663e+00
  3.7143428e+00
  4.5624930e-01
 -5.3901577e-01
  2.4907298e-01
  3.4918472e-01
 -4.8808295e-01
  2.9617640e-01
  3.0568838e-01
  4.0103796e-01
  2.2809587e-01
 -9.2943287e-01
 -2.0066330e-01
  1.1597078e-01
 -5.3612310e-02
 -1.2625943e+00
 -2.2845155e-01
 -4.7714524e-02
  1.7487843e-01
  7.0500243e-01
 -3.6765717e-02
 -4.2687254e-03
  4.0422961e-01
 -2.0967579e-01
 -6.8990000e-02
  3.2463226e-01
 -8.9501470e-01
  5.1357061e-02
  7.6715577e-01
 -4.2266107e-01
  1.1578337e+00
  3.3544756e-02
 -2.9868940e-01
 -2.4192196e-01
 -1.9236207e-02
 -1.2831913e-01
 -6.8486601e-01
 -1.8468595e-01
 -3.3999532e-01
  1.1146284e+00
 -3.1016767e-01
 -2.7433038e-01
 -1.1270405e-01
  2.7178162e-01
 -1.5763381e-01
  7.7248311e-01
  2.8947861e+00
  8.8527465e-01
 -2.6864699e-01
  8.7025322e-02
  3.1040713e-01
 -1.4603605e+00
 -8.1674534e-01
  4.8063976e-01
  3.3200663e-01
  2.1150136e-01
 -1.5770397e+00
  3.4965235e-01
 -7.9755276e-01
  8.3025306e-01
 -6.9137883e-01
  8.6432046e-01
  1.6487855e-02
 -4.6689786e-02
 -1.1158639e+00
 -8.3022094e-01
 -4.1705433e-01
 -6.0046029e-01
  2.2324730e-02
 -4.2205897e-01
 -1.5073798e+00
  1.5052903e+00
  4.9271876e-01
 -5.9975296e-01
  3.7690073e-01
  6.3053109e-02
 -5.8028191e-01
 -2.6255264e+00
 -1.3706152e+00
  1.8924150e-01
  1.7990314e+00
 -2.3174472e-01
 -5.4642510e-01
 -5.5084091e-02
 -7.9235250e-01
 -3.3690941e-01
  2.9065900e+00
 -1.3587034e+00
 -9.5123135e-02
 -1.4184050e-01
 -7.9040140e-01
  9.1079764e-02
  1.7096158e-02
  8.4683818e-01
 -1.1687982e-01
  5.3955603e-01
 -2.0419146e-01
  6.1897236e-01
  1.9157574e-02
  3.6042519e-03
 -5.0755739e-01
  3.6955819e-01
  2.6344803e-01
  7.1171835e-02
 -4.3248277e-02
  5.5953664e-01
  4.1306263e-01
  3.4246281e-01
  2.0673107e-01
 -1.1096318e-01
  3.2624510e-01
 -2.5368562e-01
  7.7434313e-01
  5.9733969e-01
  3.7106407e-01
  3.0702829e-01
  4.2193466e-01
 -5.6519624e-02
  4.1621485e-01
 -9.2894053e-01
  9.5627464e-02
 -1.1198779e-01
 -6.3873243e-01
 -4.6144012e-01
 -8.1334114e-02
 -8.6327446e-01
 -2.5296855e-01
 -2.3808964e-02
  1.2845010e+00
  1.4578314e-01
  8.8631004e-01
  5.4354447e-01
  3.4023046e-01
  7.7671714e-02
 -1.3673502e-01
  2.3465553e-01
 -3.1865261e-02
  1.2997248e+00
  3.8795373e-01
 -2.2413401e-02
  6.0965899e-02
 -1.6548064e-01
 -1.2319418e-01
 -1.6473134e-01
  2.3624238e-01
 -3.0028477e-01
  3.8393807e-01
  1.4081204e-01
 -6.7489743e-03
  7.3585488e-02
 -8.6819842e-02
 -5.0545001e-01
 -1.0542053e-03
 -8.1894094e-01
  3.5682704e+00
  1.1328417e+00
  9.3367919e-02
  2.8589034e-01
 -1.6021632e-01
 -1.5880378e-01
 -1.0899122e+00
  3.8674489e-01
 -5.9637505e-01
 -3.3455454e-03
  3.1177557e-01
  3.0599257e-01
  2.9760864e-01
  1.3488741e-02
  2.7557615e-02
  2.6413950e-01
  5.6594050e-01
  3.3738583e-01
 -1.1156546e-03
 -7.1220219e-01
 -3.5573888e-01
  5.7749677e-01
 -1.1165706e+00
  7.2982264e-01
 -1.0437516e+00
  8.1712282e-01
 -4.2327985e-01
 -6.9345105e-01
 -1.5542960e-01
  3.9670995e-01
  1.4381301e-01
 -4.8365644e-01
  2.6920289e-01
 -5.7335329e-01
  4.8761156e-01
 -7.0787948e-01
 -2.4739179e-01
  4.9714833e-01
 -2.1314183e-01
 -6.5240932e-01
 -1.5550591e-01
 -1.7342265e-01
 -2.7426735e-01
 -1.3070501e-01
  3.2900050e-01
 -2.0389630e-01
  1.5772653e-01
 -2.0758519e-01
 -3.5083631e-01
 -3.8367444e-01
  1.1145767e-02
 -7.5306222e-02
 -4.1265476e-01
  6.7837760e-03
  7.7350020e-01
  8.8997632e-01
 -3.9510259e-01
 -5.8798885e-01
  5.9280340e-02
 -7.1231860e-01
 -4.6228024e-01
  2.2004485e-01
  4.6922925e-01
  3.8342851e-01
  8.3326125e-01
  1.6046329e-01
 -4.7608119e-01
 -3.1524572e-01
 -6.1566627e-01
 -4.0882654e-02
  3.2949665e-01
  1.6204190e-01
  3.1847128e-01
  1.6715217e-01
 -5.8781259e-02
  1.8552257e-01
  2.8865847e-01
  1.1885695e-01
 -4.8052568e-02
  6.7681611e-01
  2.8004301e-01
  9.5143104e-01
  6.3495302e-01
 -8.8403031e-02
 -6.0280085e-01
  1.1820969e-01
 -3.9981291e-01
 -1.2452137e-01
  2.3995131e-01
 -7.0053250e-02
 -1.5006496e-01
  4.0651348e-01
 -1.3375822e-01
 -8.7390393e-01
 -8.3980584e-01
 -1.9291095e-02
 -2.9782390e-02
  6.0340848e-02
 -4.0773106e-01
 -4.6196860e-01
 -4.8130924e-01
 -1.2834786e-01
 -8.1536770e-01
  6.0697515e-02
 -5.3411710e-01
  4.0596113e-01
 -2.0905089e-01
 -2.0638476e-01
 -1.3696642e+00
  4.4800833e-02
 -5.5618346e-01
 -1.8562466e-01
 -1.0546991e+00
 -1.0048853e+00
 -2.4635118e-01
 -1.4480016e+00
  6.0119379e-01
  2.2528280e-02
  3.2313782e-01
 -5.6125170e-01
  3.7707695e-01
 -4.0761102e-02
 -1.0102998e-02
 -1.2310736e+00
  5.4611361e-01
 -1.3369577e+00
  2.5843666e+00
  5.0088996e-01
 -4.5181942e-01
 -4.0759188e-01
 -5.7771355e-01
  8.7942576e-01
  2.3910961e-01
  8.9134884e-01
  1.2496627e-01
  2.6424484e+00
 -5.2885167e-02
 -8.8548458e-01
  3.5836244e-01
  9.3800616e-01
  2.2286153e+00
 -2.3573571e-01
 -1.6545336e+00
  4.1068545e-01
  1.8617128e-01
 -3.5010907e-01
  2.7357766e-01
  6.3810384e-01
 -7.7334714e-01
  2.3142757e+00
 -6.3017964e-01
  2.0318830e-01
  2.1888484e-01
  1.0166262e+00
 -9.6584074e-02
 -1.3719630e-01
  9.5966452e-01
 -1.5431362e-01
  2.1064559e-01
 -3.3936509e-01
 -8.5903794e-02
  1.8357420e-01
  1.3473846e-01
 -2.2595408e+00
 -1.9028313e-01
  8.7554729e-01
  7.2847590e-02
  1.4771761e-01
 -4.9171045e-01
  3.1074023e-01
  3.2424249e-02
 -7.6133090e-01
 -2.1562268e-01
 -9.1627568e-02
  2.8745905e-01
  8.9997810e-01
  4.6336240e-01
 -4.8185608e-01
 -5.2608305e-01
 -1.0600721e+00
  7.0706868e-01
 -2.3500630e-01
 -2.7454388e-01
  4.8619029e-01
 -4.8667255e-01
 -9.7248614e-02
  3.3340231e-01
 -2.3639387e-02
 -1.1336958e+00
 -1.4556512e-02
 -1.1847842e+00
  9.7382176e-01
 -2.0070127e-01
  1.6687025e-01
 -1.1122696e+00
 -1.4047873e-01
 -2.2512431e+00
 -1.2431797e-01
 -6.5919197e-01
 -2.7592003e-01
 -1.6211656e-01
  5.0016654e-01
  3.2456005e-01
  8.6756367e-03
 -5.1405042e-01
  6.2287396e-01
  4.8522145e-01
  1.3918953e-01
 -6.2289578e-01
  2.2584696e-01
  9.6143639e-01
 -2.1779273e-01
 -3.5946265e-01
 -5.5756432e-01
  4.5935571e-02
 -2.8740725e-01
 -1.0484644e+00
 -8.2262570e-01
 -1.5498921e-01
  6.1329669e-01
  1.9447677e-02
  4.9487042e+00
  1.0857017e+00
 -5.5859280e-01
  1.7910343e+00
 -1.5934542e-01
 -3.3827031e-01
  3.0080922e+00
  3.1218098e-02
 -9.5835108e-01
  8.0935848e-01
 -1.1880510e-01
  4.9343479e-01
 -2.2583637e-01
  1.6030767e+00
 -4.4270147e-02
 -5.9345078e-01
  2.6508760e-01
 -4.4386056e-01
 -9.4534171e-01
 -2.9239157e-01
  1.9998421e-01
  1.7891836e-01
 -7.9466179e-02
 -9.7024359e-02
  1.3046973e+00
 -3.5327780e-01
  1.1543567e-01
 -1.6874502e+00
 -9.3707144e-01
  5.5859846e-01
  4.7626668e-01
  7.1194744e-01
  4.1073588e-01
  3.2074580e-01
  7.7924109e-01
  8.5757059e-01
  2.9958728e-01
 -2.3363663e-01
 -3.1020516e-01
  1.7752998e-01
  4.0547207e-01
 -9.6018776e-02
 -1.3626046e+00
 -5.2071031e-02
 -1.4821199e-01
 -6.6220546e-01
 -1.1857888e-01
  3.7981215e-01
  4.9081337e-01
  3.3703575e-01
 -3.7271664e-01
  5.2630508e-01
 -5.1877111e-01
  8.0304444e-02
  2.5322923e-01
 -1.9637877e-01
 -1.9779105e-01
 -6.1518306e-01
 -1.0665069e-01
 -1.2305694e-01
 -3.5297474e-01
  2.6239461e-01
 -4.5900589e-01
 -1.6597590e-01
  1.5532148e-01
  8.7845780e-02
 -2.7701238e-01
 -7.9897106e-02
  5.2399993e-01
 -4.9199164e-01
  2.0940469e-01
 -2.9862338e-01
 -4.9257836e-01
  4.3773216e-01
 -7.1656935e-02
 -4.3802910e-02
 -1.3455568e-01
 -6.8333572e-01
 -2.7809060e-01
 -6.2797956e-02
 -5.3377811e-02
 -4.5259023e-01
  4.2609729e-02
  4.1093102e-01
  1.1438929e+00
 -1.6440701e-01
 -2.9602033e-01
 -2.8050268e-01
 -3.5322124e-01
  3.0989778e-01
 -2.1715748e-01
 -3.6663708e-01
  8.3194345e-02
 -6.0526228e-01
 -2.4392855e-01
 -3.6241168e-01
  3.1058371e-01
 -5.5690002e-01
  3.7241587e-01
  1.4206631e+00
 -3.4218103e-02
  1.5938185e-01
 -4.0932548e-01
 -9.0286571e-01
  4.3616563e-01
  5.6441796e-01
 -7.1548158e-01
 -2.0242264e+00
  2.8268933e-01
 -6.4877295e-01
 -1.4035947e+00
  9.1116792e-01
 -3.1586375e+00
  2.7723595e-01
 -4.7973183e-01
 -1.1244167e+00
 -1.6289155e+00
  1.2298618e-01
 -1.3737185e+00
 -1.1678412e-02
 -2.7347350e-01
  2.1463697e-01
  1.3351037e-01
 -8.8279021e-01
 -2.0483706e+00
 -2.3559217e+00
  3.6734930e-01
  8.6820513e-01
 -2.4025841e-01
 -3.2222873e-01
 -1.2624353e-01
 -1.5425003e-01
 -1.2349141e+00
 -9.9277067e-01
 -4.9190533e-01
  1.3533183e-02
  4.4857852e-02
 -1.0390140e+00
 -3.4270927e-01
  4.6641055e-01
  1.9530192e-01
 -2.2343035e-01
 -7.3984462e-01
  3.3708535e-02
 -1.8929401e-01
 -2.0014013e-01
  1.5165649e-01
 -2.7008861e-02
 -1.1184810e+00
 -5.3887987e-01
 -5.4167081e-02
  7.5084031e-01
 -1.2704967e+00
 -1.1128137e-01
 -1.9987373e-01
 -9.4915979e-02
  7.4267727e-01
 -6.0279006e-01
  3.7479475e-01
  3.8425532e-01
  1.3350993e+00
  1.6240381e-02
  6.1622781e-01
 -1.4760305e+00
 -5.4368321e-02
  6.0878322e-02
 -2.0345068e+00
 -6.8726379e-01
  1.3830251e-02
 -2.3960198e-01
  5.2586257e-01
 -2.1683531e-02
  7.1569838e-02
 -1.3649598e+00
  4.9065644e-01
  3.1101888e-01
 -6.9930530e-01
 -4.9654156e-01
 -1.1970954e-01
 -2.8179830e-01
  4.9983972e-01
 -2.1716663e-01
 -1.6776453e-01
 -2.5103927e-01
 -1.7556125e+00
  9.9357858e-02
 -2.5434950e-02
 -7.1755636e-01
  2.3470873e-01
 -2.1929765e-01
 -4.7271350e-01
 -1.5680170e+00
  1.3734447e-02
 -6.6360220e-02
 -4.5120102e-01
  4.5009610e-01
  7.8119594e-01
 -8.7597430e-02
 -2.9302406e-01
 -3.5459831e-02
 -1.1368936e-01
  4.8194179e-01
  1.1319340e+00
 -3.1925079e-01
 -6.7402816e-01
 -7.4186139e-02
 -3.0359060e-01
  1.7648530e-01
  3.8728920e-01
 -7.7781118e-02
 -9.4548367e-02
  5.0800222e-01
  7.8457659e-01
 -6.8721598e-01
  1.0660750e+00
 -2.6640351e+00
  1.7440543e+00
 -1.6181537e+00
  1.1006031e+00
  2.2656584e+00
 -1.3472837e-01
  3.3801317e-01
 -3.6667335e-01
 -2.7325261e-01
  1.4008401e-01
 -2.4280444e-01
 -3.8537431e-01
  3.6964273e-01
  5.4490292e-01
 -3.4215954e-01
  4.3624040e-01
  6.7324296e-02
  1.8289839e-01
 -1.1995531e-01
 -3.5251707e-01
  1.7967567e-01
  2.1320209e-01
  1.2622985e-01
 -3.3735189e-01
  5.9069648e-02
 -1.2370217e+00
 -1.1822211e-01
 -6.2311396e-02
 -6.4595026e-01
 -3.2258275e-01
  4.7751284e-01
 -5.3425783e-01
 -9.5642191e-01
 -2.4809819e-01
 -1.3531885e-01
  1.2059849e-02
 -8.3993936e-01
 -3.3463302e-01
 -1.0955838e+00
  2.5247452e-01
 -4.7222900e-01
  2.0438066e-01
 -4.1097406e-01
 -2.9231769e-01
 -1.3869449e-01
 -6.4948618e-01
  9.5482334e-02
 -3.4208396e-01
 -6.9815385e-01
 -7.8724116e-02
  2.2327408e-02
  1.1364607e+00
 -7.0976013e-01
  3.1681672e-01
  2.1647969e-01
  1.2971775e-01
 -3.2466510e-01
 -3.4744817e-01
 -1.5509608e+00
 -1.5666479e+00
  1.6072400e-02
  6.0509797e-04
 -2.3058625e-01
 -1.9781221e+00
  2.0036598e-01
 -3.2836929e-01
  8.8166550e-02
 -5.6724650e-01
 -1.9927033e+00
 -2.5212562e-02
 -8.2025081e-01
 -9.7976655e-01
 -1.0733473e+00
  5.1472861e-01
 -1.9348925e-01
  7.8752434e-01
 -1.6642316e-01
  9.5692724e-02
 -8.2007033e-01
 -3.4488925e-01
  4.4836421e-02
  4.6320572e-01
 -1.4704852e-01
  1.9722059e-03
  1.1814914e+00
  4.4635737e-01
  4.9849704e-02
 -7.3173136e-01
 -1.4116661e-01
 -3.4496108e-01
 -1.2165158e+00
  2.9096517e-01
  3.8392347e-01
  5.6133938e-01
  4.3418685e-01
  3.5220966e-01
  1.1999198e+00
 -1.0503348e-02
  2.7377024e-01
  1.5187952e-01
 -3.9037228e-01
  1.1622412e-01
 -6.9231862e-01
 -4.8731411e-01
  2.3581277e-01
  5.4688662e-02
 -6.7640865e-01
  6.3526535e-01
 -2.4494302e-01
 -3.6286959e-01
 -8.7130779e-01
  1.5137972e+00
  1.3420608e+00
 -4.6787256e-01
  2.6093650e-01
  5.2463102e-01
 -5.7922363e-01
 -3.2446942e-01
 -9.2295063e-01
  2.8975347e-01
 -7.9780556e-03
 -4.0167165e-01
 -6.9620693e-01
 -3.9432257e-01
  2.2399901e-01
 -6.3481504e-01
 -1.8889209e+00
 -6.6981763e-01
 -9.2479318e-01
  2.3902357e-01
  7.0470184e-01
  4.5608175e-01
 -1.5223350e-01
  9.5769477e-01
 -7.5534022e-01
  2.4582602e-01
 -6.7029840e-01
  2.2922857e-01
  2.1665280e+00
  6.7616329e-02
  4.8957315e-01
  1.2217375e-02
 -4.7155228e-01
 -3.6651137e-01
  8.0268538e-01
 -5.8342564e-01
  4.5088577e-01
 -6.0758746e-01
  2.7180981e-02
  3.4454986e-01
 -9.7264147e-01
  4.4898696e-02
 -1.4606942e-01
  2.8733012e-01
  3.4170410e-01
  1.4117549e-02
  1.7038064e-01
  1.4785785e-02
 -1.2935140e+00
 -1.5060759e-01
  1.4052182e-01
 -1.5387429e+00
 -5.0800002e-01
 -9.6230656e-01
 -5.3412771e-01
 -1.6876951e-01
  4.0795884e-01
  9.4583619e-01
  1.8537833e-01
  2.4229614e-01
 -8.2559633e-01
 -9.8279589e-01
  1.0778271e+00
 -1.0130312e-01
 -2.3609257e-01
 -2.5186136e-02
 -3.9902157e-01
 -2.3040117e-01
  1.8124303e-01
 -1.6147938e-01
 -1.3463637e-01
  2.7693346e-02
 -2.8693900e-01
 -2.5042930e-01
  7.3516285e-01
  1.4657588e+00
 -4.2464320e-02
  3.2662630e-01
  1.1726252e+00
 -4.6324825e-01
 -6.5395629e-01
 -2.5501204e-01
  2.7260339e-01
  4.5488426e-01
  2.6772755e-01
  2.0535222e-01
  1.5447783e-01
  6.2478341e-02
  6.0507882e-01
  4.1401649e-01
 -1.3230881e-01
 -9.6185327e-01
  5.5597585e-01
  1.6763476e-01
 -1.8026477e-01
 -3.1005636e-02
 -3.4743935e-01
  1.3871460e+00
 -2.4870148e-01
 -1.6571854e-01
 -3.3836439e-02
 -2.8057221e-02
  6.0177392e-01
  9.9955380e-01
  2.9202644e-02
  5.3560078e-02
  7.2319084e-01
  3.6799621e-02
 -2.7365798e-01
  7.3266335e-02
  8.1273741e-01
  5.0162494e-02
 -9.3818724e-01
  1.1298522e+00
  1.3533263e-01
 -9.3605734e-02
 -5.8667727e-02
 -2.9057525e-03
 -2.8637600e-01
 -8.4870555e-02
  1.5213925e-01
  1.5779021e-01
 -2.3253635e-04
 -6.2963748e-01
 -3.6307850e-01
 -4.6530303e-02
 -7.1741009e-01
 -2.5476283e-01
 -3.5544205e-01
  1.0995591e-02
 -4.4082835e-01
  1.1453065e+00
 -1.3938405e-01
  4.7189042e-01
  3.2018197e-01
 -3.2049298e-01
 -7.3081905e-01
 -1.9065298e-01
  5.1879084e-01
 -4.7486761e-01
 -3.8463163e-01
 -1.3279229e+00
  3.0671790e-01
 -1.1200614e-01
 -7.2840221e-02
 -2.1264359e-01
  5.7463115e-01
  3.7862071e-01
 -7.3189306e-01
  2.2641562e-02
  2.5277365e-02
  2.5267401e-01
 -4.1390809e-01
 -1.2469051e+00
 -3.2041243e-01
  2.5480567e-02
  5.5513793e-01
  2.8364978e+00
 -3.8608441e-01
 -3.5217887e-01
 -5.0219554e-01
  5.1427644e-01
 -8.6311221e-01
 -1.6013315e+00
 -1.0055284e-01
 -2.5811225e-01
 -8.9013332e-01
  1.3533911e-01
 -2.3651566e-02
 -5.4804683e-02
 -1.5529783e-01
  1.4889801e-01
  3.9834112e-02
  4.6473265e-02
  1.3572985e+00
  1.0537139e+00
  6.0541058e-01
 -2.3783296e-02
 -7.7575874e-01
  4.3738246e-02
  4.0792829e-01
  9.0019059e-01
 -3.7464045e-02
 -7.1236992e-01
  3.9255142e-01
  3.4091157e-01
 -2.4142590e-01
 -2.3539469e-02
  1.6697389e-01
  2.4675971e-01
  9.8893279e-01
  2.6302981e-01
 -2.9702026e-01
 -5.7001787e-01
 -3.4132791e-01
  6.4950478e-01
 -1.7769431e-01
  2.0115434e-01
  9.5791268e-01
  1.9796184e-01
 -1.0751449e-01
 -1.3518587e-01
 -2.1755576e-01
 -1.6996816e-01
 -9.3266249e-01
  5.0977170e-01
 -4.1305077e-01
 -3.8379696e-01
 -5.5744296e-01
  1.1948633e-01
 -2.2467520e-02
  8.7323748e-02
  5.0725877e-02
 -2.1824742e-02
  5.8680272e-01
  1.2320697e-01
 -9.6673444e-02
 -1.1067584e+00
  4.4109407e-01
 -4.4098325e-02
  5.3564310e-01
 -8.8531092e-02
  4.2938477e-01
 -2.2972651e-01
  8.0073535e-01
  8.7012917e-01
 -9.5251203e-02
  2.1603307e-01
 -4.1005912e-01
 -1.6791347e-01
 -2.2687793e-01
  8.3193427e-01
  6.3268155e-02
  1.1175775e-01
 -7.0918840e-01
  5.2187955e-01
 -3.3039379e-01
 -1.7860624e-01
 -2.4426500e-01
  3.9060643e-01
  2.6984539e-02
  7.5144559e-01
 -4.2981538e-01
  8.6947545e-02
  1.6848037e-01
  8.3422583e-01
  1.4348406e-01
  1.2553371e-01
  3.7463108e-01
 -7.3699415e-02
  1.0326575e-01
 -4.9765967e-02
 -3.3872664e-01
 -6.3200372e-01
  8.8523954e-02
  4.8062766e-01
 -3.0434299e-01
  8.9727968e-01
 -2.8378588e-01
  1.2145072e-02
  5.6263143e-01
  6.3794470e-01
 -4.7698653e-01
 -2.2636992e-01
 -4.7567204e-01
 -1.6231656e-01
  4.4539937e-01
 -1.7324271e+00
 -1.1153957e+00
 -1.3310538e-01
 -7.2644383e-02
 -1.3238651e-01
 -4.5824015e-01
  3.1138554e-01
 -4.8073262e-02
 -6.8088609e-01
 -2.9217786e-01
 -4.6876842e-01
 -5.9052026e-01
 -3.8118216e-01
  6.8782881e-02
  1.7200853e-01
  1.7054866e-01
  2.2507691e-01
 -3.9519605e-01
 -1.9181862e-01
 -3.4459603e-01
 -1.0493500e+00
 -2.9928332e-02
  2.1337333e+00
  5.9612215e-01
 -1.1415480e-01
 -1.9247510e-01
 -1.7551075e-01
  1.5014036e-01
  4.7689733e-01
 -9.1218770e-01
  4.2925665e-01
 -1.6466296e-01
  5.0899345e-01
 -3.2945517e-01
  3.1121042e-02
 -2.4669185e-01
 -5.4628623e-01
 -2.9296291e-01
 -2.1888536e-01
 -7.7512914e-01
  1.3044564e+00
 -1.9598632e-01
 -6.1884367e-01
 -7.5414640e-01
 -3.6295155e-01
 -5.6124550e-01
 -2.5904477e-01
  2.8278232e-01
 -2.5860664e-01
  2.2055259e+00
 -2.1222374e-01
  6.1430581e-02
 -2.3677992e-04
  1.2574466e-01
 -4.7774863e-01
  2.6453501e-01
  1.9448657e-01
  4.0447420e-01
 -1.1940422e-01
 -6.6266823e-01
  1.2688978e-01
 -5.1432717e-01
  9.4014928e-02
  2.1492977e-01
  2.3325768e-01
 -4.8395601e-01
 -1.1863440e-02
  2.4947447e-01
 -5.3412896e-01
  6.0618871e-01
 -6.5867543e-01
 -6.2197781e-01
  6.2764341e-01
 -2.3687962e-01
 -9.1336542e-01
  5.4752182e-02
  3.7673309e-01
 -1.7351946e-03
  8.1467718e-01
  1.2814459e-01
 -6.3488936e-01
  6.3715011e-01
  1.9700345e-01
 -1.1044426e-01
 -4.3118224e-02
 -8.9911681e-01
 -1.4782076e-01
  6.1974794e-01
 -2.6917867e-03
  3.2052827e-01
  1.4350356e-01
 -3.0973321e-01
  1.7245559e-01
 -1.5612787e-01
 -1.6749784e-02
  2.1980997e-02
  1.6300184e-01
  1.2289482e-02
 -7.7011377e-02
 -1.0711101e-01
 -4.1767910e-01
  5.4283690e-01
  1.1301768e-01
  1.2071153e-01
  9.2822857e-02
  4.8702553e-01
 -3.6740549e-02
  2.7432847e-01
  2.8698048e-01
 -2.4532637e-01
  4.6161719e-02
  4.1850430e-01
 -2.3620208e-01
  2.5516599e-01
 -1.4793289e+00
 -1.0350347e-01
  6.3293111e-01
  4.9427319e-01
 -7.2769485e-02
  5.1922989e-01
 -2.7232516e-01
 -2.4486134e+00
  1.1310371e-02
  3.4318927e-01
 -6.1898130e-01
 -2.4698488e-01
  1.5672708e-02
 -3.1637338e-01
 -4.4021115e-02
 -1.2011261e+00
 -5.4535594e-02
 -6.8973556e-02
 -2.2338295e-01
 -5.2597195e-02
 -6.9653440e-01
 -4.1240093e-01
  7.3945962e-02
 -6.8301097e-02
 -1.1151897e+00
 -1.4585850e-01
 -8.1452459e-01
  3.2321316e-01
  7.4827336e-02
 -8.6749233e-02
 -1.2415358e-01
 -3.7677434e-01
  4.3193024e-02
  3.0231032e-01
 -1.8976453e-01
  1.1680537e-01
  8.5357845e-02
 -6.4460978e-02
  5.8205438e-01
  7.4587315e-03
 -1.4001520e+00
  6.7745581e-02
  4.2336893e-01
  1.8766962e-01
  7.3987722e-01
 -2.0874195e-02
 -2.2299829e-01
  5.3856075e-01
  9.0297437e-01
  1.0759531e-01
  3.7779254e-01
 -2.3924038e-01
  1.3986616e-01
 -1.5591470e+00
  1.4999203e-01
  5.5942142e-01
  2.5378463e-01
  5.8009994e-01
  6.0998881e-01
 -5.5147521e-02
 -2.3738244e-01
 -1.1125177e-01
  9.8608392e-01
  3.6185938e-01
 -1.2986413e-01
 -2.7664870e-01
  7.6555431e-01
 -7.6158983e-01
 -2.1663782e-01
 -1.4256492e-01
  6.6189960e-02
 -7.5301898e-01
 -3.7869334e-01
 -1.4714070e-02
 -1.7647971e-01
  8.5680783e-02
 -4.6963474e-01
 -1.4258520e-01
 -2.3216580e-01
 -5.4556274e-01
  1.3418423e-01
 -3.3232948e-01
 -3.8163462e-01
  2.6780397e-01
 -6.4368093e-01
 -1.5500151e-02
  4.4859082e-02
  2.3761769e-01
  2.0463237e-01
 -5.3795618e-01
  1.4814250e-01
 -3.1320471e-02
 -3.9876744e-02
 -5.2684981e-01
 -2.8109130e-01
 -1.0284539e-01
  3.4674239e-01
 -1.7543569e-01
  1.2018532e-01
 -2.5009383e-02
  1.1921288e-02
  5.2213877e-01
  7.0921920e-02
 -5.9128660e-01
  6.9571918e-01
  6.4273998e-03
 -1.6801962e-01
  2.3863390e-02
  2.1849990e-01
 -4.5035269e-02
 -4.3105856e-01
 -1.4944188e-01
 -1.0060161e-01
 -2.6783687e-01
  5.0918072e-02
 -5.6743622e-01
  1.8121965e-02
  2.5374316e-02
 -3.0619299e-01
  3.5115252e-03
  3.2971967e-03
  1.6650641e-01
  2.5484461e-01
 -1.5040673e-01
 -2.2113739e-01
  1.2127955e-01
 -4.7178248e-01
 -4.8211762e-01
  4.2197120e-01
 -1.1771074e-02
  4.0583712e-01
 -7.7407435e-03
  1.6113113e-01
  4.5386497e-02
 -1.3303555e+00
